362 100
최기환 -0.022559553 0.10380604 0.051751684 -0.10045943 0.26718175 -0.122243986 0.08338059 0.21275958 -0.2072699 0.14972582 -0.074615836 0.0004921888 0.058711585 0.01452248 0.06847644 -0.11406717 -0.07881256 -0.11234421 -0.08108521 -0.2737651 0.037914217 0.12546954 -0.11208245 0.06490792 -0.0010958246 -0.06292286 0.036916766 -0.0057340586 -0.014700304 -0.117083564 -0.10705529 -0.008262977 -0.035064854 -0.11951201 0.0030885187 0.058906026 0.14202085 -0.2931179 0.24954183 -0.18767676 -0.033479575 0.0048306244 -0.16908155 -0.08258754 0.046964075 0.05482933 -0.062192764 0.19155522 0.12705153 -0.11260018 -0.074188046 0.04364831 0.0036022114 0.19764659 0.010326719 0.004780596 0.029579159 0.033068404 -0.014347515 0.08487523 0.01902586 -0.06527584 -0.12460949 -0.13075282 0.033044092 -0.016931992 0.14218032 -0.046544492 -0.0920827 0.107516475 -0.03575408 -0.032595832 -0.10038092 -0.14956304 -0.0074314023 -0.004204753 -0.036175612 0.03972207 0.02520011 -0.030477092 -0.07199632 0.13911884 -0.17854936 0.035016246 -0.10246453 0.082486674 -0.032018855 0.14063372 0.06821324 0.010759196 0.10324902 0.064687185 0.0117529305 0.065154955 0.14423883 0.056461457 -0.01726848 -0.14048846 0.10977435 -0.006856335
김 0.071085155 1.0457965 0.4272274 -0.4684422 1.0467958 -0.5719142 0.49100068 0.8141543 -0.6835016 -0.18264216 -0.007323708 -0.17767957 -0.0073808273 -0.7113377 0.40203947 0.007574891 -0.15229268 0.1403513 -0.28213045 -1.545277 -0.14528242 0.19799201 0.4206832 -0.15989019 -0.681577 0.34493363 -0.050662838 -0.060484756 0.3366549 0.23165043 0.11038967 -0.31622562 0.059254993 0.07987932 -0.5528506 0.32511073 0.14382951 -0.22582884 0.5640436 -0.37468606 0.9532086 -0.37715834 -0.5913466 0.1423582 0.16743198 -0.1259253 0.35720268 -0.092825755 0.08851872 -0.4661554 0.17763908 -0.34374753 0.22034754 -0.067199275 -0.73854357 0.11359679 -0.13491856 0.12531236 0.11361549 -0.038991824 -0.13327253 -0.39299306 0.5452941 -0.33233032 -0.3378269 0.53610575 1.1071644 -0.16777095 -0.7146229 0.072396494 -0.71334517 -0.22734457 -0.21866989 0.35217568 -0.06592701 0.43588057 -0.29916117 0.25652468 -0.0930335 0.19677734 -0.07439473 0.273193 -0.37141103 0.11060104 0.05276707 -0.23471136 0.18331721 0.31761107 0.2675721 -0.5330628 0.22924557 0.1559166 -0.024464656 -0.34592524 0.86615336 -0.3232918 0.86892444 -0.23580952 0.7092341 0.1477519
최윤영 0.0819058 1.0719101 0.42745128 -0.518523 1.1246015 -0.5811695 0.50094825 0.8519019 -0.7282445 -0.13893218 -0.022819014 -0.18524002 0.0013152839 -0.71120423 0.41805 -0.018755319 -0.18333788 0.14194012 -0.29592624 -1.5675755 -0.14848639 0.22132406 0.36967736 -0.1704558 -0.67204833 0.32420608 -0.019676588 -0.054175757 0.3427856 0.20909852 0.1160484 -0.32780185 0.045249175 0.05406288 -0.5768756 0.35636285 0.16472593 -0.26539987 0.586961 -0.40325963 0.9747572 -0.35127825 -0.60243404 0.14728239 0.19449705 -0.13061327 0.34127942 -0.07641849 0.09976474 -0.50328517 0.15823583 -0.3315179 0.25159344 -0.067715414 -0.77511936 0.08798616 -0.15163629 0.11939703 0.121026285 -0.045690972 -0.06879912 -0.42188415 0.55487794 -0.3288869 -0.35325158 0.5455834 1.1276221 -0.1433485 -0.7251013 0.09043851 -0.7055636 -0.20685452 -0.22230066 0.36429003 -0.06294198 0.47027078 -0.28882486 0.2771879 -0.1199676 0.19875258 -0.07645523 0.27163026 -0.39656106 0.10511326 0.05945645 -0.2520393 0.17424737 0.32664624 0.28989407 -0.54718196 0.23390132 0.20141502 0.00402014 -0.33717117 0.9010876 -0.3165711 0.8540727 -0.25462198 0.75083685 0.13770069
박정수 0.053863343 0.879634 0.35763592 -0.41265112 0.896427 -0.4962944 0.41825348 0.6928366 -0.5691002 -0.13563089 0.006845357 -0.13970079 -0.008347064 -0.5944466 0.34307143 -0.0035081366 -0.13790788 0.09264931 -0.23747186 -1.2545418 -0.10946978 0.17349043 0.3232284 -0.12148411 -0.56897706 0.26803455 -0.030748324 -0.03784499 0.2926542 0.16290116 0.08878581 -0.26286075 0.04023503 0.0676878 -0.44829744 0.30224314 0.13845663 -0.22884096 0.4543914 -0.30877167 0.79453206 -0.27256364 -0.4740687 0.11032689 0.14198786 -0.11579061 0.28654325 -0.06999885 0.08079394 -0.39825347 0.14074224 -0.26050857 0.19943777 -0.051768802 -0.6174537 0.08692931 -0.11838646 0.13065706 0.12275191 -0.03687881 -0.072727606 -0.3244713 0.4592863 -0.2716653 -0.27710384 0.41663435 0.9072987 -0.119615905 -0.5831355 0.04413994 -0.57056904 -0.18081236 -0.18427722 0.30926758 -0.051318213 0.37064055 -0.25196126 0.22105755 -0.109741576 0.17046101 -0.07253475 0.25223228 -0.30108392 0.110657 0.044931494 -0.19751072 0.149945 0.2774145 0.22605401 -0.45639944 0.17566404 0.15753907 -0.01473029 -0.2742699 0.73409694 -0.2713002 0.6991396 -0.21933359 0.5985463 0.11740566
이재황 0.06916717 0.95271283 0.3748803 -0.45274213 0.986306 -0.51060987 0.4564862 0.74205524 -0.6400557 -0.1404042 -0.00077264826 -0.14646345 -0.023997428 -0.6368158 0.35368028 -0.005245144 -0.15279058 0.13486674 -0.23947094 -1.393678 -0.12523007 0.17707309 0.36386016 -0.14449699 -0.60142785 0.30126745 -0.02657019 -0.034480516 0.2990791 0.18202078 0.11296535 -0.27766162 0.046423927 0.045943204 -0.48798528 0.3028465 0.12948826 -0.21291643 0.4974223 -0.33618537 0.87977207 -0.31833282 -0.5468059 0.13954887 0.17369978 -0.1395309 0.31483158 -0.07643889 0.08258748 -0.44197556 0.15334205 -0.28447023 0.23451272 -0.066546015 -0.69569737 0.07684386 -0.15261142 0.10458021 0.11942285 -0.056876156 -0.07115229 -0.3872576 0.51130843 -0.2780739 -0.32547814 0.48691195 1.010087 -0.12885198 -0.6450925 0.07095593 -0.63782394 -0.17337641 -0.20467447 0.34651384 -0.057149287 0.41542834 -0.263326 0.26040405 -0.09477917 0.17114316 -0.08950581 0.23785026 -0.31953847 0.08463961 0.04661017 -0.23130289 0.18830545 0.29572764 0.23112151 -0.5068843 0.20128107 0.16219 -0.00034421837 -0.30510533 0.7942986 -0.3114137 0.7806505 -0.21419513 0.64794624 0.13988626
김병욱 0.066527456 1.046937 0.41991827 -0.50945514 1.052691 -0.5855361 0.50165 0.822732 -0.7056064 -0.16302264 -0.0083475355 -0.17594492 -0.02831897 -0.71202797 0.3839505 -0.010729643 -0.1792149 0.12059036 -0.2786814 -1.513718 -0.14079495 0.21687555 0.3812756 -0.14807993 -0.67624164 0.3174858 -0.029995577 -0.078769155 0.35147223 0.20295557 0.11497454 -0.32224017 0.047660895 0.044561233 -0.5446604 0.35772312 0.16163221 -0.24537444 0.5705639 -0.39392334 0.97616 -0.35148442 -0.5916877 0.12763874 0.17789978 -0.14094976 0.3254918 -0.059334982 0.10319457 -0.484711 0.15758179 -0.3296753 0.2678092 -0.037729487 -0.7583962 0.0995648 -0.12663265 0.1163583 0.123646684 -0.049902014 -0.06350251 -0.40836164 0.54731125 -0.3274781 -0.32983944 0.52510744 1.0783373 -0.14543946 -0.7001454 0.057560828 -0.6899671 -0.20439059 -0.20787238 0.36324283 -0.058926784 0.4616711 -0.30451608 0.27306685 -0.11764894 0.20329288 -0.07229336 0.2696935 -0.35106784 0.08572471 0.05839099 -0.2508516 0.16766416 0.34035543 0.26583284 -0.5353041 0.24537648 0.1997743 -0.02656035 -0.32213134 0.87608653 -0.31146017 0.8213528 -0.26195157 0.7146455 0.14203872
배종옥 0.10036052 1.0601974 0.42914313 -0.5149871 1.103592 -0.5864994 0.51889473 0.83879894 -0.7323532 -0.1574124 0.0115369065 -0.16454786 -0.013863914 -0.70160496 0.39619783 -0.0045665638 -0.16607012 0.14191522 -0.27533737 -1.5638552 -0.13818412 0.2094812 0.38880506 -0.15764144 -0.6795618 0.32766473 -0.02433419 -0.06449636 0.35044426 0.19797072 0.119319856 -0.3104139 0.041104823 0.06399003 -0.5715113 0.35996044 0.15220945 -0.27726054 0.56960684 -0.39873523 0.9951501 -0.35321316 -0.59382534 0.13491485 0.18729588 -0.13503972 0.3452401 -0.08563961 0.08485008 -0.50514567 0.16122687 -0.33702996 0.24161068 -0.047034126 -0.7836839 0.08765077 -0.15706487 0.1231702 0.12408078 -0.058671612 -0.0830521 -0.41999274 0.56984645 -0.32391268 -0.35066742 0.5463476 1.1229073 -0.17177379 -0.7212197 0.06292098 -0.71314186 -0.20197569 -0.24100143 0.3703428 -0.05183676 0.45746627 -0.29773712 0.2865308 -0.116825856 0.21444668 -0.07998184 0.28410512 -0.36763346 0.116028376 0.048048057 -0.25009724 0.19522272 0.3372235 0.25882936 -0.55439883 0.22682531 0.19213647 -0.014860167 -0.33361202 0.8831624 -0.34171042 0.8710804 -0.26334423 0.7377439 0.16771045
김민정 0.09421967 1.1437567 0.4839654 -0.55558544 1.1932139 -0.6393392 0.556216 0.9043965 -0.786807 -0.18350516 0.00022163222 -0.18053009 -0.011623563 -0.78362507 0.44679645 0.00046769474 -0.19460016 0.1455317 -0.3095697 -1.6935672 -0.14864226 0.24060415 0.4090353 -0.1866347 -0.74225336 0.362865 -0.04101327 -0.054442886 0.37126398 0.22579779 0.104546584 -0.33724424 0.054468963 0.06016414 -0.61188304 0.38168016 0.16509783 -0.29142836 0.6177878 -0.41089886 1.0776547 -0.3729605 -0.66409117 0.15492374 0.2100409 -0.16406739 0.37939432 -0.07807136 0.11663739 -0.5359764 0.16700484 -0.36161914 0.28781387 -0.06715309 -0.8481827 0.1282415 -0.17845704 0.15051444 0.15485428 -0.032925993 -0.07519647 -0.4448589 0.59163356 -0.34048855 -0.37260854 0.5896797 1.2049699 -0.16302238 -0.77067554 0.07135869 -0.768267 -0.22996846 -0.25001416 0.38578683 -0.07178009 0.5072093 -0.31390873 0.29117054 -0.11834115 0.20851117 -0.103887856 0.31495184 -0.4051056 0.12625574 0.058997415 -0.26759022 0.20463988 0.38090825 0.3072145 -0.6094573 0.25839767 0.20242374 -0.021947918 -0.35166857 0.9507246 -0.3655897 0.9300322 -0.2799237 0.8041127 0.16388384
윤영삼 0.06566382 1.1654365 0.46862984 -0.5285771 1.175801 -0.62888056 0.5617829 0.888055 -0.7872947 -0.20012078 0.01877824 -0.18700624 -0.024310905 -0.7947948 0.45325613 0.01212789 -0.17996085 0.14930212 -0.32005057 -1.6916924 -0.167073 0.23991092 0.46037227 -0.19062942 -0.73099136 0.36614072 -0.056286406 -0.06135328 0.37902915 0.2307818 0.15100788 -0.35948268 0.0699542 0.09501197 -0.6113929 0.38342357 0.15819094 -0.23677655 0.59763104 -0.41172236 1.0643398 -0.3742421 -0.63527024 0.16563776 0.19675708 -0.17118321 0.39671835 -0.09046532 0.07829562 -0.5131282 0.19566542 -0.36353406 0.273867 -0.0851295 -0.8483824 0.099508055 -0.16557333 0.14953178 0.16271773 -0.057220794 -0.11197075 -0.44787714 0.65469956 -0.33472583 -0.4056116 0.59579456 1.2058898 -0.1555939 -0.7920906 0.06747942 -0.77511764 -0.21149737 -0.23001051 0.43079156 -0.08680232 0.5040479 -0.32584608 0.28626367 -0.14883737 0.2185395 -0.09823943 0.29178423 -0.36270532 0.117970504 0.07999105 -0.26351115 0.20792504 0.3408012 0.28570732 -0.59149414 0.23272583 0.20664157 -0.010572159 -0.37229437 0.9730736 -0.36547676 0.9576623 -0.26052395 0.7992136 0.1686916
찬 0.06982409 1.1324902 0.45475215 -0.52701515 1.1587776 -0.64480823 0.53881645 0.9058078 -0.7711384 -0.19883122 0.013205935 -0.19903426 -0.03324475 -0.78942496 0.43201444 0.02120488 -0.16502301 0.12613367 -0.305227 -1.6922787 -0.15185927 0.24237569 0.43723825 -0.1719371 -0.726506 0.35761085 -0.064605445 -0.04306388 0.38182878 0.22978504 0.1495074 -0.34615973 0.07635083 0.09976823 -0.6218122 0.38269868 0.16485883 -0.24983186 0.603504 -0.39460257 1.071659 -0.37136483 -0.63845855 0.16085492 0.1897415 -0.162723 0.37808362 -0.08361961 0.09780086 -0.5042399 0.18937252 -0.35232174 0.2774684 -0.073340595 -0.8396682 0.093333624 -0.16503641 0.14262462 0.16119707 -0.042795554 -0.103469275 -0.42584282 0.64303637 -0.33860248 -0.38673836 0.5782925 1.1864712 -0.17323974 -0.7745292 0.05686177 -0.7545689 -0.20916758 -0.2403861 0.39705864 -0.06551712 0.4948232 -0.30789793 0.2907429 -0.12826549 0.21520992 -0.09200754 0.29300714 -0.38341707 0.14276297 0.064576425 -0.27115965 0.19207919 0.34923258 0.29724452 -0.59336084 0.23868217 0.21724059 -0.0015950458 -0.3513823 0.96609026 -0.37668124 0.92936075 -0.2579989 0.8023572 0.1818351
송재정 0.09594857 1.0983869 0.45705336 -0.53963935 1.1161866 -0.6227884 0.51923335 0.8754474 -0.74666893 -0.18731697 0.015523384 -0.17838481 -0.014712208 -0.7567162 0.43641317 0.01085236 -0.17431116 0.13022086 -0.29129818 -1.6199716 -0.14767192 0.22194271 0.41677025 -0.17365278 -0.71553504 0.34542033 -0.04273918 -0.06477628 0.3781861 0.22586973 0.111310266 -0.33121237 0.074373156 0.083440706 -0.5667936 0.3687732 0.16292936 -0.26525864 0.5830614 -0.39361912 1.0168428 -0.35626256 -0.6268745 0.1653881 0.17131837 -0.16535795 0.3623602 -0.080819264 0.08775565 -0.5047346 0.17034152 -0.34493166 0.25023648 -0.058463454 -0.79575545 0.104072005 -0.16086274 0.13898805 0.15929908 -0.039449647 -0.099610455 -0.41911665 0.58764416 -0.32663193 -0.3696251 0.5627818 1.1470034 -0.17352012 -0.7472201 0.06094696 -0.72753805 -0.20122382 -0.2411754 0.3901273 -0.061370004 0.494228 -0.30214944 0.271424 -0.13100837 0.21374466 -0.079535045 0.30989578 -0.3654192 0.13991722 0.043487847 -0.24912968 0.18562326 0.35332495 0.28824133 -0.5636527 0.25397235 0.19423413 -0.014749609 -0.3316625 0.90546155 -0.35335743 0.9071905 -0.2640804 0.7635082 0.15125121
이홍렬 0.08761026 1.0699259 0.42591307 -0.4764257 1.0570691 -0.5961299 0.49091625 0.82619554 -0.70004666 -0.19005035 0.00888656 -0.17030974 -0.03174782 -0.7276102 0.4185654 -0.0017133553 -0.16099079 0.12135699 -0.2890904 -1.5489631 -0.14098546 0.19689359 0.42325708 -0.18041453 -0.6909715 0.3291498 -0.07449884 -0.0400395 0.36003342 0.22093482 0.12030427 -0.32328144 0.074879766 0.08569795 -0.54549026 0.33691746 0.13374306 -0.22008191 0.5329241 -0.3812458 0.9574633 -0.35344836 -0.56896347 0.16276453 0.16450192 -0.15308267 0.3541145 -0.09826758 0.08026992 -0.44900241 0.18066587 -0.33932176 0.25994298 -0.07331042 -0.7658864 0.08994918 -0.14163485 0.1409527 0.1396869 -0.04852614 -0.093577184 -0.40541127 0.57091177 -0.31197613 -0.35924813 0.5414968 1.1044084 -0.12639356 -0.72885853 0.05836599 -0.70975935 -0.19163157 -0.20800096 0.3876636 -0.061172143 0.46734568 -0.297172 0.284085 -0.12838802 0.19213176 -0.08306557 0.28617737 -0.36375535 0.112539515 0.08024505 -0.24752511 0.18409663 0.3042754 0.2849419 -0.53202254 0.23207797 0.18006653 -0.03493672 -0.3307872 0.88275415 -0.34087566 0.84629184 -0.24265787 0.70908564 0.1490342
권오중 0.07319448 1.0019119 0.4317601 -0.49804515 1.0544326 -0.5616556 0.47738948 0.811852 -0.65509915 -0.14153221 -0.01852219 -0.17224294 -0.016143069 -0.6775609 0.3761419 -0.018533763 -0.17875701 0.12246001 -0.2505152 -1.4650502 -0.13369903 0.20737343 0.34939373 -0.14031023 -0.63814896 0.31735626 -0.04174575 -0.04187642 0.3328903 0.19533347 0.08844022 -0.2985097 0.046847157 0.06828212 -0.5346368 0.33642805 0.14473127 -0.27993074 0.5510932 -0.3782901 0.90999377 -0.31269398 -0.5712947 0.11869551 0.14687489 -0.15625297 0.34320137 -0.08350837 0.08850059 -0.4666827 0.15881094 -0.30954453 0.23925474 -0.04352718 -0.70893294 0.104366876 -0.14395295 0.1400329 0.13987096 -0.03444668 -0.091211684 -0.39876083 0.5262057 -0.317172 -0.3309881 0.49230453 1.0815976 -0.15841047 -0.6755645 0.07874505 -0.65745527 -0.1967935 -0.21664351 0.33603135 -0.048659656 0.4384654 -0.28681928 0.23807395 -0.12772362 0.2012215 -0.09169059 0.29841053 -0.35690233 0.12844345 0.03977299 -0.2245428 0.1693812 0.31602928 0.25947747 -0.5143861 0.22129764 0.18228999 -0.0014352766 -0.33009055 0.83965594 -0.3076326 0.8143434 -0.24028765 0.70649195 0.15379977
노주현 0.056689713 1.0064694 0.3939342 -0.456715 0.98948395 -0.5596984 0.4442757 0.761984 -0.6647219 -0.16070054 -0.011171166 -0.16251992 -0.033802044 -0.6858781 0.39828634 0.022747211 -0.14271569 0.1174383 -0.26301092 -1.4596394 -0.11797598 0.21226944 0.38474244 -0.13506486 -0.6288786 0.33019784 -0.07324889 -0.064695224 0.34026003 0.21820927 0.11786553 -0.29283458 0.08024151 0.07062449 -0.5112781 0.31776342 0.12791613 -0.21528293 0.5305161 -0.365108 0.9059114 -0.33727622 -0.53425205 0.1512611 0.1548335 -0.14905679 0.30639943 -0.07497 0.10276842 -0.45494235 0.15108284 -0.31151143 0.2287271 -0.05812192 -0.7110494 0.08907768 -0.123419 0.12212479 0.122514054 -0.023737634 -0.07698017 -0.35583103 0.52174026 -0.2852027 -0.30535868 0.49785194 1.0316278 -0.13148573 -0.6570673 0.0532582 -0.67268157 -0.19611134 -0.2188411 0.34060413 -0.040327255 0.4475619 -0.27671486 0.25989687 -0.10108847 0.16689931 -0.066182636 0.24830806 -0.32752973 0.12139879 0.0678063 -0.21923858 0.1786937 0.31302613 0.25972193 -0.50874466 0.23407458 0.18653926 -0.019111976 -0.3086469 0.8064277 -0.31879222 0.79826236 -0.23306225 0.67650265 0.16123727
신구 0.08829915 1.023658 0.40923402 -0.4960174 1.0495645 -0.56460804 0.49291062 0.79515785 -0.66713613 -0.17565249 0.018693995 -0.17268926 -0.030878386 -0.6981105 0.38131866 0.0065191374 -0.15402798 0.12345371 -0.26450792 -1.4771391 -0.12281014 0.20841031 0.3750279 -0.16803129 -0.65646946 0.32197773 -0.02808258 -0.055010878 0.34582704 0.19080499 0.10073036 -0.30767277 0.050956536 0.051135574 -0.5420461 0.31619227 0.16061082 -0.22148387 0.53388155 -0.34509337 0.9490811 -0.3335619 -0.56162614 0.14729622 0.18320051 -0.12945095 0.3330145 -0.0804159 0.087922715 -0.4507337 0.16449454 -0.30780634 0.24883072 -0.07666516 -0.7411731 0.08410171 -0.12940642 0.12924066 0.13002975 -0.041862268 -0.09207718 -0.40175888 0.5420093 -0.29032597 -0.32455474 0.5280081 1.0564365 -0.1564398 -0.68549585 0.053066023 -0.68271315 -0.20512187 -0.20510857 0.3554694 -0.06329973 0.42711216 -0.26632595 0.2684163 -0.10723261 0.19840395 -0.08843572 0.2650782 -0.33740258 0.08598953 0.066321954 -0.23449495 0.19271864 0.32371214 0.25023866 -0.5349286 0.22323336 0.18489075 -0.003285292 -0.30951962 0.8414645 -0.32987 0.8244185 -0.22357704 0.680416 0.16082473
예 -0.17087342 0.44437936 0.47911486 -0.31108776 0.6063871 -0.5234537 -0.009417038 0.6968704 -0.17333342 0.27502847 -0.37062895 -0.97506577 0.23040392 -0.0076729474 -0.6127854 -0.22771299 -0.34323737 -0.290551 -0.0012408438 -0.66073036 0.21698041 0.20157349 -0.18858089 0.2311269 -0.27093107 0.2468998 0.06504329 -0.23508258 0.15704487 -0.2860459 0.11259977 -0.24779269 0.13036254 -0.3771923 -0.39485496 0.6903727 0.44210193 -0.4960177 0.13776056 -0.7549923 0.07382722 -0.38814354 -0.21739028 0.028011246 0.1701776 0.1988409 -0.4655934 -0.00503971 0.5107078 -0.53237903 -0.31751472 -0.17404185 0.69039124 0.14100812 -0.07357989 -0.07126782 0.16223343 -0.1496026 -0.19112737 0.40788272 0.39998612 -0.37990788 -0.2727249 -0.26428467 -0.07780409 -0.25602806 -0.118773 0.45446715 0.3941165 0.45177707 0.06923335 0.042289063 0.22866762 0.2068534 0.69634825 0.26066646 -0.3605326 -0.13621093 0.047596287 0.16635811 -0.23568183 0.21763262 -0.4099367 -0.32529998 -0.003033695 0.12511376 -0.27430567 0.057445437 0.58749443 -0.048563298 0.33480403 0.71574444 0.22030511 -0.23639953 0.19740719 0.55486387 -0.38490936 -0.3826866 0.13567114 0.08325109
양세형 -0.093964376 0.36277288 0.4567743 -0.361518 0.6519309 -0.4153838 -0.072768986 0.5709304 -0.15630084 0.1707007 -0.27068487 -0.8885633 0.25792015 0.067774594 -0.5469898 -0.18760347 -0.28357935 -0.28360087 0.06758305 -0.588045 0.21271737 0.11692329 -0.16503479 0.2323755 -0.16805314 0.23799786 0.05917162 -0.19525757 0.095857725 -0.2197579 0.06766848 -0.21196777 0.009560014 -0.42081457 -0.3374164 0.62617 0.35201487 -0.4028152 0.07973524 -0.6774439 0.023248928 -0.30211926 -0.20786196 0.030200303 0.11850942 0.16731334 -0.39309093 0.04535104 0.3933556 -0.35809228 -0.32272527 -0.1463437 0.56771 0.088397786 -0.066180974 -0.030581947 0.08995854 -0.10048285 -0.19530103 0.29712597 0.32319048 -0.34291828 -0.18932511 -0.15088087 -0.06996561 -0.24038184 -0.036012493 0.34320515 0.4817818 0.36966166 0.106386654 0.0713544 0.13063852 0.17562777 0.5665096 0.23319142 -0.29360494 -0.113761924 0.1516432 0.22296143 -0.22797489 0.19592486 -0.27642444 -0.39658627 -0.036577553 0.096435934 -0.20522365 0.06612478 0.50451213 -0.052829765 0.3191533 0.64484906 0.20810673 -0.1966316 0.11165077 0.4642951 -0.3943305 -0.34315476 0.057035744 0.13485962
백종원 -0.07596844 0.3448177 0.41155392 -0.34162697 0.603386 -0.37969133 -0.035600048 0.5172364 -0.15976915 0.16194734 -0.24849644 -0.77207947 0.24158382 0.039814256 -0.43745407 -0.18718567 -0.26783177 -0.25684178 0.057831064 -0.5373927 0.19042893 0.10235428 -0.17139281 0.19437298 -0.15744103 0.18105644 0.054045092 -0.1768681 0.10042194 -0.20065081 0.040220503 -0.168093 0.006246016 -0.35241243 -0.29479122 0.5662505 0.303699 -0.36238694 0.11761822 -0.59741753 0.04535084 -0.26882794 -0.1809758 0.032611478 0.10594553 0.14888337 -0.34213626 0.062374566 0.3453897 -0.32944217 -0.27096513 -0.10756024 0.5106122 0.07684407 -0.04786922 -0.02385406 0.092552796 -0.06808073 -0.16072443 0.27961078 0.2875243 -0.3057695 -0.20532759 -0.15557536 -0.049985297 -0.22646217 0.0038655694 0.306364 0.4124167 0.32207668 0.06695071 0.030199522 0.11346772 0.15105519 0.5110044 0.22094499 -0.26102498 -0.08855105 0.13083021 0.20326632 -0.1966213 0.20334545 -0.25086397 -0.3273416 -0.017699065 0.09679957 -0.16097757 0.077709034 0.46508482 -0.055433437 0.29736915 0.5657575 0.18636335 -0.16663182 0.12534684 0.41391072 -0.32987392 -0.29761252 0.085641444 0.09351158
윤용현 0.10513252 0.43636152 0.0071218503 -0.92456627 1.0820187 -0.58572066 0.41553566 0.26111415 0.23863818 0.44652972 -0.07298265 0.33246619 0.22406478 0.10832966 0.04821435 -0.2485337 -0.49902523 0.25522062 0.511445 -0.14242347 0.297178 0.0744226 -0.8901164 -0.06836974 0.326915 -0.13784517 0.45941484 0.16419216 0.086778075 -0.87370247 -0.23381537 0.43501946 -0.43878058 -0.28263426 0.05362609 0.4123185 0.07643456 -0.70439667 0.324195 -0.67416465 -0.030120298 0.25892988 -0.6831492 -0.786848 -0.1257201 -0.030389227 0.22551444 0.43609172 0.18072379 -0.15794772 -0.12318813 0.5190122 -0.21766679 0.79643863 0.016642777 0.62293005 -0.2561154 0.19322152 0.018604795 -0.16937 0.35042834 -0.5432694 -0.2927218 -0.30789432 -0.5732968 -0.08643657 0.87287915 -0.23936078 0.26605237 0.58282506 0.22126913 -0.56987196 -0.38427398 -0.05903162 0.32507545 0.20274906 -0.54618347 0.20310481 -0.30826026 0.20740867 -0.5202623 0.6166058 -0.5206114 -0.089214936 -0.052913215 0.18494423 0.1349081 0.3973692 0.33170936 -0.72806454 0.16374114 0.04407397 0.08169303 0.104019 0.20158643 0.12315854 -0.040020265 -0.2704613 -0.0476647 -0.31578293
안효섭 0.11648058 0.8052208 0.4563706 -0.7760766 0.59659916 -0.42604142 0.47935352 0.07155267 -0.77332383 0.39264876 -0.58791125 -0.19720282 0.68652093 0.03673195 0.92729646 -0.28889057 -0.80209666 -0.3457515 -0.14584132 -0.09276552 0.56535035 -0.33086425 -0.50191575 -0.25691217 -0.6836635 -0.10166098 -0.06288285 -0.65500265 0.30467334 -0.45962656 -0.7274164 0.1540074 -0.2597048 0.4374262 -0.38054013 -0.104045585 -0.41309848 -0.5979476 0.44148424 -0.59301287 0.28316763 0.42524365 0.035403986 0.109220415 -0.29548472 0.14413732 -0.40287575 -0.12221021 0.19835964 -0.28044268 -0.6434455 -0.30963877 -0.13133734 -0.46542636 1.056059 0.029080454 0.1552862 0.5205336 -0.39846173 0.13000903 0.68890744 -0.5663191 -0.7916104 -0.4511246 0.9190536 -0.095228516 0.42786005 -0.46440437 -0.23450463 -0.06145783 -1.165264 -0.46765968 0.18752567 -1.196569 0.15460514 0.22395428 0.31215093 -0.23216952 -0.12754892 -0.16081527 0.07417606 0.30873254 -0.94423944 0.41114688 -0.25480488 -0.19823278 -0.109929815 0.24284862 -0.106426865 -0.6828055 0.4612194 0.10546527 -0.95998806 0.31380397 -0.06501259 0.114806585 -0.6913878 0.25838488 0.6106395 0.052714564
유재석 0.33151338 0.21403477 0.4356387 -0.083524965 0.3707871 -0.22085772 -0.3232876 0.76885325 -0.23397584 0.95788455 -1.0371861 0.3232057 0.6254649 0.62227356 0.16332279 -0.28115562 -0.6929817 -0.31644133 -0.07279444 0.104676805 0.19079791 0.4941237 -1.6218828 0.57132214 -0.31553936 -0.16483684 0.34128523 -0.65893704 0.3333132 -0.13696206 -0.44379202 -0.36518598 -0.5711525 -0.67678756 -0.03222569 0.5352465 0.7557229 -1.1455834 0.89718044 -0.7076612 0.03915172 -0.13985184 -0.3645486 -0.5400397 0.07592721 -0.011598742 -0.4145527 0.2902302 0.26576504 -0.98934174 -0.35068718 0.1598591 -0.08355367 0.7864335 0.36714095 0.51044166 -0.08228876 -0.13084574 -0.4606317 -0.2713811 -0.011865551 0.155349 -1.1670965 -0.28944954 0.67812544 -0.05619533 0.7025284 -0.65519726 0.34999663 0.41469228 -0.17008363 -0.5366804 -1.1219773 -1.182388 0.4748474 0.17797329 -0.5712245 0.26367596 0.3791565 0.44244668 0.35647798 0.55771697 0.111732565 -0.21194758 -0.30702817 0.58108944 -0.40687254 0.79573137 0.1011812 0.63969874 0.035988912 -0.33353615 0.055018935 -0.14626344 -0.39797378 0.010101021 -0.6267999 -0.33106205 0.39136687 0.46780273
김수로 0.30504745 0.20614667 0.4097516 -0.108054906 0.35310706 -0.21345446 -0.29028392 0.70095724 -0.2127176 0.9187282 -0.93786234 0.3011242 0.57883996 0.5684635 0.13333547 -0.27576736 -0.64493644 -0.30686924 -0.04178 0.10991889 0.18304983 0.43505326 -1.4953038 0.51095825 -0.26832402 -0.15296736 0.32165653 -0.5969883 0.32076442 -0.15685841 -0.41603494 -0.3041995 -0.5147959 -0.639643 -0.007860801 0.48231125 0.6843406 -1.1050167 0.8289417 -0.6785457 0.008465535 -0.10798678 -0.33258483 -0.5224879 0.05900838 0.00697183 -0.37246776 0.28409863 0.2569697 -0.92201436 -0.33549938 0.19452909 -0.09014119 0.7566363 0.35929993 0.45146668 -0.075136766 -0.11177619 -0.41719314 -0.2397515 0.015474173 0.12458586 -1.1083775 -0.27053326 0.62897056 -0.091399595 0.65493965 -0.5868467 0.3191473 0.40807942 -0.15581682 -0.49205077 -1.0115756 -1.0789846 0.44593227 0.1342383 -0.5344617 0.22904278 0.3563114 0.4088764 0.3176783 0.5120655 0.07263617 -0.17838246 -0.28455392 0.519301 -0.38179776 0.73138577 0.11150045 0.5619648 0.06695688 -0.30445293 0.04846106 -0.1301373 -0.36712453 0.036201645 -0.6117903 -0.30011538 0.35634384 0.40174967
이효리 0.30659637 0.23542233 0.41753322 -0.12216893 0.40374804 -0.2499442 -0.26974714 0.74099034 -0.23283581 0.9156391 -0.9751706 0.2785355 0.584056 0.56252193 0.15780707 -0.26752606 -0.69075584 -0.2968692 -0.038984567 0.06722211 0.19245677 0.46939683 -1.5149658 0.5273918 -0.28136536 -0.14666408 0.32708308 -0.6023204 0.331348 -0.16486827 -0.43732244 -0.3039503 -0.51765925 -0.635796 -0.02218595 0.5332887 0.71939075 -1.1225562 0.8460433 -0.69025993 0.041642014 -0.12700136 -0.3632798 -0.53368926 0.06921499 0.006640598 -0.37705976 0.29202476 0.27776313 -0.96113247 -0.33676764 0.16859603 -0.076004185 0.7774024 0.35929668 0.48543808 -0.07886947 -0.12362524 -0.4109753 -0.230407 0.01731286 0.10812068 -1.1081116 -0.29130438 0.63176703 -0.07878258 0.67133653 -0.59384835 0.30419973 0.43189263 -0.18116888 -0.5087741 -1.0147715 -1.0825921 0.44277334 0.15988572 -0.56169724 0.22258465 0.3492564 0.4158988 0.3181436 0.5422543 0.053662628 -0.19093786 -0.28992698 0.5265883 -0.38429457 0.75242776 0.1318416 0.54728484 0.06776051 -0.2820079 0.041084457 -0.12805432 -0.3318943 0.024321428 -0.5980826 -0.3213001 0.37688372 0.41014853
윤종신 0.30699915 0.18778178 0.4137322 -0.11323446 0.33861202 -0.2183985 -0.31492525 0.71961486 -0.2129745 0.9236288 -0.98752284 0.30138102 0.5848038 0.60358137 0.14983237 -0.26711795 -0.65078163 -0.32301703 -0.03454091 0.12211673 0.2025863 0.45794287 -1.5377227 0.5122954 -0.29511043 -0.14434388 0.32361838 -0.6210704 0.32275382 -0.14903432 -0.4181738 -0.31679538 -0.5511307 -0.65713054 -0.013821163 0.4905688 0.71566296 -1.1011668 0.83389133 -0.67457366 0.022957234 -0.11215645 -0.32838243 -0.54404074 0.07383292 0.0022023967 -0.39469525 0.28789407 0.2602238 -0.9374216 -0.34322613 0.18120103 -0.0735754 0.7727109 0.36971402 0.4845555 -0.0710615 -0.10683607 -0.42253393 -0.2458877 0.004386225 0.12882976 -1.133323 -0.26428637 0.6540584 -0.08419268 0.65875995 -0.61439294 0.35387087 0.42287886 -0.1572576 -0.5077755 -1.0542634 -1.1272941 0.46448246 0.14421424 -0.54094493 0.23471227 0.36183274 0.4168654 0.33510768 0.52431446 0.09143317 -0.18787552 -0.28361368 0.5353908 -0.4056937 0.76409495 0.10283035 0.6008193 0.054421905 -0.31589514 0.043354012 -0.14132796 -0.39496744 0.043115545 -0.6099535 -0.31135634 0.37065405 0.43434113
변우민 0.02258426 -0.08962218 0.3269233 -0.18885943 0.4072328 -0.63069695 0.55751634 0.9879123 -0.21688093 0.32630703 -0.6512141 0.08561011 -0.06409865 -0.3058105 0.2248919 0.03318909 -0.7921165 -0.03251763 -0.70051205 -0.54901636 -0.0339524 0.61557686 -0.42542666 0.13244565 -0.3869097 -0.40797314 0.46316776 -0.50805676 0.35215405 -0.36075383 -0.16725247 0.03535472 0.8887466 0.08654267 0.24177948 0.35711628 0.48171508 -0.5651975 0.9294162 -0.39473042 0.5190369 -0.10567689 -0.2841616 -0.15065084 0.58435786 0.2632424 0.0639549 0.43130344 0.76935893 -0.8279947 0.062200494 0.010355446 0.2914703 0.4652415 -0.12838148 0.36036178 0.07023592 -0.2629708 0.34069034 0.585494 0.4981277 0.27146187 -0.7940165 -0.57725215 0.0762294 -0.08254527 0.08421877 0.22027138 -0.75334936 0.6182354 -0.31866765 -0.3105827 0.43898997 -0.12705718 0.5631503 -0.23007962 0.15056503 -0.2816434 -0.22740744 -0.16487423 0.36961496 0.28888708 -0.7780761 0.49323845 -0.3296306 0.1388076 -0.47635442 0.089684665 0.048531033 -0.28925544 0.3845416 -0.0568406 0.60085803 0.4262328 0.64994544 0.18920572 0.053705525 -0.049814306 0.23699364 -0.2939821
대성 0.33989054 0.2241853 0.42913243 -0.10945398 0.36799252 -0.22632426 -0.33082873 0.75420415 -0.2170371 0.9731424 -1.0376995 0.33718854 0.6176536 0.6221947 0.13642482 -0.2775463 -0.6759326 -0.3104905 -0.053133477 0.12156266 0.1871969 0.47352633 -1.6217998 0.5357733 -0.2974519 -0.15900405 0.32959136 -0.65125287 0.33550426 -0.13837463 -0.44897616 -0.32933822 -0.5831045 -0.68758804 -0.01258793 0.532844 0.7457027 -1.1643198 0.88241726 -0.73074293 0.0077768243 -0.124117106 -0.3429859 -0.5675921 0.062132925 -0.005479663 -0.41159937 0.28706408 0.27126896 -0.9920397 -0.36904716 0.18695584 -0.1038117 0.8025361 0.39669722 0.48581925 -0.09290052 -0.12944527 -0.46002957 -0.26783937 0.009826697 0.12751727 -1.1766347 -0.27823114 0.6954244 -0.080390714 0.7049262 -0.6608373 0.34345552 0.41751885 -0.17793344 -0.54408693 -1.108575 -1.1739951 0.46851397 0.15508598 -0.5828017 0.25401086 0.3769067 0.44079623 0.3657203 0.563166 0.09937462 -0.20173855 -0.30094028 0.55704045 -0.40253466 0.8041734 0.108822875 0.62409014 0.034637906 -0.328412 0.056425065 -0.15108421 -0.40448558 0.014928052 -0.6639262 -0.31874233 0.37943107 0.45578337
석 0.023198798 0.5459438 0.12435608 -0.30856505 0.4120451 -0.46452856 0.5567899 0.42659253 -0.6000309 0.40165067 -0.33106405 -0.36667594 0.23250489 -0.13328485 -0.162353 -0.13091233 -0.2138695 -0.15216674 -0.076783456 -0.6156325 0.36851206 0.036397975 -0.0767924 -0.01494605 -0.5154922 -0.10394428 0.037552774 -0.26744527 0.21010318 -0.19002603 -0.090838335 -0.19490476 -0.015423381 0.17446958 -0.2318551 0.4119335 -0.02506558 -0.57443136 0.46205094 -0.7279358 0.23886473 -0.2720871 -0.056260582 0.1302652 -0.057905294 0.08637709 -0.25746793 -0.17921692 0.32323852 -0.51538104 -0.22210158 0.03052553 0.49306604 0.12325755 0.06320652 0.14267789 0.100293316 0.1770176 -0.2751017 0.033606693 0.37194952 -0.25566232 -0.1996332 -0.35734496 0.17116088 -0.11278217 0.2078765 0.13255474 -0.14763097 0.13556096 -0.5396354 -0.6237333 0.15934965 -0.2720218 0.12317651 0.33102223 -0.12346721 0.0065535847 -0.19251135 0.19922413 -0.09594516 0.40056744 -0.6256857 0.38437754 0.13905363 -0.025074687 -0.30444986 0.4368217 0.08515287 -0.3204364 0.43569744 0.3007664 -0.17683066 0.049547166 0.13504083 0.054596316 -0.11392127 -0.4100233 0.57776016 -0.03009685
빈 -0.1441449 0.4563293 0.489162 -0.37322846 0.6825336 -0.5079963 -0.04817287 0.69238013 -0.15285204 0.25625023 -0.33082205 -1.1027619 0.28485155 0.06259584 -0.7093388 -0.23570982 -0.30861482 -0.35798752 0.053313073 -0.6638684 0.25272182 0.1619641 -0.16791187 0.27234334 -0.24821979 0.27603465 0.037552882 -0.24457295 0.12917805 -0.270631 0.13768932 -0.26718873 0.04422829 -0.46366507 -0.4341394 0.75132453 0.43271285 -0.45375738 0.11116174 -0.81679845 0.015227785 -0.4099205 -0.22089511 0.061366398 0.12495266 0.22662616 -0.5125694 0.014670785 0.49786222 -0.4822509 -0.36722937 -0.19610177 0.7521152 0.08359717 -0.04543382 -0.0906388 0.16633347 -0.14688754 -0.25252137 0.39390713 0.41863698 -0.417822 -0.24027129 -0.218101 -0.085220635 -0.29322597 -0.16435115 0.48848182 0.52580076 0.4346538 0.123126976 0.060262356 0.22295332 0.22256814 0.72417134 0.2698791 -0.41409296 -0.14116973 0.112537004 0.20721143 -0.2886154 0.22850668 -0.36066976 -0.38428825 0.02115971 0.106534466 -0.24818055 0.0682516 0.6305363 -0.038289335 0.39846954 0.80393255 0.25612965 -0.2451126 0.13729352 0.5888238 -0.46976075 -0.42437875 0.094571896 0.10918364
최 -0.1259065 0.42073393 0.4186831 -0.3466327 0.5904429 -0.45146373 -0.012632055 0.6235837 -0.16173516 0.23118117 -0.29138538 -0.97721606 0.2691438 0.049564715 -0.6580416 -0.18826352 -0.24862792 -0.29826915 0.064287685 -0.6261835 0.2545659 0.12583975 -0.13711587 0.24604565 -0.22061674 0.24448098 0.040658362 -0.21303052 0.12812038 -0.23880525 0.14100946 -0.23574369 0.03673371 -0.4148937 -0.41256818 0.7014192 0.38469717 -0.429888 0.075141884 -0.74282604 0.02447579 -0.36353552 -0.19233924 0.049100284 0.10724455 0.18559964 -0.44488242 -0.014104766 0.42996743 -0.4343927 -0.33470038 -0.17235625 0.66890484 0.090006255 -0.0667674 -0.077974394 0.12974896 -0.12109069 -0.2395196 0.33844462 0.38048044 -0.3834327 -0.19321026 -0.18864284 -0.09636534 -0.2469509 -0.1298786 0.41542011 0.48765644 0.3912161 0.10388263 0.015988633 0.18465596 0.21919484 0.64610237 0.2661116 -0.3704904 -0.105116606 0.07826217 0.21899429 -0.28233698 0.21863754 -0.33021238 -0.32175124 -0.001252248 0.09803886 -0.20966193 0.07636771 0.54613376 -0.05598077 0.35458297 0.7298103 0.20586294 -0.22884211 0.10763392 0.49465287 -0.41216236 -0.42218238 0.1343934 0.12674679
김구라 -0.016361557 0.10969804 0.05898492 -0.12031527 0.27280924 -0.12172443 0.09198936 0.18940148 -0.2092733 0.14488629 -0.08472701 -0.008843909 0.07399282 -0.00067475677 0.06418219 -0.104066364 -0.07406737 -0.10191919 -0.08076205 -0.27266625 0.03318544 0.1009751 -0.10132824 0.05147935 -0.023462545 -0.03257124 0.04094073 -0.0071842475 0.018832948 -0.099257156 -0.09540574 -0.016222155 -0.055492952 -0.085509345 -0.0038275348 0.07831469 0.11786291 -0.27126065 0.23422596 -0.16511029 -0.00021855246 -0.024171349 -0.12880799 -0.05898451 0.033506315 0.028884113 -0.06819596 0.14464602 0.10621688 -0.1485081 -0.055154577 0.034408815 0.010559014 0.18625784 -0.02131202 0.016369786 0.03504723 0.05472797 -0.0039183414 0.051089507 0.02566457 -0.090597846 -0.07425076 -0.114292294 0.02198875 -0.013370244 0.15780903 -0.054239918 -0.09995032 0.098694116 -0.0707161 -0.04156174 -0.10304987 -0.115665264 -0.009084526 0.0058117686 -0.045254532 0.048205562 0.011667659 0.013751059 -0.06789747 0.13376804 -0.17625062 0.042466816 -0.0845631 0.07735561 -0.056424275 0.15975876 0.06519031 -0.022046486 0.08861422 0.08077858 0.010079581 0.041040905 0.14047858 0.039780308 0.019996194 -0.14594975 0.107913606 0.005755216
김영철 0.09680651 0.3592394 -0.110137194 -1.1451712 1.0142283 -0.670408 0.4609872 0.3580763 0.43367848 0.70139337 -0.0047279326 0.16578895 0.26837415 -0.06910108 0.009962549 -0.51721674 -0.7256254 0.073097125 0.73159474 -0.013347864 0.39356557 0.09732533 -0.9358324 -0.040389437 0.3034488 -0.32104436 0.57294565 -0.01381112 -0.017112697 -1.127864 -0.29087508 0.3291076 -0.13280864 -0.41611037 -0.07790185 0.48866963 0.15807484 -0.9749508 0.29035828 -0.7710162 -0.28143585 0.33328635 -0.6033071 -0.844464 -0.072462216 -0.26425216 0.15314753 0.44968578 0.5294251 -0.47164276 -0.3128513 0.59978473 -0.20014453 0.92803514 0.17079121 0.49018377 0.024740983 -0.049793627 -0.12470897 -0.1263567 0.5775266 -0.39347288 -0.32285684 -0.5306134 -0.51322716 -0.07607676 0.4616128 -0.27990764 0.07885315 0.6690768 0.16367407 -0.4778496 -0.12654833 0.0029952636 0.5729719 0.0062144524 -0.6300801 0.040087488 -0.3680359 -0.03421914 -0.4655425 0.5519677 -1.0294088 0.21124977 -0.07830236 0.056943003 -0.040918972 0.5875899 0.21743861 -0.625644 0.3533027 0.2343227 0.104108185 0.12907772 0.2988921 0.375952 -0.40155703 -0.25379178 -0.18699682 -0.6277961
곽동연 -0.11987491 0.28604606 0.40042365 -0.281844 0.6174243 -0.24754871 -0.10005014 0.44699678 -0.2214908 0.24874265 -0.14541112 -0.60434055 0.21833713 0.05285364 -0.34432226 -0.16640496 -0.22774318 -0.26794255 -0.04080178 -0.5041324 0.071637444 0.10293289 -0.24570741 0.22034329 -0.1829618 0.1698916 0.037916712 -0.1546806 0.10214557 -0.11246865 -0.10779115 -0.046428297 -0.07045573 -0.22781941 -0.26853803 0.45829207 0.2904316 -0.49442205 0.2987728 -0.52689403 0.12357543 -0.2862957 -0.28301924 0.021482525 0.14938892 0.2566884 -0.23775564 0.10737429 0.33201694 -0.33389565 -0.21262205 -0.0920146 0.47012094 0.14584434 -0.13960026 0.05663536 0.0012384502 0.012593698 -0.14799523 0.32200435 0.22283804 -0.21317035 -0.30672324 -0.2635709 0.07723351 -0.35333455 0.11615325 0.22323327 0.44675606 0.30262345 -0.04051603 -0.016689753 -0.11840917 0.00023117411 0.32631433 0.24926661 -0.2460368 -0.058293726 0.23733857 0.21764198 -0.064722 0.13425691 -0.1462476 -0.2757042 -0.08326833 0.1174577 -0.23850648 0.07153682 0.50208986 -0.05765874 0.30219394 0.44006416 0.09642716 -0.108491786 0.12538236 0.28561777 -0.23952147 -0.32570285 0.22309545 0.09710371
배명진 0.48112482 -0.20392913 0.36334208 -0.3048229 0.55942065 -0.4679312 0.5781435 0.8666464 -0.06549129 0.5546643 -0.6947976 0.14293835 -0.31527543 -0.2145734 0.74819756 0.009647356 -1.3318235 -0.5184167 -0.64217067 -0.9221704 0.21567583 0.8950596 -0.29411784 0.22019373 -0.30976003 -0.41150755 0.51370764 -0.39358747 0.32588068 -0.1024115 -0.15449007 0.20940839 0.9647363 0.44880247 0.18096769 0.28605172 0.54011226 -0.37833408 0.925339 -0.29668063 0.31081322 -0.29359323 -0.3507138 0.27117154 0.5990612 0.25747612 0.0021211808 0.61357737 0.50855047 -0.45432895 -0.100679904 0.020034568 0.27744594 0.05816359 0.08925497 0.33401445 0.17337771 -0.13134104 -0.013015659 0.6407436 0.65262544 0.5209049 -0.9549399 -0.52910453 0.39967296 -0.31527647 0.33783334 0.5639859 -1.1339849 0.5098882 -0.6319189 -0.3275917 0.56076264 -0.60099524 0.4461978 -0.3105608 -0.00052611146 -0.16259013 -0.2498791 -0.49611214 0.77020663 -0.12291472 -1.2950892 0.75306267 0.05043891 0.24863605 -0.062661394 0.4159075 0.022222592 -0.36809257 0.6707532 -0.09439987 0.5525055 0.57639575 0.39038998 0.3207565 0.20962743 0.35384342 0.42782164 -0.47543892
박예진 0.29779845 0.1796672 0.37653008 -0.10347453 0.33370507 -0.2126404 -0.2838777 0.6900131 -0.20669243 0.85925037 -0.92149323 0.2987834 0.5351997 0.5695073 0.12775438 -0.25106597 -0.6156844 -0.29537532 -0.028020618 0.121629596 0.16451342 0.43087062 -1.4531972 0.50257427 -0.24851693 -0.15107411 0.32230815 -0.58128744 0.2930564 -0.12795135 -0.3990237 -0.3065313 -0.5157497 -0.626706 -0.0152906645 0.48391294 0.6642519 -1.0494539 0.803602 -0.6551168 -0.006549373 -0.11443454 -0.3275586 -0.50681 0.08456685 0.008807238 -0.36301085 0.2823928 0.23696783 -0.8930405 -0.32803017 0.18703395 -0.08620927 0.7211423 0.34693027 0.45027137 -0.086232 -0.119885564 -0.39811584 -0.24187866 -0.009104681 0.11853871 -1.0659945 -0.24472807 0.6037353 -0.071644455 0.6237027 -0.5783962 0.32566592 0.3917501 -0.13223717 -0.47999024 -0.9990495 -1.0490695 0.44011366 0.13969967 -0.5313579 0.2192709 0.35124314 0.3808122 0.3280691 0.48623374 0.10034422 -0.19236462 -0.24077018 0.5086441 -0.3634425 0.7094189 0.11860238 0.56292695 0.03889795 -0.3038484 0.063845046 -0.13896208 -0.3755804 0.033594117 -0.5873064 -0.31282014 0.3708382 0.39484614
이천희 0.24905474 0.15002882 0.32659578 -0.09325348 0.28351995 -0.17534341 -0.26224348 0.58219093 -0.15945639 0.74866164 -0.7787328 0.23327231 0.48663622 0.4990098 0.10658284 -0.228191 -0.5331074 -0.24685228 -0.029358476 0.10956678 0.16043723 0.36806786 -1.2631636 0.4416683 -0.22095679 -0.13264632 0.2793175 -0.50542825 0.24742137 -0.12673834 -0.36335173 -0.25120986 -0.44499785 -0.5340843 -0.023169857 0.41886753 0.572417 -0.91946447 0.6764897 -0.55547357 0.006947196 -0.094470344 -0.2734467 -0.44483957 0.06181367 0.017204886 -0.31319705 0.23175833 0.21132936 -0.7582488 -0.29266727 0.14143778 -0.06800646 0.619726 0.31442037 0.383912 -0.057746578 -0.08935354 -0.34405896 -0.21168894 0.0039808424 0.10353811 -0.9117002 -0.21819761 0.52071005 -0.06574371 0.5219864 -0.4908226 0.283537 0.33457366 -0.10370248 -0.40647918 -0.844608 -0.9055971 0.37858865 0.13904113 -0.45181838 0.18629406 0.28967074 0.34508103 0.26725745 0.4236432 0.08272513 -0.1526208 -0.21068615 0.44164976 -0.30926228 0.6209388 0.10385158 0.48578393 0.038371574 -0.24513331 0.04783228 -0.11418034 -0.32522756 0.040414665 -0.5201912 -0.26430312 0.29872677 0.35112712
차광수 0.123187095 0.34077844 -0.09030281 -1.1601685 0.95105106 -0.67784905 0.45809302 0.39335063 0.434019 0.70669657 0.036162063 0.16547102 0.2869646 -0.081838034 -0.00043378776 -0.49319452 -0.7623108 0.07518734 0.6968849 -0.025404759 0.3278997 0.12871245 -0.92480075 -0.06803997 0.24944477 -0.37551704 0.6155202 -0.053260885 -0.052607767 -1.1040524 -0.3089812 0.28802577 -0.06427463 -0.468224 -0.11418061 0.503698 0.16124417 -1.0703065 0.27334225 -0.7793 -0.30637053 0.34918663 -0.57226664 -0.8332986 0.028945262 -0.2923877 0.12171879 0.4419502 0.61834145 -0.5249017 -0.31203565 0.6158951 -0.23976779 0.85856664 0.19626442 0.4103594 0.07617737 -0.07558356 -0.12781166 -0.12855013 0.5629868 -0.30352443 -0.33809054 -0.6000337 -0.46934608 -0.051026218 0.36399174 -0.32734028 0.020746654 0.651895 0.12247852 -0.4351677 -0.105346024 0.030248098 0.59856606 -0.016476845 -0.5884715 -0.078430064 -0.37563184 -0.028410887 -0.41261804 0.5433692 -1.1059754 0.2700795 -0.097777285 0.013343021 -0.11234103 0.60833806 0.19517672 -0.51022524 0.35647812 0.28871742 0.11783017 0.12759073 0.3113964 0.36921108 -0.40229616 -0.22181763 -0.16865903 -0.6747585
안승훈 0.099957064 0.33754042 -0.07120947 -0.9885704 0.845614 -0.5749973 0.4197284 0.36655673 0.33570686 0.6292514 0.013597869 0.10998041 0.24918088 -0.09977631 0.017359247 -0.40238512 -0.6558905 0.068681486 0.55069375 -0.08880177 0.25290903 0.105908215 -0.8009698 -0.023852486 0.16379385 -0.298586 0.5113229 -0.08039422 -0.020576939 -0.92557406 -0.2848283 0.2262399 -0.033449557 -0.37953976 -0.13600013 0.4524258 0.17885558 -0.9015438 0.27487698 -0.658703 -0.2165254 0.28159246 -0.47344846 -0.6881758 0.037559584 -0.25332642 0.1026644 0.3999284 0.5325966 -0.4526963 -0.28454077 0.4936868 -0.1676128 0.7217157 0.1326208 0.33373153 0.06845126 -0.062044855 -0.08780517 -0.090704314 0.48599112 -0.2665712 -0.3044546 -0.5160676 -0.3480468 -0.061235864 0.33305338 -0.25842854 -0.0009980885 0.5377556 0.07403389 -0.3745646 -0.11123468 0.019965088 0.5137446 0.0026385789 -0.49676523 -0.047318388 -0.27982482 -0.022472903 -0.32382026 0.46247858 -0.9350369 0.20681086 -0.07686799 0.006922357 -0.10591621 0.53085434 0.16264841 -0.44314158 0.30108917 0.25234756 0.09210408 0.10735152 0.3058935 0.30114144 -0.3099204 -0.20243028 -0.0969308 -0.5396156
김윤형 0.08066599 0.27267995 -0.04891219 -0.8950206 0.7558087 -0.52794015 0.3725397 0.33440194 0.2958337 0.5174496 0.026234211 0.09896005 0.20792735 -0.10819475 0.010307708 -0.35827786 -0.55997777 0.061613157 0.49757448 -0.09730091 0.21247603 0.11170658 -0.66685426 -0.056053452 0.16750643 -0.25271976 0.44046772 -0.060982984 -0.041053955 -0.8109951 -0.23291272 0.19850278 -0.028302466 -0.3428703 -0.14379205 0.39473084 0.11526859 -0.8247963 0.22587195 -0.58687186 -0.17465058 0.23889038 -0.44401368 -0.58243823 0.041194398 -0.23606502 0.11197902 0.3230611 0.44974864 -0.40228483 -0.23219422 0.42131045 -0.14538498 0.64018106 0.07456744 0.29232493 0.05284352 -0.057271175 -0.090377465 -0.08691583 0.44257224 -0.23204038 -0.221234 -0.4452901 -0.34573212 -0.015251176 0.2735626 -0.25109273 -0.029318396 0.47925353 0.045282472 -0.30428547 -0.077401645 0.014310545 0.4649662 0.0062232153 -0.46089303 -0.035113428 -0.28843805 -0.016780175 -0.2808767 0.41398358 -0.84936994 0.20889285 -0.06649758 0.013371375 -0.066855624 0.46258435 0.118247345 -0.42201915 0.2845318 0.23233153 0.083656386 0.083657645 0.28232932 0.26453 -0.258977 -0.18564285 -0.09701909 -0.4893631
성동일 0.057279054 0.28477544 -0.061619233 -0.8218643 0.7975291 -0.48042777 0.32063454 0.25719926 0.28041762 0.49803266 -0.027979357 0.14381973 0.17665434 -0.029912531 0.011273593 -0.3676067 -0.535878 0.07462761 0.5170555 -0.042461332 0.29273754 0.08511206 -0.676742 -0.007827246 0.23117822 -0.20900768 0.42672384 0.008980761 0.022911267 -0.7794244 -0.20999731 0.25504318 -0.13877247 -0.27136418 -0.034853294 0.38075766 0.11821933 -0.6856032 0.25656193 -0.5752254 -0.14939122 0.23193932 -0.4832961 -0.6177614 -0.06490967 -0.14682202 0.13104306 0.33001268 0.35537785 -0.3443074 -0.1983177 0.42750093 -0.11718916 0.6657375 0.09793614 0.3958628 -0.037349094 0.007331338 -0.082431585 -0.09590853 0.38907346 -0.3156933 -0.23669808 -0.37274542 -0.3888105 -0.07034816 0.43071645 -0.18616436 0.0730738 0.519065 0.12589714 -0.37482435 -0.13856179 -0.002109327 0.3686945 0.040160064 -0.46956754 0.0649561 -0.24973711 0.0074229995 -0.35511282 0.40747976 -0.679653 0.11139981 -0.040174 0.06791187 0.0103294905 0.41315722 0.189644 -0.4819841 0.24793862 0.13705619 0.06656753 0.096282594 0.19737402 0.25484657 -0.24755426 -0.21695168 -0.10530225 -0.40374693
박영록 0.078083634 0.3089845 -0.13582218 -1.0191004 0.8680182 -0.57639617 0.37042606 0.25526717 0.39421895 0.58446234 0.028504275 0.15594879 0.20930988 -0.027486265 0.0031726966 -0.4479645 -0.58884555 0.068724744 0.67181593 0.050836056 0.34474602 0.09645718 -0.7953986 -0.032724414 0.29965514 -0.2611882 0.48546907 0.018828388 -0.010404249 -1.0030055 -0.2540043 0.30497462 -0.14830074 -0.33707067 -0.03936895 0.44099477 0.10995079 -0.8109451 0.2130394 -0.6637514 -0.27446777 0.32008418 -0.52868056 -0.7482766 -0.08689887 -0.21004334 0.15033968 0.3853903 0.4228695 -0.37723508 -0.2640145 0.5538466 -0.17713636 0.8257925 0.17724782 0.4288342 -0.0083825085 -0.041090447 -0.1025947 -0.15229377 0.49160528 -0.3542061 -0.27535498 -0.4133972 -0.47673175 -0.06504271 0.40404156 -0.24264759 0.09461073 0.6151166 0.19658843 -0.4165577 -0.10546325 0.025790928 0.4803096 0.018511672 -0.5635151 0.04968046 -0.3466052 -0.036691558 -0.44219163 0.4657512 -0.8603106 0.17177686 -0.03160213 0.076094754 -0.0075345775 0.5033658 0.18546498 -0.5628864 0.2930474 0.18325947 0.08882469 0.11386523 0.23491517 0.3268154 -0.35984764 -0.20347561 -0.19089504 -0.5530423
조상구 0.098853044 0.3624977 -0.11577058 -1.1974831 1.0615348 -0.7011041 0.44221234 0.3561918 0.434315 0.7151366 -0.029426325 0.20247602 0.26323837 -0.043925032 0.025977861 -0.52385354 -0.7600066 0.067153126 0.7481391 0.0124165965 0.39894688 0.12571725 -0.9709439 -0.035341006 0.3306288 -0.3111186 0.59868026 -0.003016468 -0.008733165 -1.1356627 -0.30318213 0.33686727 -0.1843307 -0.4122112 -0.07483602 0.5166992 0.15804385 -0.9982735 0.33710828 -0.79194987 -0.2682841 0.3666638 -0.6497951 -0.8796501 -0.074405365 -0.2452311 0.14031395 0.47108504 0.53236806 -0.49816057 -0.31022596 0.61109006 -0.19265462 0.94402444 0.20309657 0.5245819 -0.007063049 -0.032459192 -0.11748963 -0.14937668 0.56804115 -0.40034884 -0.36668584 -0.5467948 -0.49433342 -0.08315117 0.495427 -0.2953693 0.10729828 0.7092726 0.16275018 -0.48402396 -0.15308854 -0.016297046 0.5652269 0.0028683483 -0.66062844 0.037781104 -0.35943887 -0.018701863 -0.48108986 0.5899412 -1.0304974 0.22196427 -0.060296375 0.067247696 -0.034134317 0.6118915 0.20734672 -0.64714533 0.3772906 0.22476412 0.11575935 0.12610184 0.2823349 0.38125247 -0.40696916 -0.27118683 -0.1783114 -0.6238925
안재모 0.0803849 0.3405167 -0.11312363 -1.1050844 0.9157358 -0.63708746 0.43440425 0.3600294 0.42397228 0.6324996 0.0468955 0.122603126 0.26671475 -0.084353656 0.0009059173 -0.47001162 -0.6781413 0.07769282 0.65179783 -0.048079807 0.296275 0.11075447 -0.8502499 -0.06732723 0.2587815 -0.33504826 0.55849403 -0.04682775 -0.05715395 -1.0398375 -0.27993074 0.28397214 -0.066766255 -0.42260602 -0.14662026 0.47821862 0.13358782 -0.9518473 0.23649241 -0.7241404 -0.27318808 0.32515272 -0.5182363 -0.7778036 -0.0012767244 -0.29112363 0.1274835 0.4022825 0.55146927 -0.45463184 -0.28552368 0.552898 -0.20683305 0.7981913 0.14216112 0.3627047 0.08511497 -0.08553186 -0.12223374 -0.10429243 0.5541533 -0.30135372 -0.27519268 -0.5389622 -0.45926353 -0.062214464 0.31946963 -0.2958146 0.006813292 0.61681914 0.14220375 -0.39793146 -0.08426047 0.06040948 0.55986965 -0.024819637 -0.55676854 -0.041934222 -0.3592061 -0.052629292 -0.37277564 0.5077134 -1.0376291 0.2314202 -0.06828389 0.016198358 -0.09128642 0.5726147 0.1616103 -0.50545424 0.35737962 0.2706554 0.10086542 0.11007618 0.29256627 0.35238728 -0.3634238 -0.22989132 -0.15313245 -0.6324319
성우진 0.134275 0.39787927 -0.10431509 -1.2886606 1.1192862 -0.7515573 0.50346553 0.4476999 0.4653407 0.8265462 -0.00077399146 0.1806227 0.30919054 -0.10196028 0.014339662 -0.5556091 -0.838723 0.06779031 0.7563226 -0.05427465 0.37085316 0.1353475 -1.0347946 -0.04721791 0.2694362 -0.387334 0.66437423 -0.07888682 -0.019116862 -1.2142551 -0.33850503 0.30679744 -0.09421062 -0.48042578 -0.12108705 0.56796014 0.19917715 -1.1774384 0.37266865 -0.8805374 -0.29684725 0.35960218 -0.632601 -0.9111343 -0.0041623833 -0.29505697 0.10336175 0.5123441 0.6517424 -0.58077663 -0.36573887 0.6597044 -0.2109101 0.9945691 0.19271998 0.49341023 0.07812741 -0.07091749 -0.13712169 -0.13023464 0.63918155 -0.3715392 -0.40199614 -0.6421494 -0.46562484 -0.07264605 0.44683537 -0.3389725 0.026788944 0.72685266 0.1004141 -0.489769 -0.15673375 -0.01143233 0.6644235 -0.018306678 -0.67759085 -0.029417919 -0.38153228 -0.043235943 -0.44356933 0.6176678 -1.1997594 0.26962945 -0.099547066 0.042972416 -0.102189384 0.6663634 0.20965028 -0.6096586 0.393404 0.2937349 0.10757093 0.13714665 0.3502711 0.39997563 -0.45281228 -0.28619155 -0.16500707 -0.7073592
장세진 0.11156505 0.4157377 -0.083898604 -1.276358 1.1416236 -0.7603076 0.49909705 0.47113642 0.4065038 0.7735926 -0.0065897885 0.15448335 0.31552294 -0.09255155 0.03465633 -0.5305534 -0.83524007 0.07362752 0.7359547 -0.12011755 0.35694668 0.14146993 -1.0125417 -0.0417063 0.24649128 -0.3743292 0.64276576 -0.07180987 0.0069412184 -1.1921437 -0.35240477 0.30641797 -0.09541197 -0.46229702 -0.14037098 0.567044 0.20707214 -1.1571044 0.37677145 -0.85771585 -0.24772502 0.3537603 -0.6788146 -0.87055874 -0.0042841295 -0.28359342 0.14288642 0.503069 0.6217836 -0.6001174 -0.34326288 0.6231617 -0.18988039 0.9778342 0.17778352 0.49143597 0.056787807 -0.07082323 -0.12127665 -0.12054526 0.6054008 -0.3840754 -0.37013802 -0.62710005 -0.49683398 -0.069562264 0.49877053 -0.3407268 0.039194223 0.7107161 0.10633459 -0.5140516 -0.15758267 0.008739231 0.6216463 9.2084345e-05 -0.66623646 -0.017284011 -0.3830681 -0.024586827 -0.44184372 0.62281346 -1.1437045 0.2619486 -0.07994311 0.063721515 -0.090022266 0.6797355 0.2289847 -0.61003333 0.40825745 0.30205205 0.0988483 0.14607467 0.3770495 0.40009153 -0.41899896 -0.2967246 -0.11936761 -0.6586707
변소정 0.09246242 0.34996355 -0.12246872 -1.1624326 0.9869313 -0.6775022 0.470143 0.35092464 0.45555326 0.67919123 0.02549938 0.18584979 0.27648765 -0.078286596 0.010268421 -0.50278807 -0.73458993 0.08242753 0.7418558 0.011284567 0.34929806 0.12050636 -0.9366928 -0.06821331 0.3181003 -0.34107777 0.58256435 -0.022457333 -0.041323483 -1.1381674 -0.3128229 0.33067292 -0.12277204 -0.42414838 -0.10390035 0.50479954 0.13266908 -1.0020075 0.28309315 -0.78105223 -0.29389298 0.36786652 -0.59307307 -0.862976 -0.027743341 -0.28883013 0.14864351 0.43104783 0.55982834 -0.48009607 -0.32015094 0.60903496 -0.24092947 0.8959607 0.19172712 0.4505645 0.033586837 -0.073387 -0.10451355 -0.14450723 0.58464146 -0.3560982 -0.30606407 -0.54805344 -0.51488787 -0.0596569 0.40277183 -0.2986226 0.05810798 0.6721709 0.170183 -0.4425526 -0.10522021 0.03686446 0.5922371 -0.013791567 -0.62808436 -0.017995454 -0.3862234 -0.04117682 -0.4342545 0.53519017 -1.0644897 0.2503753 -0.07205626 0.023335123 -0.053055376 0.58959216 0.17938714 -0.60278904 0.3522297 0.2595624 0.108730026 0.14554188 0.3174274 0.37782988 -0.41054913 -0.22646753 -0.21045952 -0.66083014
정일모 0.11496636 0.39738804 -0.122765265 -1.2534676 1.1040924 -0.722881 0.47472942 0.4008145 0.45882043 0.7544124 0.007993923 0.18339235 0.29775664 -0.06040865 0.027338471 -0.54790634 -0.7814226 0.07430414 0.7782888 -0.022222111 0.39508465 0.13582769 -0.9756818 -0.029309971 0.31178054 -0.36239818 0.622777 -0.0075382227 -0.02786855 -1.1858767 -0.31258738 0.32491747 -0.12287624 -0.43727505 -0.104729794 0.56356055 0.17711423 -1.0679166 0.30955318 -0.8151662 -0.310519 0.37318888 -0.6406423 -0.88326883 -0.05577721 -0.2595195 0.14560741 0.49236897 0.5778349 -0.5340257 -0.33059245 0.62522423 -0.21735919 0.94963944 0.19150406 0.4999306 0.029012972 -0.045538228 -0.1327744 -0.151017 0.60867476 -0.39928195 -0.34813935 -0.56660897 -0.5274895 -0.06836093 0.48083532 -0.309778 0.05926165 0.7361107 0.16975081 -0.48673445 -0.1336155 0.009540713 0.61916643 -0.0018847224 -0.66667885 0.004058421 -0.39478558 -0.035882454 -0.4892951 0.57313555 -1.1237379 0.24953018 -0.060008485 0.0686426 -0.05664181 0.6388942 0.22846901 -0.64354503 0.3978362 0.2656276 0.11025067 0.1339883 0.30870077 0.38966992 -0.40995303 -0.26267183 -0.18017887 -0.68628615
김선재 -0.023422219 0.11413937 0.031555854 -0.07801161 0.23207994 -0.08985083 0.053559944 0.16550125 -0.15607451 0.14545669 -0.073341504 -0.011349686 0.061058547 -0.00641603 0.05473174 -0.096687414 -0.06419756 -0.09791076 -0.039552968 -0.21057561 0.01972521 0.09227946 -0.093243845 0.04761521 -0.026152387 -0.059074588 0.020891462 -0.033687204 -0.015791254 -0.10015591 -0.0547279 -0.014370162 -0.047406964 -0.097248 -8.662752e-05 0.052583165 0.10255833 -0.23122728 0.20406374 -0.1725711 -0.014251424 0.012546774 -0.14724727 -0.060877748 0.029085074 0.05947059 -0.03724602 0.13107434 0.113241635 -0.09408564 -0.053036332 0.025891447 0.027631897 0.16354017 0.018940382 0.01795492 0.015580925 0.0360044 -0.036530867 0.04760057 0.005306307 -0.04688168 -0.11255888 -0.10786394 0.041912515 -0.02536318 0.09958854 -0.055863183 -0.052964985 0.067545675 -0.02581174 -0.043771908 -0.061513122 -0.09409362 -0.0033767535 -0.0013506814 -0.04286354 0.024378909 0.028524714 -0.017148817 -0.05905158 0.10430537 -0.14829832 0.0030583474 -0.0801279 0.048354212 -0.02707174 0.11727377 0.07657096 0.006641382 0.08854416 0.058455832 -0.0062486148 0.050867245 0.10644554 0.047108516 -0.015515698 -0.09022055 0.099783294 -0.017866654
무 0.06119183 0.8117303 0.6962605 -0.86276084 1.0089326 -0.21769622 0.4553228 -0.016795166 -0.79138213 0.64150697 -0.65272903 -0.29386717 0.5729269 -0.07010156 1.1211826 -0.31251 -0.93342495 -0.4392238 -0.13584796 -0.32162693 0.41747746 -0.11113438 -0.63713783 -0.060410585 -0.47933686 -0.24501495 0.07386747 -0.6038222 0.29968816 -0.5916202 -0.8845469 0.14137946 -0.30155784 0.40304962 -0.52357507 0.08382937 -0.15090713 -0.7597796 0.6614053 -0.6151527 0.26792634 0.25720328 -0.021595884 0.33048275 -0.30000472 0.15983512 -0.6254149 0.1915725 0.09391383 -0.17602102 -0.5669647 -0.37531966 -0.16453207 -0.44278523 0.9439409 0.13421755 0.1217102 0.73684126 -0.6060441 0.14514692 0.5834903 -0.44638613 -0.98184526 -0.4734337 0.88846827 -0.085069194 0.53599554 -0.23756604 -0.12547006 -0.046759907 -1.1963471 -0.17054369 0.08292984 -1.298028 0.33193976 0.0013073459 0.14013855 -0.24792132 -0.04156407 -0.31434748 0.14674322 0.10712769 -1.1675434 0.47832155 -0.14484958 0.08391045 0.033049293 0.39821175 0.09535055 -0.72668624 0.52324414 0.19483797 -0.7769034 0.56568897 0.16792417 0.32959235 -0.50227773 0.2879201 0.8136135 -0.12400527
김민재 0.2468316 0.9966525 0.37294346 -1.016261 0.72991693 -0.7118933 0.39453474 0.3320775 -0.8035375 0.36956167 -0.6087937 -0.06141005 0.78167963 0.11814626 1.0646169 -0.40980986 -1.0072165 -0.23603304 -0.036133263 -0.043723635 0.6867218 -0.42412224 -0.58547544 -0.39587694 -0.85654444 0.001493434 -0.09873684 -0.82841617 0.3102221 -0.5095991 -0.7831224 0.20698151 -0.35737044 0.1892808 -0.3142309 -0.17377587 -0.45279378 -0.625901 0.5141233 -0.63413006 0.37704366 0.57998294 -0.14005168 -0.26759422 -0.26106006 0.18797877 -0.20843762 -0.122535504 0.37086967 -0.4954099 -0.74441785 -0.2533647 -0.19226608 -0.3477318 1.2298064 -0.10193342 0.080269195 0.35343415 -0.25226784 0.17793792 0.8043446 -0.6884992 -0.72403175 -0.5798061 0.99792486 -0.07333869 0.7942886 -0.7945327 -0.23658612 0.07128686 -1.2170115 -0.6923945 -0.13969035 -1.1624664 0.10418124 0.3333152 0.1008662 -0.1888291 -0.03081894 -0.059680514 0.08527163 0.6532081 -0.95853233 0.25535354 -0.5273244 -0.41497537 -0.116004124 0.2583324 -0.08259835 -0.59564817 0.50055945 0.0046015345 -1.1817905 0.11976973 0.01031215 -0.0119619835 -0.8469581 0.11883947 0.4244476 0.042900454
이성경 0.55242425 0.61323196 -0.28777346 -0.9438217 0.3644511 -0.8214233 0.21164286 1.0016395 -0.71822053 0.21673633 -0.30416656 0.26734558 0.24096943 0.16036077 0.8070901 -0.63469374 -1.1380728 -0.12030108 -0.22519088 0.037237596 0.7521229 -0.14888379 -0.19897665 -0.51140475 -0.7336727 -0.3876539 0.08423317 -1.1932403 0.4385815 -0.24569935 -0.6340434 0.08245601 0.194292 -0.35555607 0.09592855 -0.32964507 -0.55263305 -0.1741076 0.8726919 -0.49167654 0.5763522 0.23282889 -0.19417024 -0.494353 -0.07984596 0.43359402 0.123180896 -0.07778262 0.6514412 -0.6427512 -0.5716054 -0.0053962204 -0.026049586 -0.016457694 1.0430782 -0.26219442 0.0056307493 -0.29016435 0.533632 0.42699566 0.99985564 -0.48483258 -0.6545498 -0.8556599 0.6968869 -0.22881134 1.0290359 -0.59260195 -0.5733843 0.30556828 -0.83187133 -1.2040317 -0.39959398 -0.58588517 -0.26438552 0.043720216 -0.2130394 -0.026808286 0.19409022 0.32163167 0.39656612 1.1469963 -1.0255132 -0.04684961 -0.88516283 -0.8260864 -0.36945653 0.18642919 -0.100553684 0.04720621 0.41173837 -0.36520794 -0.8786725 -0.11297869 0.09520616 -0.12834284 -0.6084319 -0.0122612445 -0.15968142 -0.20115879
진경 0.6347638 0.32199273 -0.34882858 -0.70391786 0.38864535 -0.5803715 0.26343462 1.2486433 -0.85666645 0.2900253 -0.18777806 0.35729718 0.05435603 0.0404191 0.579466 -0.5576387 -1.0774549 0.016338216 -0.56167054 -0.15602432 0.64140886 0.21164887 -0.1500943 -0.33465138 -0.4613483 -0.76740825 0.34775892 -1.0698657 0.5720308 -0.19464417 -0.5851994 -0.1118521 0.6937051 -0.55514365 0.1744763 -0.09618303 -0.34645194 -0.103980616 1.3330117 -0.58162206 0.7200357 -0.019010905 -0.2278759 -0.30543175 -0.04223462 0.41903266 0.14096318 0.12530936 0.629543 -0.7288658 -0.40057188 0.044557128 -0.008003153 0.24899489 0.6827495 0.027771039 -0.02177256 -0.36122945 0.90024805 0.42400503 0.9134713 -0.30372855 -0.8438853 -0.8994291 0.16167353 -0.24517936 0.96942246 -0.1676417 -0.6807121 0.46939304 -0.6306028 -1.19365 -0.36776143 -0.23005621 -0.27996463 -0.2956523 -0.22684695 -0.07219949 0.23990352 0.48029003 0.54624885 1.1874725 -1.0562124 -0.040258594 -1.0830088 -0.67768884 -0.62310725 0.018178571 -0.100734256 0.17130047 0.23110741 -0.43654126 -0.2704773 0.105554156 0.28117454 -0.093429774 -0.28995416 0.015465164 -0.109030284 -0.39958233
신동욱 0.58707935 -0.037149273 -0.08427572 -0.34735274 0.4468112 -0.39950034 0.42123005 1.3446052 -0.79499656 0.32713613 -0.44503918 0.38408735 0.09098368 -0.1371704 0.5458668 -0.27142233 -1.1079036 0.18561363 -0.88900125 -0.13978556 0.49366546 0.5663991 -0.24928561 -0.19469783 -0.24141993 -0.8875649 0.40263095 -0.83963865 0.62898535 -0.30302545 -0.6983129 -0.14484881 1.0909787 -0.4827383 0.30164018 0.2005544 -0.07154482 -0.3281112 1.5862097 -0.64761263 0.6153288 -0.01875157 -0.1972864 -0.2561675 0.16125001 0.3691837 0.011583661 0.30210397 0.667168 -0.9651995 -0.13466324 0.02121859 -0.092435904 0.49697062 0.35953626 0.32528964 0.050379213 -0.45099595 0.98767775 0.43254957 0.75221 0.0067300685 -1.2488481 -0.80927104 -0.12606737 -0.1656411 0.65146303 0.09255614 -0.71238023 0.66686195 -0.5663115 -1.0320244 -0.114192575 -0.19718674 -0.04909396 -0.5642464 0.11713756 -0.2905869 0.22628428 0.36610475 0.5804113 1.1096133 -0.9952624 0.15026793 -1.2519691 -0.33941975 -0.8754053 -0.13166207 -0.21061578 0.005863693 0.16409235 -0.43194446 0.2728868 0.3450709 0.51477593 0.027029382 -0.24479173 0.04418121 0.0053900746 -0.5500399
박효주 0.4699199 -0.18861417 0.072512716 -0.22424965 0.50473356 -0.42121506 0.59813535 1.3866919 -0.656442 0.33552226 -0.6022596 0.37365615 0.096922755 -0.2941279 0.5362537 -0.12174212 -1.1228635 0.2461032 -0.97583747 -0.17368677 0.3476962 0.7584762 -0.32629424 -0.13666669 -0.18020065 -0.87538433 0.4598591 -0.7233101 0.6104547 -0.42342037 -0.67207044 -0.096019 1.247447 -0.35133016 0.3343243 0.33581886 0.121468455 -0.51545835 1.6108509 -0.6494881 0.58545154 0.0274694 -0.2602747 -0.32372904 0.3018929 0.35768604 -0.01294286 0.4167875 0.7361383 -1.1320319 0.020031396 -0.015241202 -0.09327766 0.6255724 0.13931082 0.48796487 0.055057056 -0.5164936 0.97834224 0.45590588 0.66834724 0.14769097 -1.3672082 -0.788871 -0.18570292 -0.11068549 0.5098674 0.1243857 -0.8156482 0.75815684 -0.52669656 -0.89689136 0.076145455 -0.1697568 0.15333691 -0.6106723 0.31566033 -0.42113373 0.107984684 0.24571452 0.55062455 1.0552354 -0.94112855 0.27078533 -1.272618 -0.20199081 -0.9251115 -0.13405696 -0.24408592 -0.16216947 0.20792636 -0.3842801 0.53303397 0.47163475 0.65307695 0.067518435 -0.16481598 0.07241116 0.09280026 -0.57297724
임원희 0.23253995 -0.24995115 0.28304723 -0.19416237 0.5775646 -0.50195235 0.70459706 1.3076717 -0.4032332 0.32121298 -0.6921102 0.32461792 0.037108693 -0.41085452 0.5026085 0.040513646 -1.0602928 0.20909621 -0.93535686 -0.3029929 0.08729872 0.8223457 -0.44521052 -0.03394982 -0.22080341 -0.7427075 0.5108074 -0.611347 0.5173054 -0.49606675 -0.5231334 0.024833923 1.2162083 -0.10444302 0.3187166 0.41776627 0.35861394 -0.6887884 1.4660466 -0.5615425 0.5905448 0.050146684 -0.3809709 -0.38188255 0.47877273 0.32047224 0.03684956 0.52485174 0.82387924 -1.1712631 0.13433036 -0.02172422 0.027219562 0.7253678 -0.14964584 0.60639226 0.03938134 -0.470244 0.8175925 0.47996682 0.56088376 0.305993 -1.2968452 -0.7444633 -0.07772414 -0.07601887 0.35356224 0.08886306 -0.9010928 0.75288236 -0.4455234 -0.62118065 0.25592923 -0.16105539 0.40324956 -0.5095676 0.3986019 -0.43982428 -0.04892555 0.05424238 0.48648652 0.78320026 -0.8339301 0.42790204 -1.0135733 -0.014277721 -0.8032715 -0.02658978 -0.14210173 -0.31443682 0.3086733 -0.2638706 0.7056871 0.5452728 0.71162647 0.12534258 -0.040072337 0.040521268 0.24371724 -0.46981394
한석규 0.13833715 -0.31910443 0.332089 -0.1969196 0.4758579 -0.5434624 0.71839225 1.2450166 -0.2554203 0.31581697 -0.7443651 0.32267457 -0.038565166 -0.43091303 0.45198563 0.10149442 -1.0324097 0.11936743 -0.920856 -0.41140583 -0.0063953865 0.8149255 -0.45131752 0.050051127 -0.27215683 -0.6756092 0.58494055 -0.5962645 0.45546398 -0.4648074 -0.4000826 0.095024064 1.2179931 0.037803937 0.37436602 0.3854378 0.46012908 -0.6856124 1.3143734 -0.43080896 0.58824605 0.029020373 -0.40818465 -0.33940324 0.60946435 0.30752245 0.12377759 0.54980534 0.8618469 -1.1055813 0.18764286 -0.02077116 0.116062894 0.6957771 -0.22160125 0.5958854 0.042282026 -0.42142922 0.68522036 0.5552031 0.5470024 0.41081885 -1.1997982 -0.6903628 0.047468834 -0.076231666 0.2242762 0.13168705 -0.99036103 0.7334158 -0.3867651 -0.45399046 0.41791278 -0.18198232 0.52486247 -0.46569163 0.39579242 -0.4356847 -0.17102584 -0.08445217 0.48717028 0.55524814 -0.8240418 0.5184023 -0.7854211 0.051188875 -0.69908166 0.029714664 -0.0829677 -0.32045949 0.3943151 -0.23495963 0.7832487 0.5751435 0.7297582 0.14320758 0.06744679 0.061784927 0.24461368 -0.4090143
김홍 0.454534 0.817699 -0.027659656 -0.98166597 0.5343921 -0.9085963 0.2822365 0.8215254 -0.72704405 0.23797801 -0.46326748 0.16558748 0.49971664 0.15131445 0.90533084 -0.54729104 -1.1105785 -0.10745124 -0.07418806 0.0041273306 0.7479443 -0.28729662 -0.36518532 -0.4921258 -0.8569217 -0.09486859 -0.03988823 -1.0508419 0.35593534 -0.31145355 -0.646511 0.13752986 -0.10100146 -0.18617699 -0.039195523 -0.2597337 -0.47659886 -0.37344855 0.6889253 -0.55014676 0.5069338 0.403853 -0.23143867 -0.54417247 -0.11475434 0.29472083 0.08114998 -0.13773695 0.60416824 -0.7125521 -0.6373564 -0.08154084 -0.054780185 -0.09807682 1.0846077 -0.2581462 0.025452834 -0.1001393 0.21305083 0.34904325 0.8964181 -0.57505906 -0.5790339 -0.7215471 0.8117838 -0.09914577 1.0210167 -0.81339777 -0.44289482 0.23938473 -0.98327845 -1.0515758 -0.38494274 -0.8007796 -0.09406947 0.25771278 -0.15304402 -0.029791066 0.12783368 0.19149807 0.23074883 1.0463284 -0.90997136 0.014348762 -0.7854624 -0.69283074 -0.2557042 0.28090885 -0.069803715 -0.20721683 0.4528209 -0.20788299 -1.0271871 -0.1741471 0.09398722 -0.18189569 -0.72482723 -0.06811108 0.04801859 -0.050685976
파 0.46545324 0.8586918 -0.0083337985 -1.0203252 0.54168326 -0.91883415 0.2942307 0.7708267 -0.71402305 0.22757122 -0.49514833 0.1496027 0.55051255 0.1578734 0.96348304 -0.53053725 -1.1185918 -0.13068028 -0.044396225 0.029306725 0.7821973 -0.34468895 -0.4009478 -0.5082851 -0.9055835 -0.03622204 -0.09681464 -1.0486318 0.33995727 -0.3269201 -0.6605377 0.1447275 -0.17508093 -0.14413479 -0.062174402 -0.2645037 -0.5134245 -0.3944748 0.61752516 -0.53438926 0.46369645 0.4562009 -0.22491609 -0.5556237 -0.11516639 0.2971036 0.03491449 -0.17359802 0.5826049 -0.6966966 -0.6661706 -0.090284735 -0.07140426 -0.16171269 1.1657274 -0.29411742 0.047877807 -0.059666984 0.14318839 0.3376001 0.90342796 -0.623107 -0.58155507 -0.7274513 0.88666385 -0.12362406 1.0168661 -0.86711013 -0.41768458 0.19102801 -1.0496665 -1.0410007 -0.3930274 -0.8763871 -0.08931312 0.2881267 -0.12239958 -0.027167846 0.09505886 0.17293295 0.19501142 1.0284804 -0.9021221 0.04999444 -0.76739573 -0.68810475 -0.24463828 0.27487355 -0.098625176 -0.26297197 0.48611638 -0.1812841 -1.118082 -0.17866112 0.059741855 -0.17688218 -0.80216736 -0.055651274 0.053640697 -0.009100746
윤나 0.068128206 0.86858946 0.6979526 -0.90436316 0.95916766 -0.25461584 0.45667148 -0.03999044 -0.81976646 0.6273084 -0.6660549 -0.3047533 0.6257187 -0.006252605 1.2020528 -0.3405741 -0.9736463 -0.45629427 -0.12802146 -0.2209439 0.47672474 -0.19856538 -0.6951405 -0.08785964 -0.54881614 -0.23778625 0.046631116 -0.6588628 0.33069023 -0.6171633 -0.95026517 0.15854219 -0.36076838 0.43899763 -0.50985223 -0.00020879816 -0.21263058 -0.7695907 0.66803044 -0.6323898 0.2622306 0.32851502 0.018358516 0.31575277 -0.33560297 0.17451267 -0.668025 0.15765154 0.12565073 -0.16580746 -0.6541594 -0.41279516 -0.18333514 -0.5182027 1.1091526 0.12549303 0.12645018 0.7470065 -0.630662 0.14102744 0.63035107 -0.49365208 -1.0507859 -0.496108 1.000892 -0.10988576 0.5420614 -0.2956805 -0.10694513 -0.07081404 -1.279425 -0.21808104 0.10063127 -1.4232639 0.31862667 0.044447184 0.19001979 -0.27692112 -0.03511144 -0.324518 0.17064802 0.13733558 -1.2048938 0.5060155 -0.17032199 0.031750895 0.0010502028 0.35944614 0.054161955 -0.73596275 0.5576352 0.15920474 -0.92127895 0.5646899 0.108496115 0.33282238 -0.6104707 0.31614453 0.8130726 -0.099111
김주 0.36503917 0.46535766 0.65449435 -0.5677069 1.2258384 -0.07285249 0.44464773 0.17831078 -0.44415107 0.88070184 -0.5871227 -0.24088322 0.011477226 -0.09090683 1.2942098 -0.4008839 -1.2792118 -0.7036903 -0.31897235 -1.0033563 0.36821514 0.47060132 -0.38304546 0.26412585 -0.343028 -0.3451131 0.11466368 -0.5463867 0.11986603 -0.27462322 -0.63913774 0.02057569 0.024194138 0.3620201 -0.50346875 0.30229264 0.34828138 -0.39688402 0.823652 -0.34597656 0.12203485 -0.3198688 -0.13612695 0.6804618 0.022347933 0.3263709 -0.6993813 0.6895902 0.09242562 -0.058943145 -0.33994108 -0.22303352 0.13121268 -0.54508597 0.5266667 0.11930613 0.13869771 0.58788806 -0.7738718 0.49718097 0.52725387 0.06821148 -0.8612407 -0.40498105 0.7193064 -0.42455286 0.53610474 0.5350021 -0.3994571 0.08644772 -0.99911165 -0.15577239 0.08393597 -1.1624405 0.39094615 -0.30635846 -0.51267743 0.079928465 0.09034713 -0.70188504 0.55467755 -0.27574182 -1.5544013 0.7559931 0.1842385 0.52351767 0.22545537 0.75147706 0.44349378 -0.6448696 0.919062 0.18943037 -0.07893019 0.6843131 0.23013829 0.49446756 -0.12690376 0.35891253 0.6938808 -0.49226177
헌 0.38119107 0.39925617 0.6326546 -0.5421909 1.1831391 -0.08694065 0.41673568 0.22297774 -0.39169428 0.88298106 -0.5704577 -0.22861482 -0.01902959 -0.095685676 1.2083269 -0.38593972 -1.2726853 -0.713623 -0.2929133 -1.038425 0.36717123 0.5397199 -0.39261875 0.31519994 -0.31840327 -0.3239227 0.14416991 -0.5062417 0.098347254 -0.25377795 -0.5678655 0.021109145 0.07264284 0.2980255 -0.4541588 0.3418747 0.3863769 -0.38495913 0.80396557 -0.34325463 0.12142775 -0.37325647 -0.18599351 0.6362439 0.06514081 0.3329028 -0.6348938 0.6867686 0.099462196 -0.07875539 -0.34060255 -0.16525523 0.16004074 -0.46337548 0.476357 0.10997669 0.10323076 0.5140663 -0.7216243 0.5037419 0.49890134 0.107487954 -0.8214274 -0.4153175 0.6272421 -0.422878 0.5668754 0.5544354 -0.39858797 0.15581912 -0.9031448 -0.17367008 0.03702491 -1.085717 0.39487523 -0.29390565 -0.558194 0.10868859 0.1113686 -0.668533 0.5593225 -0.23490371 -1.5120056 0.7236869 0.1868117 0.5218421 0.19434005 0.76801836 0.45589218 -0.60472673 0.8855708 0.14931878 0.003424416 0.6411781 0.20558068 0.47949612 -0.08983021 0.28474572 0.6456084 -0.49747127
소 0.5981952 0.26729965 0.5708695 -0.52529204 1.1313225 -0.2585259 0.3853904 0.4766719 -0.20324051 0.98443085 -0.57164 -0.12920536 -0.19607486 -0.068720005 1.1094503 -0.31739852 -1.4755337 -0.83903927 -0.29039642 -1.3900703 0.4177664 0.85778 -0.34749976 0.4259483 -0.35548794 -0.22427386 0.29783398 -0.40231633 0.1034822 -0.014894568 -0.27986956 0.09841494 0.33662033 0.33548242 -0.286203 0.48122036 0.62156844 -0.33553928 0.8271051 -0.35976547 0.10488407 -0.55818254 -0.4005929 0.6643868 0.3192876 0.3433148 -0.39331874 0.831751 0.18273623 -0.18020499 -0.2952638 0.016778033 0.29390794 -0.3404633 0.26547042 0.17018083 0.13164309 0.22218321 -0.5933107 0.5768864 0.5716068 0.28094134 -0.75239146 -0.43960118 0.55577296 -0.4097343 0.6960131 0.7431692 -0.6732117 0.33401257 -0.86817086 -0.27590498 0.016161175 -0.92438585 0.4005689 -0.18940645 -0.73297876 0.19390054 0.06149194 -0.6792042 0.75556666 -0.31219426 -1.6231195 0.7558022 0.4036146 0.5052711 0.28164884 0.88530356 0.40132627 -0.5168651 0.9877562 0.10740646 0.20559207 0.5490223 0.22007494 0.47719324 0.12012456 0.31205973 0.5824417 -0.502455
주연 0.63200486 0.24982014 0.55235875 -0.5397808 1.1098486 -0.26150715 0.4156848 0.48145172 -0.1513289 1.0003586 -0.60296524 -0.09878961 -0.23966773 -0.08425875 1.0918149 -0.32799765 -1.5071423 -0.8538968 -0.31513754 -1.4074241 0.4225821 0.90604943 -0.35353625 0.42987484 -0.3247249 -0.23992375 0.30481556 -0.4049365 0.12590235 -0.012512651 -0.26134664 0.13149524 0.38016853 0.3344443 -0.24317962 0.50010663 0.6762212 -0.32276437 0.8188401 -0.3439071 0.08529608 -0.5700291 -0.4325219 0.6484117 0.34070635 0.31367677 -0.35863617 0.85955304 0.21598461 -0.16711055 -0.31811243 0.019589467 0.31744525 -0.30914885 0.23356684 0.1906171 0.124809325 0.1967371 -0.58756894 0.59786665 0.5932073 0.3185147 -0.742472 -0.4464261 0.5725357 -0.4320809 0.698729 0.7603243 -0.7237761 0.35851157 -0.8418622 -0.25126177 0.033272732 -0.9162701 0.39776775 -0.21283098 -0.7356602 0.17189471 0.041998822 -0.66985023 0.7812038 -0.34263435 -1.6418446 0.7613943 0.42160255 0.49190068 0.30121318 0.8887074 0.37907612 -0.4777939 0.9907461 0.10764007 0.2745263 0.5312228 0.21745679 0.46773365 0.1623286 0.3162688 0.58779997 -0.5302032
고상호 0.5984123 0.0049035563 0.45560753 -0.44454792 0.8561034 -0.4009278 0.46540415 0.66821635 -0.022350276 0.7883963 -0.6055045 0.011561719 -0.3467619 -0.119280286 0.8564707 -0.14351217 -1.4446131 -0.75022304 -0.40121353 -1.3103733 0.30331492 0.964475 -0.29733372 0.38612294 -0.3090413 -0.2538492 0.4591078 -0.30348864 0.21358596 0.0015114903 -0.08049926 0.21000907 0.654848 0.42339143 -0.03689509 0.41538107 0.69978464 -0.31254005 0.8064067 -0.30003482 0.17210883 -0.49157086 -0.4606409 0.51211053 0.53478783 0.2614695 -0.10834605 0.7491795 0.30846196 -0.2385168 -0.22643693 0.09555236 0.35627827 -0.12712893 0.093675435 0.24425592 0.13983314 0.021431468 -0.36484665 0.61315036 0.5986672 0.47352633 -0.75137657 -0.4719106 0.4678609 -0.39448157 0.58742285 0.71982527 -0.9417523 0.42635313 -0.70987636 -0.2448762 0.2707474 -0.70097536 0.42564628 -0.2043466 -0.47343078 0.063916124 -0.13145784 -0.6095751 0.7988543 -0.32723537 -1.46546 0.7527563 0.40040156 0.40646628 0.2318101 0.7068812 0.20833863 -0.41342863 0.82145745 0.033186346 0.46804753 0.5069979 0.31396776 0.40158212 0.30034676 0.32248116 0.49358636 -0.47396252
최진호 0.6352471 0.52806205 -0.38667557 -0.90652657 0.3985203 -0.7541451 0.2014992 1.2100142 -0.8167541 0.2773415 -0.21919358 0.34151146 0.11185854 0.1216592 0.69588345 -0.67936015 -1.1695428 -0.07730874 -0.36045796 -0.10897562 0.70586014 0.048454996 -0.18891022 -0.4304388 -0.65047157 -0.6204561 0.26563576 -1.232278 0.52713704 -0.1956056 -0.6024309 -0.05322112 0.4422513 -0.5184525 0.13877107 -0.24938738 -0.46187964 -0.1357091 1.1764992 -0.5500745 0.71093065 0.05752296 -0.25681213 -0.44683272 -0.06785125 0.46813434 0.17342827 0.022875419 0.6903628 -0.7106208 -0.5379823 0.056242872 0.010621454 0.16663277 0.892115 -0.13342687 -0.031220693 -0.38255313 0.77274674 0.4356242 1.0147988 -0.4024747 -0.7641755 -0.94700706 0.48465443 -0.27330786 1.1246698 -0.43203282 -0.6709578 0.40921652 -0.7318402 -1.2964368 -0.47734964 -0.39901096 -0.32690126 -0.10573476 -0.33139783 0.0041670385 0.23746732 0.4696328 0.51680326 1.2417947 -1.0826414 -0.08013074 -0.9988318 -0.8213636 -0.51406443 0.1536696 -0.066100955 0.19365363 0.3288237 -0.44800627 -0.633492 -0.044845562 0.15610152 -0.12850666 -0.4323896 -0.032678563 -0.17529187 -0.2791929
여진구 -0.118038915 0.329715 0.21039945 -0.5492308 1.0469654 -0.2799845 0.07868886 0.4348956 -0.5979394 0.11687542 0.089244835 0.102887765 0.19514547 0.014992242 0.038755786 -0.07733333 -0.111002676 -0.0070914724 -0.152057 -0.52893716 0.04875134 -0.010772951 -0.9487258 0.2566758 -0.19491787 0.13531321 0.07385035 -0.086649396 0.18740681 -0.1771103 -0.48248926 0.3106592 -0.6229415 -0.12519887 -0.11715814 0.11520852 0.09578331 -0.81545 0.88505083 -0.40219572 0.6436096 -0.16566709 -0.9662094 -0.18511227 0.22338477 0.5331489 0.48979208 0.49955046 -0.00904004 -0.10367522 0.16085494 -0.086978495 0.2778422 0.25659126 -0.59517336 0.46914378 -0.56167156 0.2380276 0.10262984 0.3374343 0.06434328 -0.150769 -0.5533996 -0.31238845 -0.05320646 -0.2584873 0.8718166 -0.088836364 0.50914514 0.34026337 -0.22070608 -0.59366494 -1.0193496 -0.6556813 -0.09231647 0.6714493 -0.46550173 0.39619836 0.3286139 0.33213603 -0.22222316 0.33011928 0.15220438 -0.07811061 -0.072062366 0.24621515 -0.0063088536 0.2502894 0.58078665 -0.5579535 0.2544477 -0.093161255 -0.01738887 0.21742418 -0.039594408 -0.27566037 0.32414562 -0.46883464 0.70150256 0.20846306
최원영 -0.099261425 0.2977344 0.38713402 -0.2815272 0.5182605 -0.34206346 -0.07644211 0.45804378 -0.1173848 0.1400898 -0.21453089 -0.737227 0.22004457 0.06519438 -0.45278385 -0.1645247 -0.23643416 -0.25317362 0.0544378 -0.45554957 0.15379894 0.082424745 -0.15507576 0.20193328 -0.13348936 0.19898361 0.031445853 -0.13622712 0.076553926 -0.19099455 0.039972607 -0.15831973 -0.008440099 -0.32106096 -0.2828421 0.5205329 0.3013662 -0.3471638 0.071792796 -0.5487965 0.0029381595 -0.23914425 -0.15953645 0.019002063 0.08567731 0.13136089 -0.3279988 0.050488967 0.32819408 -0.28701782 -0.26753616 -0.10468311 0.46984982 0.06558024 -0.056421265 -0.03269051 0.08976456 -0.08122861 -0.17020626 0.24660556 0.27398607 -0.27476135 -0.16689388 -0.12215787 -0.054169916 -0.22654805 -0.016171612 0.2874739 0.4195027 0.31496096 0.10076222 0.049401272 0.0984599 0.14864668 0.48931238 0.21638985 -0.26218647 -0.09887093 0.12786594 0.19242051 -0.19046539 0.18074045 -0.194559 -0.33454138 -0.028728481 0.076446556 -0.15540636 0.060561195 0.425118 -0.027897539 0.26826018 0.5443323 0.17363867 -0.16461253 0.088900246 0.39606753 -0.31680825 -0.2764257 0.040944584 0.112762064
이수경 0.23117335 0.6798187 -0.01624228 -0.21437371 0.9253245 0.050870158 -0.41669306 0.16409318 -0.10338666 0.49497902 -0.37938163 0.2228969 0.15862066 -0.31476822 0.16542746 -0.04133328 -0.15160342 0.16481438 0.54030824 -0.37383276 -0.4270304 0.2841012 -0.429029 0.45231578 -0.19666745 0.31236348 0.3023829 0.33464482 0.07253204 0.23697889 -0.46292457 -0.08637652 0.023807889 -0.3960162 0.38194576 0.20634232 0.6758327 -1.0589765 0.8274379 -0.5300597 -0.11191867 0.060315553 -0.26998526 -0.26380208 0.3615088 0.2136058 -0.14649068 0.5080791 0.6738199 -1.059123 -0.2501347 0.46982244 0.15417077 0.74198323 -0.045746733 -0.4918203 -0.038736947 -0.23282686 0.13656047 -0.47891456 -0.031094985 0.059236713 -0.45480978 -0.32168823 0.15015194 0.09014528 0.39887452 -0.18868482 -0.23893641 0.2042698 -0.30065328 -0.1312016 -0.6415496 0.03554389 -0.40726894 0.22678119 -0.50609094 0.12762354 0.43732995 -0.48258358 0.3978871 0.09012656 -0.4139722 -0.12794597 0.64482987 -0.21904728 0.25036576 0.35475746 0.07080816 0.6812801 0.0318669 0.095579095 -0.18016113 0.116110794 0.49060458 -0.1885603 -0.30878252 -0.77964234 0.616864 -0.4486978
이태곤 0.100861326 0.7181945 -0.02576821 -0.27866635 0.9148483 -0.071762025 -0.35004374 -0.029664591 0.15948345 0.8687324 -0.32951722 0.21839459 0.25010002 -0.45443085 0.26742077 -0.17156747 -0.24319917 0.18742664 0.48877883 -0.35875803 -0.35727572 0.3876523 -0.46330944 0.5080759 -0.31730235 0.34476918 0.260021 0.29623282 0.3278569 0.054989107 -0.4225549 -0.016581327 -0.0052965474 -0.20830993 0.2584685 0.09808191 0.62590665 -0.9814421 0.9071408 -0.49597114 0.0073533747 -0.02431362 -0.19151086 -0.3380147 0.005476415 0.07482031 -0.3488143 0.5631591 0.8735951 -0.9940576 -0.37893566 0.36672625 0.25414327 0.7171236 -0.06380008 -0.27026922 0.1408407 -0.3211556 -0.036304604 -0.5943431 -0.097436026 0.11439306 -0.53586435 -0.45862022 0.29846308 0.08383249 0.27384126 -0.31974626 -0.15031491 0.141298 -0.43445283 -0.3470053 -0.82047063 0.13818347 -0.39414522 0.19295493 -0.42832533 0.3496571 0.3136989 -0.33750823 0.40456876 -0.076076135 -0.53059506 -0.11179231 0.5166762 -0.24831478 0.15663254 0.27304468 0.17308317 0.52689034 0.10264001 0.14021799 -0.2758195 0.0006131166 0.48960558 -0.21466625 -0.2871035 -0.6484393 0.51463556 -0.35791188
홍 0.38777283 0.491107 0.5903843 -0.39413947 0.90676534 -0.0026295998 0.47527626 0.36942974 -0.61400926 0.52846235 0.15725699 0.06199118 0.4460094 -0.1872692 0.1452705 -0.17805761 -0.42835093 -0.14055432 -0.09721506 -0.70225483 -0.056234825 -0.14655395 -0.11994004 -0.19387117 -0.14177608 -0.14573902 0.6158379 -0.21233304 0.015766561 -0.4501698 -0.20480467 -0.12602662 -0.50850856 -0.07274242 -0.26428428 0.633834 0.4497568 -0.8276027 0.45007476 -0.06374127 0.34513047 0.09680797 -0.8718776 0.08092584 -0.055019777 -0.19310926 0.34332037 -0.02924853 0.011858932 -0.78806543 0.020191072 0.1843164 -0.17611922 0.6795672 -0.15882236 0.47759247 0.015769424 0.40404472 -0.12928997 -0.3832537 -0.13366963 -0.3761787 0.31795916 -0.522293 0.11319601 -0.10536628 0.97529626 -0.78394663 -0.15522036 -0.12687865 -0.3299894 0.39499182 -0.41945845 0.23013082 0.29891083 -0.060166333 -0.3325202 -0.08038008 0.26820812 0.50097704 0.044823106 0.2760183 0.22818132 0.20916457 -0.4356659 -0.0051858453 -0.2343555 0.624577 0.1460225 -0.2975668 -0.2596165 0.5383813 0.2877822 -0.2808689 0.55992603 0.028503528 0.46994808 -0.17469269 0.4212456 0.34270173
신윤섭 0.16842039 0.45167634 0.015020868 -0.17642471 0.6355074 0.025725463 -0.22270933 0.19514017 -0.14117995 0.22287789 -0.23669739 0.14024734 0.040652707 -0.19506472 0.08289162 0.02525368 -0.106960945 0.10903855 0.30160034 -0.30492514 -0.28397983 0.18025205 -0.23449896 0.26457477 -0.10787695 0.19289999 0.21023598 0.21445164 -0.015030528 0.1960325 -0.29897186 -0.09709601 0.007613685 -0.26876858 0.20995389 0.16025949 0.4384524 -0.6743457 0.5315456 -0.35186058 -0.07326956 0.049786635 -0.21528566 -0.13030948 0.2988181 0.1811911 -0.009176406 0.31350106 0.37237817 -0.6643792 -0.119075544 0.30371782 0.09268133 0.45823085 -0.07758271 -0.32085344 -0.06033443 -0.087095745 0.1380231 -0.27157182 -0.0057533756 -0.017964577 -0.25814518 -0.1887552 0.051432017 0.06141268 0.3182713 -0.095194064 -0.18664946 0.13183455 -0.14902364 -0.036345467 -0.3443553 0.041938197 -0.24400374 0.1723097 -0.36896104 0.06123802 0.27440014 -0.32168046 0.24324836 0.12731822 -0.24214707 -0.07212471 0.40271527 -0.120088875 0.1758711 0.2556231 0.010398203 0.3926624 0.050956517 0.082793005 -0.10831653 0.07145393 0.35858926 -0.09429778 -0.14201249 -0.54029167 0.41786304 -0.28355747
조연우 0.21122947 0.5525221 0.03858509 -0.19666186 0.8207269 0.026488662 -0.2612105 0.27174175 -0.19773942 0.334319 -0.31633586 0.18817104 0.04631934 -0.21132027 0.14449084 -0.021987796 -0.17278545 0.13796064 0.3986237 -0.35395128 -0.32792994 0.24376827 -0.35594353 0.33424982 -0.11594756 0.17490387 0.2712039 0.18505596 0.0016439798 0.20366582 -0.38518918 -0.12270966 0.040913712 -0.34145874 0.26045647 0.23317073 0.5353538 -0.86649966 0.68397987 -0.45090118 -0.048058823 0.057163075 -0.28126094 -0.16934365 0.3460079 0.22164422 -0.029909056 0.40400296 0.46959534 -0.8399224 -0.13536897 0.4003402 0.08810347 0.5823774 -0.059908964 -0.3617311 -0.071978465 -0.09681559 0.18417282 -0.33333525 0.0119831925 0.027609428 -0.34934708 -0.28773305 0.05458684 0.02411287 0.39363933 -0.12927313 -0.2199119 0.18279383 -0.18486355 -0.0790977 -0.44772774 -0.007902069 -0.24256364 0.19053878 -0.421367 0.06031258 0.29545346 -0.37748384 0.28839564 0.182661 -0.31001946 -0.12330827 0.4460287 -0.1250383 0.15323941 0.34244502 0.051132686 0.4637085 0.06102739 0.07968754 -0.13213962 0.10979894 0.4352352 -0.09911651 -0.18539146 -0.6368574 0.51248175 -0.3752012
왕빛나 0.24845591 0.6156461 -0.025374558 -0.18193851 0.8414466 0.08863658 -0.37816948 0.18877041 -0.124118194 0.3539238 -0.34205592 0.19307293 0.064353086 -0.2657151 0.13823465 0.016248746 -0.10101826 0.17265046 0.5126015 -0.3328059 -0.40532893 0.24546161 -0.32521668 0.39560008 -0.1457579 0.28679335 0.3060274 0.33802184 -0.01309469 0.28837132 -0.40260848 -0.1296842 0.059748754 -0.38189328 0.35234398 0.18930863 0.6369557 -0.95028275 0.72577417 -0.47538564 -0.15025716 0.08567152 -0.2473083 -0.19858341 0.3955781 0.24315394 -0.06402915 0.43338946 0.57882726 -0.96220607 -0.18194033 0.46891263 0.10413166 0.65814126 -0.06674844 -0.5253249 -0.04229782 -0.18135238 0.2033388 -0.432979 -0.026722547 0.049403828 -0.38822615 -0.23812984 0.080203295 0.101077385 0.34741786 -0.14442138 -0.2426652 0.17191651 -0.23729488 -0.08187245 -0.53410286 0.06637106 -0.38995153 0.20587651 -0.48778692 0.07343559 0.3856767 -0.47402117 0.36639532 0.115105405 -0.32004055 -0.13525794 0.633392 -0.18263336 0.26093486 0.31710616 0.013549997 0.6350216 0.035940032 0.0720335 -0.17192613 0.10363258 0.47724625 -0.16227987 -0.2734564 -0.7485168 0.57246786 -0.4538639
임성한 0.20634973 0.71610224 -0.020161152 -0.24176522 0.9626302 0.038629852 -0.38259026 0.13218111 -0.045884717 0.55957645 -0.35914925 0.23339444 0.16353473 -0.36019394 0.19055793 -0.073613964 -0.1539581 0.19321533 0.545486 -0.38659137 -0.4020454 0.28127325 -0.4157194 0.46512505 -0.20400937 0.31489828 0.31723636 0.34768066 0.100053445 0.19359873 -0.4781809 -0.06337402 0.03678406 -0.3462517 0.3588225 0.16778436 0.69635546 -1.0728068 0.8563266 -0.51194185 -0.089243695 0.03437169 -0.24368934 -0.27633005 0.30723757 0.18681449 -0.16694957 0.5405145 0.75464106 -1.0579164 -0.27205244 0.4621195 0.17273933 0.7354846 -0.0694218 -0.4845288 0.019517856 -0.26547083 0.13526691 -0.52743524 -0.036215812 0.06804609 -0.4580453 -0.3665508 0.16146392 0.11553241 0.37927374 -0.22243889 -0.2572347 0.18665387 -0.35782713 -0.19071315 -0.67621803 0.07923522 -0.41632086 0.22059959 -0.4991249 0.17157093 0.4033169 -0.46839648 0.40573823 0.061141923 -0.45769894 -0.12178097 0.65855753 -0.22618613 0.25253573 0.30367538 0.09658617 0.6465923 0.067161225 0.12037686 -0.2228782 0.09815485 0.52263844 -0.18659021 -0.314508 -0.7906635 0.6156655 -0.46256182
이영희 -0.13848208 0.49120912 0.03234048 -0.281051 0.5218996 -0.2185386 -0.13795453 -0.042653464 0.31497413 0.751532 -0.15530124 0.14169933 0.15962267 -0.33993998 0.25886813 -0.22712976 -0.2606981 0.1330127 0.17869578 -0.20942715 -0.12164421 0.34875584 -0.28847092 0.34897044 -0.2610456 0.15030143 0.07993616 0.012619392 0.39375567 -0.0866237 -0.209004 -0.0072720167 -0.12231942 -0.0012669715 -0.08441361 0.0036696254 0.251254 -0.4607886 0.5905709 -0.30702356 0.10641693 0.031040328 -0.09329445 -0.3109403 -0.30038872 -0.07406035 -0.3235257 0.28051275 0.589036 -0.4608302 -0.3206947 0.1325179 0.1675609 0.38070238 -0.034404233 0.12263977 0.15551376 -0.20410365 -0.13227348 -0.3824306 -0.046765566 0.07079318 -0.3702982 -0.43011653 0.27914223 -0.037686754 0.09741598 -0.3192473 0.018861929 0.009332452 -0.24647038 -0.3035854 -0.6053696 0.13803095 -0.15192643 0.18939547 -0.22178425 0.39918667 -0.058148954 -0.08925915 0.2272978 -0.10748174 -0.38493648 -0.028601682 0.05556239 -0.092698544 -0.050144065 0.14515392 0.15121776 0.07933087 0.19002606 0.07557206 -0.21675515 -0.1304435 0.33956298 -0.08600346 -0.051509514 -0.20664182 0.13470846 -0.11236409
윤정희 -0.16132425 0.6626465 0.00806795 -0.32290453 0.70874655 -0.24326313 -0.29283294 -0.15087748 0.54096407 1.124836 -0.24102582 0.21503872 0.25116706 -0.49941313 0.33545274 -0.30800268 -0.32819816 0.16969456 0.30503604 -0.23098126 -0.21941456 0.49336496 -0.41584077 0.5253376 -0.36779863 0.28208753 0.08975036 0.11671642 0.567096 -0.09199088 -0.33101842 0.01363335 -0.12121724 -0.0024218454 -0.047024857 -0.057157576 0.38795087 -0.68106914 0.84279025 -0.37782294 0.09808982 0.0015399626 -0.053857543 -0.42959195 -0.4210554 -0.13195369 -0.5095168 0.42116567 0.9133062 -0.66851103 -0.5051583 0.22679606 0.25392926 0.58571726 0.016809408 0.10324372 0.29632258 -0.3616139 -0.2096562 -0.6276188 -0.142004 0.11798167 -0.5469675 -0.57431114 0.42833847 -0.03170219 0.055355936 -0.472079 0.050934635 0.018720418 -0.3842745 -0.46502244 -0.9137436 0.22065149 -0.27338618 0.22107777 -0.27878484 0.5485365 -0.014770408 -0.14817746 0.37715486 -0.21783459 -0.5287464 -0.06800598 0.18567583 -0.18455537 -0.064630605 0.20146893 0.20255244 0.23864615 0.21516736 0.09508432 -0.3226925 -0.16866244 0.45289767 -0.14181502 -0.18102252 -0.31028268 0.1887864 -0.19281144
이덕화 0.14981715 0.67197573 0.53102654 -0.41255817 1.0621307 -0.27521965 0.5824134 0.2711874 -0.54987764 0.44599894 -0.15291598 0.40639693 0.20460731 0.06604947 0.32316232 -0.0428929 -0.7250184 0.12800589 -0.17492281 -0.8213865 -0.2681025 0.043760728 -0.10402034 -0.234501 -0.019344127 -0.14266866 0.4234382 0.14444134 0.070894904 -0.3573637 -0.053312857 0.035665292 -0.3405927 0.06801877 -0.07205951 0.59235215 0.3992392 -0.63926667 0.2608895 -0.27596807 0.19339557 0.07725684 -0.5181656 -0.19722655 -0.08080997 -0.0847099 0.24580343 -0.050921608 0.06037775 -0.32553443 -0.067761116 0.3073895 -0.10476138 0.7394629 -0.023424728 0.5306624 -0.13830611 0.5884586 -0.052688234 -0.12988335 -0.0066662026 -0.548337 0.014579983 -0.3115537 -0.08360954 -0.10278761 1.1141142 -0.49467564 0.04850972 0.082370676 -0.19518629 0.021537364 -0.27958894 0.36069432 0.031462934 0.07017352 -0.15126067 -0.094042875 0.022687376 0.55143845 -0.009609879 0.48514837 0.095347375 -0.3471951 -0.3084683 0.16753729 -0.095093325 0.47018462 0.30357096 -0.421009 -0.34621772 0.41987944 0.1306711 -0.33985874 0.52677333 -0.14467885 0.49862143 -0.3316326 0.18360333 0.27126274
이보희 -0.19793476 0.6051848 0.04880806 -0.34510437 0.61067104 -0.27610707 -0.18445028 -0.06848255 0.45785648 1.0141518 -0.21207024 0.16814041 0.21001844 -0.40176445 0.3412306 -0.29849973 -0.36344996 0.13545884 0.19302976 -0.24080084 -0.14261952 0.44453934 -0.38519055 0.4421924 -0.3608544 0.18333663 0.07109919 0.0010225559 0.5392178 -0.14285696 -0.2717797 -0.011259012 -0.16222325 0.04109112 -0.116143614 -0.054989323 0.2997235 -0.5426466 0.7656782 -0.35790852 0.13814126 0.015526386 -0.093749724 -0.38539675 -0.44076076 -0.09693622 -0.44960016 0.35172686 0.7669293 -0.525093 -0.4553418 0.1731197 0.2411999 0.44736755 0.018535472 0.21850377 0.26131785 -0.26994553 -0.20339148 -0.4859972 -0.088194855 0.08603291 -0.5006037 -0.5411123 0.3780096 -0.08850919 0.072534546 -0.40484107 0.0632322 0.02901233 -0.31831756 -0.45450184 -0.7898404 0.14761318 -0.17103678 0.18931307 -0.23064291 0.5154546 -0.09018021 -0.048880976 0.28214255 -0.16273837 -0.48462257 -0.02089106 0.042235915 -0.12725593 -0.11492119 0.19264211 0.2074124 0.059812874 0.22154543 0.083783545 -0.26189354 -0.16179879 0.3932823 -0.086105995 -0.10300329 -0.20528062 0.13938655 -0.100289665
정혜선 -0.16559978 0.5453814 0.016331721 -0.29687816 0.56853616 -0.25339317 -0.13387525 -0.049070958 0.42932072 0.8888909 -0.15622965 0.16924435 0.17823714 -0.376237 0.3036619 -0.24467854 -0.3152906 0.12620991 0.17513388 -0.23570456 -0.14843181 0.415501 -0.3405608 0.38910198 -0.29962122 0.17614457 0.07672567 0.0038399962 0.4826618 -0.10477597 -0.23432253 0.0016317567 -0.10810852 0.029991053 -0.11063092 -0.04383052 0.2627022 -0.5055317 0.6967199 -0.32805583 0.12072538 0.003340321 -0.052596353 -0.3417673 -0.38375354 -0.09231855 -0.38421327 0.3163003 0.6759505 -0.46411806 -0.40513244 0.16457295 0.19658099 0.4506994 0.015861345 0.18012519 0.21989216 -0.23765947 -0.18738683 -0.44751394 -0.05541733 0.056060594 -0.4345291 -0.47568625 0.3522837 -0.07253433 0.06911192 -0.3810403 0.040757295 0.034470238 -0.27325964 -0.39080417 -0.6910062 0.12990767 -0.15047434 0.18375431 -0.23945095 0.46233562 -0.08307627 -0.06338185 0.2756947 -0.12025744 -0.45086282 -0.05246927 0.041770004 -0.11189114 -0.11984106 0.18723455 0.16873202 0.07732716 0.2331341 0.063096516 -0.23491937 -0.14284262 0.38154426 -0.066673435 -0.096011765 -0.20285317 0.10945349 -0.11239853
이숙 0.2748872 0.6286209 0.028335873 -0.2331804 0.9132673 0.04072928 -0.31373918 0.2701345 -0.22853118 0.25520036 -0.32583946 0.1753929 0.06568386 -0.23668566 0.10751417 0.042002473 -0.15266435 0.17531306 0.43852362 -0.42329583 -0.40483275 0.22753917 -0.32428947 0.3581437 -0.15331222 0.27275765 0.31405663 0.28849018 -0.045413297 0.28499332 -0.40843198 -0.14658226 0.06501797 -0.39898187 0.34155032 0.25334445 0.6178086 -0.9506878 0.7301271 -0.49414772 -0.086901225 0.07387105 -0.32857442 -0.18215002 0.4626446 0.25662073 0.023659682 0.43231222 0.5371373 -0.9642928 -0.13569015 0.41289356 0.11880359 0.65190816 -0.09748634 -0.47732368 -0.11955369 -0.14028904 0.23330383 -0.37555292 0.023697566 -0.013323787 -0.34487066 -0.23575445 0.05660715 0.094560616 0.4667815 -0.13751961 -0.29150832 0.21045604 -0.24069498 -0.047545098 -0.448109 0.01508809 -0.3538382 0.23957445 -0.49742085 0.019630466 0.39887786 -0.47090316 0.33200213 0.18112855 -0.36124575 -0.12151278 0.5707522 -0.18392228 0.2537981 0.3490363 0.020015493 0.5931208 0.03483391 0.11429844 -0.13069671 0.14202936 0.5030778 -0.15922597 -0.21854939 -0.7589853 0.6078562 -0.4446265
한혜숙 -0.09572075 0.7198497 -0.009481413 -0.32769698 0.79251885 -0.2035206 -0.2903518 -0.14349356 0.4380979 1.1059314 -0.28306594 0.19805424 0.2916006 -0.49721715 0.3206427 -0.28017893 -0.32551342 0.17615022 0.3890247 -0.29217437 -0.25728884 0.46692386 -0.43556365 0.5119146 -0.38402098 0.2914403 0.16718112 0.16918768 0.5227425 -0.09019482 -0.3514886 0.024653932 -0.09096178 -0.032731857 0.033040117 -0.004357401 0.4562253 -0.81678295 0.90266883 -0.42961287 0.092897415 -0.04064626 -0.09129316 -0.4327393 -0.3219145 -0.0717919 -0.4764283 0.48962277 0.9145858 -0.8052298 -0.46759036 0.26685733 0.2864977 0.6271915 -0.028040873 0.005047216 0.2611797 -0.3636013 -0.19659653 -0.6135506 -0.099012256 0.12682709 -0.55958045 -0.5575897 0.41532803 -0.009764417 0.14277679 -0.42762098 -0.022835216 0.05391841 -0.40637273 -0.46822298 -0.91745377 0.20061414 -0.2974524 0.22459206 -0.3437191 0.49963343 0.112681486 -0.18734764 0.35919064 -0.19059616 -0.5665796 -0.06525661 0.3053949 -0.22736652 0.019535897 0.20737095 0.22264856 0.28887585 0.1987292 0.12005274 -0.30654848 -0.13576297 0.46155143 -0.17752 -0.21897484 -0.42994654 0.31573337 -0.23107177
반효정 0.27224517 0.6778793 0.019614149 -0.23353125 0.96101123 0.047892194 -0.3582917 0.24495931 -0.20496392 0.40529922 -0.38478565 0.18960474 0.117564484 -0.28369516 0.16084595 -0.020374062 -0.16880599 0.18025011 0.50869805 -0.39842725 -0.39808434 0.23142403 -0.38246235 0.40542412 -0.180457 0.29138216 0.33559498 0.30159786 0.017484061 0.23691827 -0.44714952 -0.114656255 0.036685597 -0.37011752 0.34934196 0.21512054 0.6825106 -1.044043 0.7921036 -0.5061762 -0.08390305 0.051873293 -0.31286073 -0.23528098 0.38668615 0.23475774 -0.05460549 0.4996594 0.6218111 -1.0225611 -0.19900094 0.42822245 0.15561809 0.6780556 -0.07495651 -0.4914641 -0.06430218 -0.19149156 0.19546315 -0.44719365 -0.00935096 0.022985365 -0.40504158 -0.31319726 0.092130385 0.0958997 0.44783935 -0.1798917 -0.28565985 0.22351043 -0.29501706 -0.13767663 -0.5780185 0.0076806014 -0.3816347 0.23060316 -0.5056346 0.10853265 0.42973006 -0.45237723 0.3769208 0.1364777 -0.40190002 -0.12604633 0.6049446 -0.20446245 0.25082862 0.3419443 0.05581792 0.61812896 0.048326522 0.10506674 -0.18260697 0.13162932 0.49947616 -0.1820949 -0.27689946 -0.7953415 0.6302681 -0.43845147
현석 -0.14804743 0.6763761 0.0031514221 -0.34250128 0.72233456 -0.24097277 -0.24129225 -0.11889305 0.47192088 1.1019027 -0.24146658 0.21200174 0.29231218 -0.47994062 0.35539663 -0.32292092 -0.32651702 0.17711571 0.33810216 -0.27561077 -0.1917772 0.46866944 -0.45829254 0.5161536 -0.3817596 0.2754015 0.10668529 0.104075335 0.55083334 -0.11845094 -0.3482614 0.021878337 -0.13732493 -0.007898065 0.008236304 -0.038665053 0.41858965 -0.7315439 0.8676853 -0.40992647 0.08917571 -0.004944207 -0.09533521 -0.40787387 -0.38817105 -0.08313126 -0.4851266 0.45970744 0.89663446 -0.69730395 -0.4787843 0.23216295 0.26266572 0.5755349 -0.010032314 0.082435414 0.2700797 -0.32391086 -0.19894712 -0.57789606 -0.10625956 0.11616124 -0.5537678 -0.5725162 0.40891418 -0.010047561 0.09460864 -0.43043256 0.0076509696 0.03999963 -0.40623966 -0.4529753 -0.8768507 0.17480566 -0.26763678 0.19660155 -0.31086314 0.5416244 0.01644044 -0.13339931 0.35359517 -0.1579455 -0.5343127 -0.05446906 0.22207451 -0.17891243 -0.04883821 0.19453311 0.22113122 0.22679079 0.22168441 0.09943494 -0.31311962 -0.1406092 0.44465235 -0.13807757 -0.17092738 -0.35017404 0.24511158 -0.20110561
임채무 0.19862947 0.7080659 -0.0037920324 -0.25394824 0.96954876 0.00804661 -0.36954442 0.08856246 -0.0061616744 0.67260176 -0.389354 0.22828539 0.23386246 -0.38166055 0.21429226 -0.109936446 -0.22033975 0.19545965 0.53632224 -0.37452853 -0.37281087 0.30917853 -0.46130544 0.5035223 -0.2533301 0.3132002 0.30927593 0.32059222 0.19228312 0.15456788 -0.49005505 -0.036248058 0.017154673 -0.31081 0.3433272 0.1632127 0.6845794 -1.0561343 0.9057365 -0.53561693 -0.05575893 0.012845889 -0.23713353 -0.2834826 0.22653583 0.15737483 -0.23797399 0.56298214 0.81719506 -1.0780295 -0.30904424 0.4433635 0.2048997 0.74418116 -0.06892116 -0.43270135 0.039685875 -0.30286857 0.05987789 -0.5311905 -0.06029351 0.09171292 -0.5163346 -0.40624446 0.2143178 0.08315348 0.36394393 -0.2457126 -0.21854047 0.1904085 -0.39812052 -0.23333402 -0.7388847 0.06937199 -0.4085746 0.21279866 -0.46007672 0.20057704 0.40508792 -0.41394553 0.4361684 0.021268452 -0.49008667 -0.13051824 0.62054706 -0.25989065 0.2243526 0.32363605 0.12820119 0.62815744 0.06785278 0.13495125 -0.25312164 0.08271509 0.5039026 -0.20731208 -0.3162471 -0.74675685 0.6080394 -0.4264377
김영란 -0.19320385 0.62500554 0.018423725 -0.3280269 0.6449511 -0.25816262 -0.20340392 -0.12540151 0.49724445 1.0663034 -0.2129705 0.17204413 0.24125807 -0.44799003 0.31565675 -0.3188865 -0.33019662 0.15482116 0.23591836 -0.24767907 -0.15560187 0.48338142 -0.40535748 0.45173812 -0.35543746 0.2177762 0.085742034 0.043429945 0.5350594 -0.13639218 -0.27822444 0.02178827 -0.13840015 0.010015208 -0.08018828 -0.044523485 0.3155377 -0.60456395 0.8110676 -0.38360894 0.11419529 0.011104612 -0.04881023 -0.40025452 -0.43785983 -0.12584746 -0.48407108 0.3883262 0.83292395 -0.60291404 -0.43998703 0.17148913 0.25527766 0.52267104 -0.010329739 0.16926712 0.2531701 -0.30325973 -0.22753303 -0.5372441 -0.09588125 0.12126597 -0.5114209 -0.5658814 0.40764177 -0.064345784 0.041279517 -0.42072856 0.058510147 0.0026326869 -0.3256411 -0.4395292 -0.83371854 0.18319985 -0.20543152 0.20501287 -0.26115116 0.54345757 -0.04683331 -0.10883414 0.30619442 -0.17285354 -0.51306427 -0.064190246 0.10504911 -0.15254986 -0.071915485 0.16518994 0.21255136 0.1427215 0.24594674 0.10010682 -0.29893678 -0.18657 0.40629303 -0.1069214 -0.12624753 -0.24708457 0.1675793 -0.12900014
강지섭 0.12533149 0.6427866 0.0005887135 -0.23605593 0.83883965 -0.04545404 -0.34856972 0.014775373 0.07640074 0.7174349 -0.32892564 0.18003026 0.22195886 -0.36730435 0.22481893 -0.15250929 -0.1890984 0.16309272 0.45370206 -0.33162165 -0.3234803 0.29464695 -0.39619434 0.45941058 -0.25478023 0.29517075 0.24970934 0.29868495 0.21620397 0.08399457 -0.4112838 -0.002815954 0.001573721 -0.2310535 0.25417566 0.08670073 0.59205383 -0.9350385 0.8050257 -0.43516093 -0.039379258 -0.017552007 -0.19370224 -0.31101823 0.10848033 0.08208645 -0.26241836 0.4797516 0.772794 -0.91198677 -0.33083236 0.36277682 0.20662318 0.65937537 -0.049968656 -0.31993538 0.07782389 -0.2983418 0.039000485 -0.47688398 -0.047479767 0.07167058 -0.47175092 -0.38796163 0.22145858 0.08274941 0.29064354 -0.26030958 -0.16466267 0.15956265 -0.3630667 -0.27925658 -0.6969826 0.08859206 -0.37953597 0.20037669 -0.39978346 0.2514687 0.3303997 -0.34533012 0.3585877 -0.039237984 -0.4427132 -0.100560896 0.5234406 -0.2117786 0.14647147 0.24720101 0.15341328 0.483615 0.09525669 0.10697085 -0.21341589 0.023222048 0.4398937 -0.19888628 -0.27949604 -0.6137112 0.4773689 -0.35942632
차주옥 -0.028368648 0.7576739 0.021075344 -0.3400529 0.8889609 -0.19346087 -0.31398907 -0.085420355 0.35317943 1.1051985 -0.30976248 0.23234409 0.32610682 -0.51416624 0.33002123 -0.3030477 -0.3365859 0.17660488 0.42448336 -0.34835836 -0.2635346 0.4524458 -0.5174465 0.55137587 -0.37917402 0.32349727 0.20198968 0.2142138 0.49440026 -0.08907127 -0.4119091 0.04529971 -0.08224352 -0.09129297 0.10096384 0.03415118 0.5338544 -0.9208004 0.9476152 -0.48680902 0.07622702 -0.009596582 -0.14662303 -0.43828562 -0.24553667 -0.061582502 -0.4803204 0.53644425 0.97370535 -0.8983575 -0.5036422 0.30915648 0.28223023 0.6949174 -0.017967759 -0.07030386 0.2099716 -0.35387045 -0.14459534 -0.63101727 -0.08540611 0.12231559 -0.58931977 -0.5792314 0.40931004 0.037062943 0.20826389 -0.44351166 -0.035945654 0.08334571 -0.467341 -0.4558453 -0.9417177 0.15076728 -0.3294097 0.21704422 -0.3791238 0.47902456 0.16426359 -0.2185734 0.4131631 -0.14029114 -0.5874312 -0.07345522 0.37769854 -0.22010018 0.055170495 0.24148244 0.23812555 0.3453296 0.19894874 0.15379567 -0.33109194 -0.092014596 0.49732664 -0.19595367 -0.26381654 -0.5099345 0.38409624 -0.2719287
박해미 0.025192263 0.6789815 -0.03565484 -0.2683919 0.80668205 -0.090178855 -0.38589916 -0.10855619 0.3361664 0.95820194 -0.30912164 0.21445708 0.27694586 -0.47359747 0.2671839 -0.22677822 -0.22978204 0.19071352 0.49111143 -0.25557658 -0.32035106 0.3997546 -0.4389021 0.52742314 -0.32141563 0.32763737 0.17826349 0.27972063 0.39216715 0.024068229 -0.40786412 0.018478889 -0.027203457 -0.13957682 0.21162115 -0.0029139763 0.57082856 -0.90442 0.90148073 -0.44593275 -0.0108450195 -0.020855471 -0.10281619 -0.3661255 -0.09453142 0.019730397 -0.40172523 0.5413655 0.92156684 -0.9043801 -0.42877033 0.3330753 0.2576261 0.6636898 -0.020023976 -0.21989016 0.2060064 -0.39887255 -0.08919196 -0.60395885 -0.10827422 0.13813229 -0.54713655 -0.481871 0.356044 0.04692963 0.15856281 -0.35114443 -0.08320121 0.10757568 -0.41008335 -0.3907727 -0.8615578 0.1838417 -0.41027337 0.18435404 -0.35911912 0.3857411 0.23276766 -0.3246652 0.4094296 -0.13607937 -0.52732915 -0.084552966 0.49925706 -0.2624464 0.11809446 0.21156006 0.18060192 0.4993624 0.14158124 0.09299702 -0.28412753 -0.031669002 0.47130683 -0.20538887 -0.306359 -0.5689293 0.40059537 -0.348749
박진주 -0.1436814 0.28172183 0.33436343 -0.26695418 0.7638585 -0.01783744 -0.10692983 0.46458003 -0.39060363 0.4133133 -0.014935075 -0.23069412 0.16914248 0.02396813 -0.05773922 -0.16057399 -0.1937451 -0.27888674 -0.2209534 -0.56207716 -0.11981689 0.09681173 -0.4888203 0.28164285 -0.28806686 0.11453196 0.05410227 -0.18874682 0.13030587 -0.0122055765 -0.41818655 0.17248291 -0.2455679 0.016381344 -0.20972857 0.23748678 0.23245254 -0.7654384 0.74534446 -0.482317 0.32329962 -0.32612863 -0.5603354 -0.037586045 0.22488438 0.4267043 0.030575912 0.22516523 0.2913874 -0.29831448 -0.12362636 -0.05674649 0.34016666 0.3458928 -0.29601187 0.27244386 -0.18129162 0.12206229 -0.13702133 0.33608818 0.09012604 -0.0640035 -0.5468802 -0.49082378 0.2421976 -0.49558103 0.4530022 0.05126288 0.40256885 0.2423375 -0.27869636 -0.21035638 -0.5745422 -0.34944937 -0.032639448 0.30398032 -0.22859387 0.083885536 0.39560395 0.23606485 0.19576116 0.0674432 -0.039314598 -0.117050186 -0.16470076 0.1845794 -0.287538 0.1757683 0.5664617 -0.17471752 0.3343065 0.12099594 -0.02244276 0.04056871 0.19122775 0.060326304 0.011474022 -0.4099707 0.52690184 0.07697574
