366 100
, -0.24468875 -0.16917837 0.03400066 0.07130303 -0.31304747 0.074820265 -0.17240502 -0.001568742 -0.18053944 -0.073585086 -0.015290893 -0.27387297 -0.2529349 -0.16465954 -0.2803971 0.042088173 0.22250585 0.22992317 -0.17062941 -0.22018327 -0.082555614 0.06642862 0.42854178 0.098662734 -0.35743698 0.37888905 -0.0009945999 -0.08863893 0.064871274 -0.11844017 -0.051234145 -0.11893397 0.360215 0.15432107 -0.40428075 -0.025419405 0.20749918 -0.2899202 -0.24582164 -0.33009055 0.28304005 0.18400267 -0.2183903 0.11513826 0.1609932 -0.015025967 -0.06606075 -0.33963215 -0.30399853 -0.10269402 -0.2037313 0.027836617 -0.0818537 -0.024543375 -0.120299645 -0.2958365 -0.11988782 -0.054715548 -0.062870465 -0.12006722 -0.14453126 -0.18780106 0.3056273 -0.22592199 -0.44742173 -0.044789907 0.22369944 0.17311656 -0.33398286 -0.17605834 0.2688452 0.36774495 -0.15845096 0.06554379 0.0014913976 0.33878624 0.011167739 0.041918196 -0.2936902 -0.33356097 0.18346447 -0.09462375 0.26979792 0.03357113 0.029953327 0.26822242 -0.15381613 0.10730785 -0.16500828 -0.32642788 -0.023719005 -0.0289143 -0.04697064 -0.22638644 0.13789499 0.17500451 -0.19314371 0.06015375 0.21843219 0.19172837
최기환 -0.079804264 0.19969578 0.11969089 0.39015305 -0.03490204 -0.062214084 0.023127493 0.38673076 -0.77559817 -0.14121747 -0.52372056 0.055980593 -0.32752848 -0.010424935 0.14274766 0.12255737 0.15167226 0.28440288 -0.6291371 -0.40428492 -0.15033643 -0.58963484 0.13098471 0.14107433 -0.27922592 0.017350275 0.015800651 -0.42766827 0.17946288 -0.07094326 -0.0033405975 -0.3867596 0.7129254 -0.14913337 -0.76106817 0.06442438 0.031045359 -0.0035167905 0.40339828 -0.39249834 0.40933186 -0.01635441 -0.46232864 0.52565473 0.20498624 0.251274 0.046245057 0.022404587 -0.60381097 0.13557692 -0.26450342 0.011482678 -0.3134801 -0.2028753 0.024684384 -0.3453961 -0.059496764 -0.0178305 -0.41571006 0.07710785 -0.32832438 0.008047804 -0.11662473 -0.24799977 -0.13771221 -0.21745947 0.48237774 0.09076253 -0.09304196 -0.061386626 0.17779882 -0.06300156 -0.36429393 0.4636492 0.42810333 -0.21388966 -0.25873965 0.112249315 -0.12252555 -0.640183 0.72491544 -0.004665302 0.44014516 -0.32357088 -0.10093282 0.7245224 0.0014978189 -0.38409132 0.06632188 -0.340135 0.1761996 -0.049918413 0.20568568 -0.022601731 -0.42846468 0.70174587 -0.7688498 -0.38986892 0.41211417 0.034900572
김 0.37440872 0.6112196 1.017083 0.77826524 -0.120919995 -0.082989946 0.7468667 1.5085423 -0.8691836 -0.6181585 -0.08040011 -0.5652619 -0.4413699 -0.78162885 -0.061497986 0.00011939106 0.7271446 0.4704604 -0.9127374 -1.3899416 -0.20190422 0.23718444 0.9525167 0.1377315 -0.68497455 0.54625493 -0.36746955 -0.007912532 0.06898003 -0.4751623 -0.44138077 -0.36591098 1.2961265 -0.5360867 -1.1133126 0.26890507 0.8781516 -0.61793596 -0.17546904 -0.72991776 0.2430838 0.28338647 -0.93330884 0.48963726 0.33006948 -0.29044324 -0.49524337 -0.12037408 -0.22756287 0.3017116 -0.5507208 0.021475133 -0.34731454 -0.05119958 -0.13476905 -1.1887169 0.27711546 -0.016249632 0.15621786 0.014358686 -0.53708506 -0.5905523 0.9309808 -0.21847755 -0.8694704 0.51671237 0.0017551295 0.9235715 -1.3811467 -0.3491926 0.8828518 1.184562 0.16116105 0.25275528 0.107125975 0.082919 0.50697994 0.19214505 -0.22213502 -0.7932675 -0.12517397 -0.061860334 0.38532963 0.24101652 -0.079920925 -0.012622984 0.10293614 0.023736503 -0.02996536 0.022449603 0.49470204 0.38822877 0.36414438 -0.096769795 0.8310611 0.494015 0.017145598 0.13945533 0.33731523 -0.010275953
의 0.3445179 0.70021796 1.0564125 0.7977 -0.12839216 -0.14960487 0.76334935 1.6153607 -0.85973775 -0.7094681 -0.022930829 -0.564325 -0.49128535 -0.86574084 -0.023259953 -0.009923684 0.8250519 0.44273776 -0.94190043 -1.4098573 -0.19048558 0.24867414 1.0151663 0.18127818 -0.7677253 0.58385956 -0.4478843 0.033292055 0.12401304 -0.5128453 -0.5126677 -0.38964695 1.393803 -0.5458193 -1.1487584 0.27289918 0.9219195 -0.68059707 -0.22197813 -0.7119221 0.25959626 0.32706004 -0.97206944 0.5318039 0.30986187 -0.33480462 -0.49135315 -0.13666816 -0.28084064 0.3377 -0.5494814 0.04996206 -0.3867445 -0.06932197 -0.1122921 -1.2623415 0.33825156 0.08866499 0.24707313 0.08295872 -0.63489664 -0.6116856 0.99348223 -0.20375094 -0.89647716 0.523141 0.028471533 0.97330695 -1.4619725 -0.37932897 0.9652427 1.2352753 0.15633853 0.28039894 0.13005291 0.0699408 0.51842606 0.20645666 -0.26907063 -0.8352148 -0.18440464 0.017499376 0.4653883 0.31091398 -0.09538394 0.016201101 0.15581541 0.03140261 -0.03488597 0.039738636 0.5296723 0.39664945 0.36498138 -0.10795082 0.8621413 0.50461495 0.022119941 0.1840621 0.33254123 0.03299242
이재황 0.32732984 0.22431971 0.704832 0.550379 0.0067102583 0.08744342 0.6748369 0.9923295 -0.662096 -0.3142337 -0.088810556 -0.33130336 -0.17605765 -0.32274476 -0.1588298 0.01890194 0.359939 0.3053838 -0.53505564 -0.8040225 -0.11874729 0.22184534 0.7380976 0.034362026 -0.2592577 0.32535887 -0.08479438 -0.12568581 -0.08470961 -0.47882715 0.0037790558 -0.21513653 0.8373756 -0.5365109 -0.70021886 0.32169345 0.57604873 -0.4099121 -0.096930765 -0.71929014 0.23015046 0.1659281 -0.79678166 0.09155746 0.28796163 -0.19973627 -0.45517862 0.029841064 -0.08115694 0.040563878 -0.4078585 0.007820791 -0.17965949 0.104525745 0.036344897 -0.790529 0.026053775 -0.13591096 -0.056195874 -0.19947058 -0.23275001 -0.45849308 0.59400535 -0.17181991 -0.57681006 0.4029711 -0.23221856 0.58856684 -0.93733764 -0.17766911 0.7034316 0.9404555 0.21693464 0.2145581 0.021812918 -0.15685579 0.27116624 0.073836446 0.035986315 -0.5175467 -0.081441864 -0.30158195 0.07412525 0.003085651 -0.0634779 -0.23042639 0.15359567 0.040013455 -0.17252962 0.017397482 0.23986535 0.2814702 0.13640094 0.00795229 0.59159136 0.3735415 -0.17386219 0.020114234 0.15493247 -0.1905307
김병욱 0.3809123 0.30943382 0.8964824 0.6575492 -0.09786297 0.06454617 0.82544136 1.2042499 -0.82799554 -0.44785756 -0.09697243 -0.4279485 -0.23461206 -0.46339795 -0.17546947 0.036840323 0.4325826 0.3461807 -0.72053045 -0.99332154 -0.17760502 0.2692146 0.8685451 0.08453514 -0.41428748 0.40961197 -0.099976115 -0.21367107 -0.028772647 -0.5160314 -0.052740436 -0.32760993 0.9919582 -0.60235155 -0.8655534 0.41170153 0.7494221 -0.47862673 -0.08870618 -0.81915337 0.32501593 0.1726858 -0.94788915 0.13571787 0.32947728 -0.23425491 -0.5352633 0.060582537 -0.121047266 0.08233684 -0.49241894 -0.042286675 -0.21479195 0.13305244 -0.020056881 -0.90808916 0.10856365 -0.15480994 -0.0457994 -0.21144162 -0.28375033 -0.516911 0.7503428 -0.2329839 -0.6613175 0.47274175 -0.26251304 0.6911821 -1.1162641 -0.32055852 0.81128824 1.1088288 0.25704095 0.23128213 0.0066256947 -0.09712828 0.31224045 0.088310845 0.0016600967 -0.55857354 -0.020762444 -0.33835685 0.1844956 0.0046664155 -0.07011677 -0.26740098 0.09791051 0.05903722 -0.16680501 0.05562724 0.28396952 0.376331 0.15455554 0.0010402771 0.7373389 0.4640208 -0.16213419 -0.027472762 0.24501896 -0.17767413
최윤영 0.42876598 0.34034368 0.9411125 0.706701 -0.028103005 0.038736843 0.86481076 1.3240488 -0.84775233 -0.49357045 -0.068459466 -0.45712292 -0.24234718 -0.4646426 -0.16904531 0.021836232 0.534297 0.39650562 -0.7190155 -1.0868008 -0.16148518 0.30225286 0.971367 0.043118637 -0.37660334 0.42784256 -0.1671645 -0.13706075 -0.062724374 -0.58414114 -0.070928074 -0.29179585 1.1002725 -0.641907 -0.93591166 0.4163605 0.76227456 -0.5405614 -0.14400476 -0.88173974 0.29014114 0.22919929 -0.9725878 0.124761604 0.3378317 -0.23520009 -0.59231526 0.0136163775 -0.14472865 0.10324839 -0.52219677 -0.025490109 -0.2893191 0.1285892 -0.0031754856 -1.0240582 0.10363448 -0.1486325 -0.0062781377 -0.20864025 -0.34660733 -0.58395135 0.80566317 -0.20521288 -0.7446847 0.55072874 -0.29894716 0.7466454 -1.2388526 -0.28800952 0.90420175 1.2098958 0.28716394 0.27323502 0.043777924 -0.17589001 0.39256176 0.09301297 -0.029383134 -0.6294123 -0.0935079 -0.31301582 0.14342204 0.06506279 -0.06923129 -0.2735766 0.19236957 0.026502864 -0.18005729 0.05089042 0.3310805 0.36929244 0.17714627 0.006867289 0.78028387 0.48130485 -0.13991946 0.024825502 0.21577986 -0.20073631
배종옥 0.47021547 0.4638512 1.0638896 0.7848665 -0.07625913 0.014130569 0.88249016 1.4574273 -0.9088518 -0.5602668 -0.07543586 -0.49987796 -0.29025236 -0.61512524 -0.13571528 0.029089633 0.6333707 0.4287639 -0.83585536 -1.2379963 -0.18797563 0.3116599 0.974336 0.04040757 -0.5135034 0.5056904 -0.24457636 -0.0801367 -0.014083156 -0.5851283 -0.22716153 -0.3410573 1.2204221 -0.66208804 -1.0153034 0.37850317 0.8436366 -0.57635385 -0.1668663 -0.8365318 0.29824054 0.25077236 -1.0403172 0.27280134 0.35536355 -0.30803177 -0.5884527 -0.01078378 -0.15943497 0.16719973 -0.5643954 0.010818633 -0.28692102 0.08039658 -0.01860106 -1.0739632 0.14941935 -0.07240924 0.07366804 -0.099964 -0.42554146 -0.62616163 0.8630949 -0.18772995 -0.79512805 0.5637054 -0.22089753 0.87246376 -1.3168577 -0.30816877 0.96666527 1.2554927 0.2722034 0.26380563 0.04943566 -0.061757833 0.46555495 0.10762103 -0.055539507 -0.7162874 -0.1502534 -0.24701166 0.22951083 0.15031685 -0.07488131 -0.21191186 0.18207055 0.040508635 -0.10050252 0.06794753 0.37830165 0.39761066 0.23968886 0.0024154063 0.8273545 0.4838645 -0.08968955 0.058923364 0.2724968 -0.12614842
김민정 0.4341385 0.57039696 1.1373585 0.8266799 -0.043810643 -0.050192274 0.94723755 1.613161 -0.9654436 -0.640953 -0.046883244 -0.58532006 -0.34393385 -0.7030869 -0.07308721 -0.0069099925 0.6794766 0.42995283 -0.88806415 -1.3207135 -0.18295242 0.34517565 1.0763202 0.06620592 -0.54731286 0.5269464 -0.32151905 -0.08189935 0.017132107 -0.6485138 -0.2591849 -0.4041754 1.3722377 -0.68046755 -1.1143984 0.39244163 0.9358105 -0.6249258 -0.17466709 -0.9178582 0.2732863 0.31832114 -1.1023172 0.32508427 0.32900244 -0.34143436 -0.6077863 -0.015908215 -0.21784343 0.2129828 -0.5857991 0.02007506 -0.3330592 0.04485933 0.0077270335 -1.2432406 0.2536481 -0.029248634 0.1284951 -0.079414144 -0.5486451 -0.695817 0.9789164 -0.23797199 -0.8920541 0.6116997 -0.20382553 0.9468579 -1.4688787 -0.3355759 1.0086986 1.3664584 0.31204408 0.29638618 0.09364373 -0.094912946 0.48976016 0.12191041 -0.13798788 -0.78783405 -0.18908998 -0.19117284 0.30139378 0.18120362 -0.08062194 -0.17526019 0.20049639 -0.000950275 -0.12376757 0.093000464 0.4603677 0.430103 0.27635595 -0.036950912 0.93243563 0.5659105 -0.090818815 0.11783817 0.295851 -0.13705292
윤영삼 0.406725 0.533066 1.0552347 0.7863785 -0.059820347 -0.099944375 0.85140586 1.5904715 -0.8848815 -0.6654028 -0.02114387 -0.57932067 -0.38114545 -0.6937821 -0.07981804 -0.0009634197 0.7092544 0.38426772 -0.80429405 -1.3051982 -0.16143565 0.35674897 1.0312424 0.057318885 -0.50579286 0.49004573 -0.37712124 0.022455923 0.002787439 -0.59857136 -0.29588464 -0.35634544 1.3350654 -0.635723 -1.0750682 0.35556456 0.89557093 -0.59857154 -0.2070037 -0.80122995 0.24808882 0.33289984 -1.0437617 0.3379907 0.29514107 -0.3345617 -0.5912565 -0.03440249 -0.18875399 0.26668563 -0.54465085 0.038444817 -0.31905252 0.06136024 -0.008345469 -1.20786 0.25654563 -0.030546915 0.17541479 -0.014931354 -0.5268374 -0.6399813 0.9679176 -0.195909 -0.860326 0.5845272 -0.19493563 0.91597396 -1.3942206 -0.32311255 1.0080982 1.3265657 0.2923495 0.23871002 0.119097486 -0.076039925 0.53042674 0.108833686 -0.118553676 -0.7685392 -0.22343609 -0.12512842 0.27561134 0.24196252 -0.089696884 -0.1837147 0.19375871 0.016762901 -0.09775414 0.099921435 0.46976975 0.4232517 0.28365365 -0.0056343665 0.9148732 0.4808437 -0.06807844 0.15392119 0.28286582 -0.08276658
찬 0.39297324 0.68796647 1.0544728 0.68486416 -0.11012325 -0.17233223 0.66857517 1.5288608 -0.8030339 -0.67240125 -0.009512306 -0.55714035 -0.46009365 -0.8372825 0.0091899345 -0.015751293 0.80333704 0.42604288 -0.80760413 -1.2558357 -0.18883334 0.23223005 0.9073033 0.11060756 -0.67814356 0.56887853 -0.46263564 0.050334577 0.19457166 -0.5144204 -0.5382193 -0.37587145 1.3748937 -0.47635072 -1.0972615 0.19095215 0.8855466 -0.62366855 -0.20859231 -0.6619789 0.20485151 0.36602622 -0.92983717 0.54473126 0.20807932 -0.35468075 -0.43516314 -0.13914685 -0.31227854 0.3051418 -0.5428136 0.088201 -0.35457015 -0.04064188 -0.026678381 -1.2110724 0.3475436 0.16192561 0.3028302 0.17294133 -0.6787972 -0.635677 0.9080153 -0.17536072 -0.8448625 0.4903918 0.055934034 0.86803573 -1.320736 -0.33467087 0.9096276 1.1606237 0.14537214 0.23088905 0.15629108 0.14343585 0.5082409 0.17476398 -0.25577536 -0.7643875 -0.20801254 0.099050425 0.46920878 0.3294201 -0.07464387 0.09016061 0.1586844 0.012515947 -0.0038730658 0.06846587 0.5271441 0.36669344 0.30473948 -0.102518424 0.74906933 0.4504975 0.055337008 0.20791115 0.3083457 0.08545893
송재정 0.36754435 0.77242965 1.0673856 0.7472581 -0.08776365 -0.24976271 0.6751781 1.6377155 -0.8133703 -0.76695794 0.031145768 -0.59915286 -0.5087211 -0.88873965 0.08367388 -0.06537546 0.82978547 0.39271212 -0.856856 -1.3608184 -0.1548561 0.2830661 0.9148609 0.068606175 -0.71497095 0.5217296 -0.5848321 0.17301074 0.17445353 -0.50628304 -0.63547254 -0.4286533 1.4361162 -0.49043903 -1.1059695 0.17116773 0.9213073 -0.60041916 -0.2776627 -0.5894668 0.14186573 0.3894707 -0.90471405 0.6212457 0.19148925 -0.37746543 -0.42554826 -0.1552933 -0.30188286 0.4000272 -0.50522023 0.08148845 -0.33842418 -0.08229766 -0.060588073 -1.2395989 0.42992687 0.2089294 0.3798264 0.26456156 -0.7180377 -0.623782 0.94512457 -0.16123389 -0.8598057 0.54193723 0.1108126 0.9904912 -1.3869983 -0.29130933 0.9013576 1.193655 0.20617677 0.20354149 0.2144216 0.14103569 0.5676464 0.20275277 -0.30029932 -0.82019114 -0.32442665 0.21689938 0.44921833 0.4092675 -0.070468195 0.09830892 0.17500663 -0.052378032 0.056808803 0.10834304 0.58265156 0.3521421 0.33575606 -0.08280052 0.83035016 0.42435744 0.08763269 0.26742527 0.28953508 0.14877935
이홍렬 0.2839185 0.723539 0.98318046 0.6272988 -0.08494251 -0.23371007 0.5694453 1.5018219 -0.69380933 -0.73102903 0.038503908 -0.57967323 -0.4974173 -0.84571534 0.08185109 -0.08560341 0.8086076 0.3608575 -0.76679325 -1.263774 -0.14687319 0.25591418 0.82692534 0.11935442 -0.64583206 0.52344453 -0.57687926 0.19541632 0.17138883 -0.4093432 -0.64456445 -0.3773716 1.3135854 -0.4108829 -1.0175697 0.09776169 0.81820446 -0.56435317 -0.23421112 -0.46489212 0.13123097 0.36632997 -0.8056753 0.6015171 0.12794638 -0.3780848 -0.359278 -0.16744459 -0.29609767 0.40433732 -0.43726802 0.07071647 -0.3265386 -0.12123125 -0.062262505 -1.1428893 0.4112316 0.20833176 0.4149291 0.30759788 -0.7175074 -0.5904157 0.9301644 -0.11830722 -0.7863087 0.47212172 0.1442837 0.91329604 -1.2722292 -0.295529 0.85875314 1.0945376 0.16946207 0.15618418 0.20176645 0.16804297 0.56030875 0.16849317 -0.31167278 -0.73875076 -0.3292236 0.21922834 0.46316153 0.4422246 -0.097663194 0.11915676 0.20910859 -0.06038439 0.05355491 0.11987313 0.5314715 0.34254014 0.36821496 -0.118768565 0.7638165 0.39534274 0.15956472 0.26898918 0.32032973 0.20329024
권오중 0.27129322 0.74343675 0.8874342 0.58394843 -0.07562538 -0.2689412 0.5133242 1.3881586 -0.63851196 -0.6748691 0.017966188 -0.5040437 -0.46648866 -0.8401442 0.13599849 -0.046855114 0.7933259 0.34487936 -0.6941374 -1.1501873 -0.11616548 0.2600546 0.76110685 0.07981732 -0.58432496 0.48046798 -0.56703764 0.17358561 0.17735977 -0.4058782 -0.6005678 -0.3356994 1.2756717 -0.4098123 -0.9226856 0.085946426 0.75093085 -0.4939527 -0.2037156 -0.44241717 0.07854296 0.3475039 -0.7287718 0.55959445 0.107247606 -0.35821116 -0.3480072 -0.15507005 -0.25721583 0.3534765 -0.40390944 0.111309156 -0.34032893 -0.081746385 -0.023559248 -1.0428575 0.43997538 0.23781885 0.38992944 0.3276295 -0.6681592 -0.524884 0.8005489 -0.08186845 -0.69682634 0.44254237 0.14916436 0.832422 -1.156016 -0.2437039 0.78585863 0.9464416 0.14453802 0.16502471 0.23042807 0.16188419 0.5090792 0.17585334 -0.2842901 -0.69833916 -0.30999857 0.26438102 0.45095652 0.43583235 -0.05506647 0.15223534 0.19207591 -0.011821017 0.07858014 0.07979924 0.5550196 0.31210262 0.3367028 -0.08561513 0.65895766 0.3381133 0.1640128 0.26088637 0.21660526 0.17958698
노주현 0.28015432 0.6784097 0.82313126 0.5175214 -0.07333727 -0.24807192 0.47454283 1.2703257 -0.5613751 -0.64411986 0.0777153 -0.48908663 -0.43046442 -0.77588123 0.09781683 -0.045185946 0.7204799 0.27891284 -0.64771867 -1.0651543 -0.093297414 0.21011844 0.6466779 0.07700494 -0.6011373 0.43427414 -0.50792354 0.17603938 0.20828627 -0.35742214 -0.6034826 -0.32021248 1.1156611 -0.33913502 -0.84902287 0.04064747 0.73021877 -0.4429758 -0.2157081 -0.33593667 0.10435783 0.3092407 -0.62723285 0.55665296 0.112992674 -0.30508637 -0.29237664 -0.15021893 -0.24967384 0.36487663 -0.35013744 0.104675174 -0.27770707 -0.13445802 -0.044324636 -0.9777658 0.4077949 0.24346967 0.37818044 0.3049645 -0.64749736 -0.49520883 0.7519253 -0.09134204 -0.6470816 0.4065736 0.15251242 0.74087 -1.0507116 -0.25067592 0.66329485 0.85399437 0.13665995 0.12117044 0.18235369 0.16343682 0.49705562 0.15976708 -0.27387205 -0.59170616 -0.30050808 0.25921446 0.42597094 0.37810633 -0.05694892 0.14785466 0.15305318 -0.030705372 0.08331206 0.09513234 0.47826734 0.28214246 0.32763726 -0.06940292 0.6256081 0.28268805 0.16165495 0.26320064 0.2295189 0.21104826
박정수 0.19842392 0.59675044 0.7283249 0.474317 -0.06131116 -0.23861338 0.38913915 1.1386762 -0.5038143 -0.53904444 0.028827643 -0.4367327 -0.36316475 -0.648228 0.09508598 -0.076783195 0.61457926 0.27307585 -0.53552175 -0.9140203 -0.11637721 0.21533018 0.59111947 0.04268915 -0.4847226 0.36605552 -0.46790892 0.20999934 0.13783193 -0.33342558 -0.51673126 -0.29550225 0.998295 -0.27889484 -0.7493342 0.086969376 0.62963057 -0.41670898 -0.20908937 -0.30744645 0.060718004 0.28981715 -0.5963049 0.46702516 0.07268215 -0.2654078 -0.2755257 -0.14602436 -0.23233473 0.2827166 -0.32748267 0.07203554 -0.23587535 -0.056131158 -0.025014013 -0.8295577 0.3618643 0.20544039 0.36562738 0.2844512 -0.55480456 -0.4480739 0.64299613 -0.084932715 -0.55590165 0.35118777 0.106374756 0.68692374 -0.9278544 -0.18220164 0.61948407 0.7846538 0.15216725 0.1175945 0.1888602 0.15222101 0.41610858 0.12084104 -0.24932347 -0.57451236 -0.29231626 0.24215509 0.3416574 0.36614957 -0.06320409 0.12711948 0.138481 -0.05769995 0.09178005 0.1027697 0.42364365 0.24276137 0.23503874 -0.090254225 0.5337925 0.27906707 0.15163441 0.2425368 0.2132592 0.14665835
신구 0.4662445 0.38067922 1.0455801 0.7679843 -0.012781098 0.05246361 0.9167907 1.4507765 -0.91165376 -0.4967521 -0.13279063 -0.5136885 -0.27707136 -0.55830216 -0.18008348 0.049643416 0.5410891 0.42984822 -0.79789484 -1.1714355 -0.16923466 0.31933016 0.9556639 0.07176508 -0.46586254 0.4943115 -0.1526594 -0.18288378 -0.035132382 -0.6575499 -0.13342796 -0.33760217 1.2279896 -0.6980681 -1.0372555 0.44212303 0.86408204 -0.6034797 -0.12183495 -0.9586263 0.31454688 0.24878794 -1.0872232 0.2035385 0.36242294 -0.26321575 -0.6153637 -0.0037602861 -0.16371544 0.11333408 -0.55907154 0.0039135264 -0.2929481 0.1374613 0.053208772 -1.1007195 0.13355543 -0.10661903 -0.025735259 -0.16394812 -0.42348066 -0.6070023 0.81699234 -0.24997678 -0.7956855 0.5538677 -0.24515785 0.81028223 -1.3098809 -0.28109956 0.981632 1.2688128 0.2707417 0.26821315 0.069241434 -0.17059952 0.42724118 0.11144941 -0.018936351 -0.71625143 -0.09633057 -0.29803187 0.19019726 0.053632148 -0.09977551 -0.19868512 0.13430153 0.039086163 -0.16463012 0.007868315 0.3841111 0.4234527 0.24385718 0.022450529 0.8075751 0.5438439 -0.21038073 0.037161242 0.22353089 -0.17192963
예 0.8201817 0.6812023 0.68397766 0.71045184 0.39254847 0.5114148 0.95564187 0.4041034 -0.7874347 0.89240605 -0.32670215 -0.29082167 0.75972915 -1.20064 0.17004552 -0.7262954 0.11821053 -0.3951745 -1.0343978 -0.88001615 0.057991557 -0.3542795 -1.6192175 0.4242327 -0.8136294 0.46136373 0.48471957 -0.6748823 0.7023192 -0.40798843 -0.54152465 0.23821737 0.7894815 0.14968856 -0.8086554 0.13961522 0.49488375 -0.7387498 0.9960065 -0.48546728 0.5218526 -0.9350672 0.15055065 0.78553724 -0.22240682 -0.23349115 0.24109656 -0.22300938 -0.116048746 -0.19736715 0.27709457 0.35091484 0.34114257 0.12955278 0.60073733 -0.41107965 0.7444608 0.68270564 -0.6201105 0.60558337 -0.5931776 -0.22314747 -0.4125217 -1.1356206 -0.04992647 -0.22636294 0.7626811 0.24633294 -0.40417048 -0.40077502 0.21321526 -0.42965922 -0.27226043 0.003025527 0.25526774 0.3697618 0.218061 0.98528695 0.07090015 0.5765255 -0.074872516 -0.081294835 0.039312717 0.13426916 -0.35794193 1.1227463 -0.5260399 -0.06525478 0.69179547 0.19453484 -0.41782454 1.0524156 0.739118 0.2760044 0.35485786 0.4863924 -0.37658352 -0.7953637 0.22298157 0.33224636
윤용현 0.640077 0.12536135 0.39575705 -0.10703904 0.63039005 0.058348488 0.13528003 0.8610777 -0.06878522 0.00024838815 -0.5673216 -0.6237407 0.17784987 0.2389378 0.16273706 -0.32323453 0.112850405 0.31779796 0.5652638 1.1050464 0.09261676 0.2198184 0.3715295 -0.32100844 0.4873546 0.4457595 -0.15979306 -0.34336907 0.45790255 -0.89917153 0.009635069 -0.1891603 1.1293417 -0.30547044 -0.5216758 0.71636456 0.6988263 -0.048270486 0.66856086 -1.1567281 -0.435727 0.6905065 -0.34030202 -0.5164456 -0.82273686 0.29269764 -0.077251785 -0.3461161 -0.77979344 -0.78733444 -0.16936216 0.3233984 -0.059357986 0.47066733 0.8794085 -0.045299802 -0.22782639 0.70201665 -0.12607725 0.28429598 -0.6275471 -0.5151329 -0.48879352 -0.24302453 -0.20452806 0.044454213 0.8869728 -0.01535788 -0.21967833 0.78419155 1.4288633 -0.044232823 0.28309244 0.3866761 0.12343706 -0.122527264 -0.48246604 0.32738182 -0.03725737 -0.3757492 -0.28668758 0.36985692 -0.14186247 -0.5701614 0.18215717 1.0700066 0.348756 0.107788175 -0.05338994 -0.93394285 0.4907894 -0.10993204 -0.48761272 -0.45958337 -0.26774842 0.2914837 -1.1457684 0.54334617 -0.50241226 -0.609505
양세형 0.9570575 0.61765665 0.948621 0.6940929 0.5205573 0.4577838 1.0421746 0.53437513 -0.69270825 0.7807539 -0.3357796 -0.32570463 0.73361063 -1.2987361 0.2887709 -0.3907034 0.09959564 -0.3170259 -1.0273902 -1.0228459 -0.18030947 -0.19394562 -1.542295 0.45461532 -0.85551316 0.73447305 0.43130463 -0.71745074 0.70090264 -0.52795905 -0.6924697 0.19680619 0.85101074 0.12303186 -0.87798935 0.2985171 0.6493225 -0.7567898 0.9715912 -0.53678167 0.52588093 -0.83177465 -0.13273358 0.7726175 -0.22650377 -0.27936602 0.0848647 -0.17649205 -0.11854537 -0.21076496 0.15447408 0.28147528 0.41439337 0.20019695 0.5236912 -0.43238986 0.71683973 0.705443 -0.47563002 0.6896804 -0.8587842 -0.3043868 -0.25822714 -0.9921764 0.047496248 -0.11173985 0.72494954 0.3052643 -0.4239646 -0.36781642 0.207172 -0.24438646 -0.33652374 -0.09664071 0.18143894 0.29076096 0.3124132 1.0398897 0.22677194 0.22915542 -0.17003095 -0.17132205 0.028390942 0.09035926 -0.33195826 1.1152353 -0.3421494 0.003995994 0.6808549 0.041873246 -0.3841324 1.1809366 0.6142674 0.37112665 0.4003089 0.36210772 -0.3205684 -0.7071587 0.1948826 0.42622492
백종원 0.88032484 0.5746293 0.85987204 0.6060415 0.4916115 0.39081192 0.9303319 0.5337992 -0.5935712 0.68689126 -0.29896164 -0.3071719 0.6254514 -1.119761 0.24613462 -0.34941146 0.076258615 -0.23715706 -0.8780597 -0.8378304 -0.17581163 -0.15302072 -1.3433514 0.37408543 -0.718532 0.61287 0.36747667 -0.61348367 0.59845096 -0.5577148 -0.5750492 0.1787559 0.7582778 0.053116783 -0.78232664 0.25796682 0.6473176 -0.6527645 0.8497831 -0.5010891 0.4361332 -0.6839269 -0.18663092 0.6276275 -0.22556691 -0.28869474 0.04831646 -0.14136311 -0.106336616 -0.18917798 0.16930632 0.27588537 0.36814603 0.19366887 0.49205428 -0.40751696 0.6670901 0.67039526 -0.45188412 0.5998181 -0.79350895 -0.28084305 -0.20561306 -0.8775379 0.016353242 -0.08573324 0.61424536 0.24303298 -0.38996142 -0.3063799 0.25592703 -0.19066435 -0.310734 -0.056062944 0.19999968 0.2226411 0.24572034 0.89520186 0.19947825 0.18727888 -0.18268406 -0.12031934 0.015117523 0.05953157 -0.3142502 0.99550277 -0.25530076 0.03517663 0.5896976 0.09021637 -0.29509738 1.0458455 0.5356375 0.29938543 0.39556867 0.34857547 -0.30079415 -0.587689 0.095804416 0.28731564
안효섭 0.68639165 0.39111963 0.74546903 0.8206796 -0.71494687 -0.024848584 0.73557645 0.6082875 -0.4799974 0.1963259 -0.066148244 0.09483195 -0.5074445 0.075725056 -0.025344286 -0.8262134 0.056189075 -0.19602941 -0.44221544 2.0217817 0.26814476 -0.9661113 -0.59748894 0.5073462 -0.46300596 -0.49339187 0.016763669 -0.3372634 1.342706 -0.5775066 0.1273893 -0.0016391766 0.76925397 -0.5871794 -0.6987814 -0.9759619 0.104396865 -1.1483115 0.2042489 -0.94126534 0.24430889 0.7059633 0.17751634 0.3796685 -0.44048548 -0.22540197 0.0014386472 0.054202586 -0.029057223 -0.12558854 -0.18952772 0.07011692 0.32707104 -1.0302017 0.6604531 -1.1866899 0.23266232 0.8006644 -0.29932836 0.34751013 -0.28318867 -0.568264 -0.3539664 -0.7864685 -0.37146643 -0.37218985 0.42049187 -0.12483215 -0.5674852 -0.6527698 -0.089460626 0.15006767 0.030817803 -0.84318393 0.5916448 -0.10122524 0.3660573 0.10247239 -0.31257766 0.29529086 0.108808935 1.1218288 0.02001271 -0.62102437 -0.6573522 -0.054684836 -0.3631642 -0.30441776 -0.9149356 0.7413416 0.7028962 -0.6991374 -0.4649765 -0.91958165 -0.40530407 0.23726955 -0.77152693 0.64215446 0.32714024 -0.3645262
김수로 1.085013 0.6678313 0.85763973 0.3897036 -0.6504371 -0.07039657 0.8359894 0.4353905 -0.28918916 -0.11972632 -0.46973106 0.17249751 -0.06309945 -0.26553762 -0.31007454 0.53488046 0.29697242 0.8708455 -0.6883721 0.059164327 -0.1754151 0.21894969 -0.94023997 0.053168662 -1.0250715 0.32955068 -0.07466183 -0.35637707 0.27307722 -0.7722993 0.34077135 0.292366 0.13275042 -1.2397431 -0.5278012 -0.30965096 1.223188 -0.34318948 -0.14583245 -0.30330518 -0.047833707 0.37011743 -0.37936115 -0.99741125 0.29969665 -0.70165277 -0.053481188 0.07287765 0.30858907 -0.1674009 0.12984161 0.5912835 -0.85083675 -0.12715329 1.1272246 -0.33306792 0.45688784 1.1275685 0.081548154 0.049834434 -1.0544068 -0.62356013 -0.45323917 -0.4047162 -0.075310044 0.28317416 0.12790126 -0.777247 -1.1173899 0.105859764 0.062214408 -0.09260089 -0.22413298 -0.51240516 0.16016029 -0.1515303 -0.40750444 0.1893816 -0.057188787 0.18980816 -0.20181762 0.31143734 0.35104504 0.18997104 0.19682348 0.18271437 -0.3413774 0.7644718 0.6299315 0.6266348 0.05336286 -0.01895533 0.542928 -0.4497499 -0.16241768 -0.03138873 0.34274188 0.80402654 -0.506814 -0.21495238
유재석 1.2060153 0.74347466 1.0003214 0.4442682 -0.70835084 -0.029647546 0.9276003 0.57071733 -0.3646143 -0.11916842 -0.54789144 0.18308648 -0.13168006 -0.36262208 -0.33824772 0.5510906 0.3697308 0.92739934 -0.83428174 0.0022128285 -0.19864304 0.18781331 -0.9721333 0.046191927 -1.211208 0.38615695 -0.076048076 -0.47022834 0.3591955 -0.87225306 0.30196184 0.2740591 0.27427605 -1.3337146 -0.70667815 -0.34370673 1.3552951 -0.414609 -0.10942314 -0.41290694 0.024191251 0.4266557 -0.4183361 -1.0139934 0.34346387 -0.7804191 -0.07931527 0.06801819 0.28259435 -0.14475137 0.06313619 0.6627356 -0.88973933 -0.13769577 1.1608692 -0.46248084 0.554009 1.2647338 0.09599764 0.07689379 -1.1235206 -0.6807156 -0.48828086 -0.47126585 -0.157205 0.277361 0.2465663 -0.7833252 -1.2545627 0.09702072 0.13263507 -0.07647235 -0.2961467 -0.53267384 0.23346268 -0.1875982 -0.4128106 0.26581785 -0.0951296 0.14174977 -0.15602677 0.35121778 0.38758326 0.21261007 0.20500527 0.25559315 -0.40567023 0.84701884 0.6174788 0.6675254 0.10071282 -0.020089138 0.6202209 -0.52660674 -0.18668632 0.07964381 0.34516594 0.850374 -0.5153898 -0.2047535
이효리 1.2209696 0.7768134 1.033408 0.4730873 -0.7645615 -0.063523084 0.9894538 0.5904977 -0.3978354 -0.16822822 -0.5176554 0.1801082 -0.11507948 -0.37343603 -0.3715896 0.59152544 0.3805962 0.9949177 -0.8954609 -0.060515422 -0.22383817 0.21622722 -1.0049232 0.095380105 -1.2422348 0.39293677 -0.07429963 -0.45435208 0.3309023 -0.87692666 0.33244982 0.29374585 0.27038074 -1.3648738 -0.6726921 -0.34784347 1.4143529 -0.43071175 -0.13130073 -0.37758607 -0.0036497964 0.3930429 -0.43387818 -1.0426719 0.38473833 -0.8055482 -0.05847019 0.077898666 0.33275846 -0.14656578 0.08958917 0.6750977 -0.9409132 -0.15476629 1.2001514 -0.44729117 0.54434854 1.2641819 0.13060789 0.08703593 -1.1447423 -0.7069388 -0.45387387 -0.47255865 -0.15146276 0.31332654 0.19615231 -0.79747796 -1.303111 0.09015439 0.11485058 -0.06258117 -0.26084 -0.55408067 0.20097773 -0.13659394 -0.3977592 0.26480716 -0.08137295 0.17392766 -0.1746869 0.34328684 0.40283036 0.2465362 0.21166009 0.2212033 -0.40653232 0.8520748 0.68006337 0.7172092 0.0695753 -0.017845731 0.65896374 -0.51040584 -0.14017633 0.0034632194 0.41889212 0.858996 -0.5050392 -0.21608585
윤종신 1.2126169 0.74082035 0.9879559 0.42775834 -0.65229386 -0.04869724 0.9128087 0.57656807 -0.34554118 -0.10312415 -0.56475204 0.19760624 -0.10523997 -0.36936334 -0.35841307 0.5345769 0.36566272 0.9515373 -0.787824 0.053090304 -0.22392735 0.2156411 -0.96246755 0.018871676 -1.1262183 0.36443418 -0.08371641 -0.4416261 0.33339083 -0.8772734 0.32067487 0.2913412 0.27633873 -1.338941 -0.6845124 -0.29188243 1.3293692 -0.4515735 -0.090181194 -0.4743234 -0.023429407 0.43499863 -0.44482926 -1.029029 0.2970033 -0.7512335 -0.07081895 0.049615525 0.26180282 -0.20059901 0.07535284 0.6577712 -0.9036646 -0.119909994 1.2146958 -0.46732214 0.5050949 1.2530348 0.054136172 0.07585207 -1.126045 -0.7020655 -0.47919276 -0.47291827 -0.13702123 0.30305898 0.22280945 -0.8091701 -1.2892001 0.0944285 0.15157813 -0.08106747 -0.25929058 -0.5187535 0.21418795 -0.20451374 -0.43579262 0.2537128 -0.09455014 0.13557953 -0.1687459 0.3901768 0.35908675 0.19880123 0.19000746 0.2708757 -0.3500159 0.84273994 0.6097524 0.63053524 0.115811564 -0.015845364 0.59632987 -0.5035928 -0.18617456 0.028755156 0.2592061 0.8756658 -0.5507633 -0.26539165
변우민 0.86474663 0.3731657 0.2357143 1.3182863 -0.02165153 0.5711436 1.1996601 0.96797085 -0.8304809 0.7051186 -0.8441341 0.045031365 0.80614966 -0.55693716 -0.82158613 -0.3321407 0.3870768 0.34609568 -0.6073011 -0.07502462 0.5310772 0.31750992 -0.08785405 -0.39043435 -0.42766753 -0.39475375 0.47091812 -0.3091317 0.44744894 -0.71260226 -0.6393013 -0.29977447 1.8361001 -0.11483948 -0.84004897 0.6480741 -0.026307292 -0.70330715 0.98484874 -0.88402367 0.21474613 -0.17884366 -0.24732126 -0.084851235 0.14147326 0.59532547 -0.11275771 -0.3999769 -0.34830377 -0.7125556 -0.048655793 0.17815126 -0.65923184 0.556126 0.75561184 0.06071997 0.2744347 -0.11724108 -0.089136295 -0.31776044 0.077458486 -0.3374498 -1.0821238 -0.644702 -0.78175783 0.025148107 0.73424256 -0.1183602 -0.97462094 0.3213171 0.418938 -1.001936 0.34441537 0.5089352 -0.24975373 -0.46617168 0.29583034 -0.25749472 -0.5676536 0.76830465 0.4210757 1.2758675 0.25633168 0.38483486 -0.19411802 0.22000158 -0.91826147 -0.083342634 -0.060700495 -0.2308046 0.1086441 -0.44262153 0.5834417 0.24393395 -0.23169631 0.13484755 0.01947686 -0.047617737 0.095764026 0.06865896
대성 1.2021668 0.7408216 0.97655296 0.464854 -0.62756085 -0.03301091 0.95104665 0.56297797 -0.3416812 -0.09399432 -0.526921 0.13187495 -0.11307865 -0.35539457 -0.3424555 0.5048496 0.3568871 0.9084264 -0.7957267 0.07878991 -0.21704374 0.22391167 -0.9390867 0.054969914 -1.1398753 0.36019534 -0.07990189 -0.44505662 0.32576907 -0.89283997 0.3124315 0.26119387 0.30115512 -1.3189334 -0.7194167 -0.32843307 1.3052633 -0.4151579 -0.07028299 -0.46797186 -0.024002666 0.43903515 -0.47626308 -0.9973266 0.2989015 -0.71912247 -0.091309 0.06076301 0.26229203 -0.16994065 0.05997244 0.6308503 -0.8696025 -0.14680582 1.2024305 -0.47121584 0.5419607 1.2421739 0.0648175 0.09357423 -1.1488527 -0.70423084 -0.4802742 -0.499025 -0.17284057 0.271561 0.19043273 -0.7532205 -1.2588848 0.082685985 0.17223789 -0.046558872 -0.24167566 -0.517141 0.20843309 -0.21422887 -0.42991138 0.23210964 -0.10132637 0.095229916 -0.18354036 0.35649878 0.39058232 0.1897613 0.21696828 0.24566615 -0.37384054 0.80243015 0.6337679 0.61099404 0.12284287 -0.0031855926 0.59241694 -0.5104945 -0.16989735 0.08451111 0.2890613 0.8564163 -0.5407492 -0.25773078
석 0.34718627 0.43069398 0.37738648 0.86974764 -0.8783613 0.6221713 0.4406909 -0.06883817 -0.46635696 0.35535383 -0.025477406 0.47869575 -0.3550496 0.15383892 -0.154712 -0.48372528 0.45878232 -0.022985853 -0.4238738 1.1163803 -0.07441129 -0.9463421 -0.50919974 0.54801315 -0.20502122 -0.4655991 0.026392704 -0.5605086 0.9808319 -0.09160245 0.24332003 -0.245228 0.5950515 -0.18688513 -0.94862705 -1.0733826 -0.24635492 -0.9837439 0.04343282 -0.56358737 0.36646894 0.521026 0.28458223 0.5375137 -0.28365946 -0.09851508 0.1566729 -0.24157299 -0.08641414 0.08774758 -0.36447042 -0.009718632 -0.29292348 -0.5845962 0.4411444 -1.2250789 0.14080268 0.39778244 -0.50439763 0.33867896 -0.17804867 -0.25093397 -0.18992476 -0.92054063 -0.37972957 -0.8736028 0.013017324 -0.326766 -0.107148565 -0.6811645 -0.021732064 0.14905436 -0.09420009 -0.2727702 0.5257417 0.033630695 -0.19109766 0.10132111 -0.40894827 0.028629255 0.46017516 0.40661168 0.24072939 -0.0010538684 -0.57259744 0.41303286 -0.36876082 -0.12131476 -0.67246085 0.30543712 -0.096730396 0.038947374 -0.31492648 -0.5549989 -0.57752216 0.5132302 -1.0383873 -0.27734554 0.688597 -0.09007702
빈 0.88007545 0.62188596 0.82334477 0.6606999 0.4567145 0.500153 0.9277785 0.46708533 -0.74033684 0.84197116 -0.3195577 -0.29990354 0.7089296 -1.1969924 0.25007072 -0.5522544 0.088645436 -0.34950596 -1.0307043 -0.8687638 -0.09951632 -0.2889334 -1.586631 0.48530853 -0.80522007 0.601624 0.45233157 -0.70711726 0.7293712 -0.5026567 -0.59131205 0.23933725 0.8046056 0.10878704 -0.8453714 0.14367355 0.6160944 -0.77553874 0.98335725 -0.48857117 0.49400768 -0.8252468 -0.0002503681 0.7597157 -0.26036885 -0.2554276 0.17084813 -0.16369444 -0.13017815 -0.20982578 0.21053663 0.31501997 0.3283637 0.1547646 0.5788618 -0.48474488 0.74113584 0.7502379 -0.538316 0.6698641 -0.72717637 -0.25481784 -0.3276003 -1.0393587 -0.01098222 -0.22012709 0.74150664 0.23012184 -0.44061828 -0.3534129 0.24133512 -0.28643414 -0.35963532 -0.0790736 0.23808819 0.27841187 0.19918169 1.0259676 0.13090879 0.39928728 -0.12372563 -0.13822864 0.022124976 0.09568667 -0.3890536 1.1431148 -0.45093578 0.013960614 0.6757871 0.14542483 -0.4029968 1.1071162 0.6603405 0.30927828 0.35282463 0.48871422 -0.39800587 -0.7331159 0.13657504 0.36393812
최 0.90970045 0.6724424 0.87858003 0.67179805 0.42382985 0.5396664 0.9420874 0.5175076 -0.69149274 0.8508167 -0.32806453 -0.27953503 0.65963304 -1.2024643 0.22514826 -0.52184874 0.09516848 -0.29925746 -0.95872027 -0.75666547 -0.116992824 -0.3659455 -1.5540113 0.4782676 -0.8180389 0.6220756 0.44386035 -0.76899135 0.76833165 -0.52421194 -0.5731722 0.207528 0.8461222 0.09855711 -0.9219943 0.098386556 0.6295813 -0.78390807 0.9838544 -0.54640126 0.5004427 -0.7662368 -0.031991974 0.73332185 -0.3028522 -0.27096593 0.22938693 -0.19157651 -0.182137 -0.2109028 0.13999827 0.33235916 0.3184925 0.16452718 0.60178214 -0.5461679 0.7181251 0.73141366 -0.5915313 0.707816 -0.7362118 -0.2581465 -0.3184608 -1.0526363 -0.015784355 -0.28933477 0.75736195 0.21464801 -0.3920153 -0.3983778 0.274448 -0.28399527 -0.39208227 -0.08224487 0.28665462 0.2917992 0.10480332 1.0397985 0.13115291 0.30968198 -0.068522654 -0.13535458 0.06647064 0.0694515 -0.4009211 1.153588 -0.40456393 0.033269078 0.6339174 0.08794739 -0.39535537 1.0834677 0.60263807 0.22340739 0.3267387 0.5129162 -0.49834862 -0.7216362 0.15354507 0.33239228
김영철 0.21173571 -0.0032937338 0.069954686 -0.17615642 0.78867966 -0.042146154 -0.038679756 0.47792462 0.11113937 0.16952142 -0.74195164 -0.3834266 -0.13263953 -0.23166688 0.2451722 -0.74991965 0.08892277 0.089265145 0.6697042 1.1780523 -0.023217779 0.26935795 0.31115514 -0.43785405 0.5402422 0.045166112 -0.27747825 -0.1710325 0.19326116 -0.89333755 -0.0280004 0.015005437 1.2172513 -0.46138534 -0.80086535 0.5188985 0.27334833 -0.35125735 0.445823 -1.2355057 -0.43566856 0.8589706 -0.35771438 -0.37719277 -0.6008412 0.18501683 -0.03948489 -0.30014968 -0.5319862 -0.6365212 -0.09118775 0.4846325 0.03394308 0.3975063 0.99492246 -0.49779025 0.16243489 0.97445816 -0.33655122 0.11169017 -0.6270427 -0.49233508 -0.6020888 -0.369583 -0.4156244 0.06006091 0.28858528 -0.047224853 -0.81041014 0.7728585 1.321927 0.08642392 0.43495342 0.5177352 0.4796672 -0.6504163 -0.49216405 0.29852042 -0.20792538 -0.62110794 -0.25831756 0.5345195 -0.29603824 -0.5100029 0.27028736 1.0735053 0.28423977 0.24213944 -0.009837945 -0.6763103 1.0621918 -0.06217935 -0.5231394 -0.32658723 -0.3124795 0.7071855 -1.5165504 0.56216353 -0.7572586 -1.1530076
곽동연 0.64732903 0.36672395 0.85455614 0.45170817 0.43535036 0.42690003 0.67141074 0.5893546 -0.37516204 0.5254618 -0.18880719 -0.17501073 0.4125221 -0.9797966 0.10676137 0.049038 0.011191031 -0.16601475 -0.6540434 -0.6280805 -0.3391699 -0.030644055 -0.8766524 0.1317363 -0.60953176 0.7171691 0.2958832 -0.4951801 0.60616213 -0.4273429 -0.6658246 0.14585099 0.63439316 0.24065414 -0.64266086 0.35724473 0.5043293 -0.57449764 0.7447623 -0.58855283 0.49027172 -0.57041687 -0.2739855 0.30355945 -0.13727339 -0.2297061 -0.034749415 -0.15693712 -0.3273874 -0.28203332 0.016971704 0.20709594 0.3813725 0.23576885 0.22177055 -0.32917297 0.4496166 0.37169102 -0.26442847 0.55088 -0.7278361 -0.2892756 -0.02559288 -0.5626745 0.061503373 -0.20270044 0.7045881 0.270031 -0.22516587 -0.16483533 0.1681382 -0.13134746 -0.4742749 -0.052227218 0.049497392 0.18443808 0.16346718 0.63675624 0.19898018 -0.048399817 0.0685916 -0.08750213 0.10164045 0.05424789 -0.19131711 0.75340044 -0.138301 0.055763993 0.37608007 -0.10567392 -0.2340159 0.7457414 0.3049625 0.13138808 0.38492882 0.22465657 -0.15395883 -0.51506436 0.28660643 0.38652483
김구라 -0.07170157 0.14698598 0.03842594 0.40228093 -0.1540048 -0.016928105 0.017329818 0.3138975 -0.71242106 -0.15845218 -0.47849602 0.1607705 -0.40361884 0.048296433 0.10027001 0.085471444 0.124057524 0.21253923 -0.5974315 -0.26840946 -0.17567231 -0.60218596 0.09724064 0.22740632 -0.23736101 -0.056893807 0.05513837 -0.47925773 0.21542986 0.06314394 -0.001035217 -0.4113574 0.617867 -0.13555452 -0.7082378 0.0027563951 -0.0899298 -0.011449749 0.37895674 -0.3488878 0.36525872 -0.043537147 -0.34021056 0.5645967 0.25021154 0.24513482 0.040490262 0.025123473 -0.5438468 0.1440103 -0.27788883 0.028974926 -0.31026185 -0.26291147 -0.051988546 -0.34951934 -0.10448402 -0.09808837 -0.37634626 0.061824054 -0.26591936 0.040748842 -0.1225517 -0.24204265 -0.14514142 -0.27145433 0.43280587 0.06488857 -0.038821507 -0.12805769 0.1401136 -0.075295284 -0.3946991 0.39148086 0.43240097 -0.19510067 -0.2772903 0.10733808 -0.08446723 -0.5648473 0.7732691 -0.027684571 0.4532533 -0.35208833 -0.06289448 0.6668682 -0.028188156 -0.3646082 0.03565805 -0.25338474 0.09568813 -0.109697334 0.22772102 -0.08698386 -0.50044227 0.6373487 -0.71867335 -0.41496947 0.48338577 0.059544288
배명진 0.73830354 0.7277824 0.076534614 0.5127086 -0.08327815 0.3012186 0.17134273 0.9892634 -0.59113073 -0.32024312 -0.15645933 -0.037092973 0.17738205 -0.26001346 -0.4740917 -0.93038327 -0.17145438 0.19755737 -0.52825165 -0.0043264804 0.37116665 -0.14359581 -0.13324453 -0.08667428 -0.4580486 -0.78506714 0.44434786 -0.82451755 0.43910778 -0.7514658 -1.0791017 -0.5521642 1.7111713 -0.3509029 -0.73124176 0.27857468 -0.15629767 -0.6926532 0.8471062 -0.65011877 0.50576055 -0.04591923 0.22314592 -0.3214205 0.21485044 0.099660784 0.03756075 -0.5208653 -0.0011036601 -0.0050975494 -0.6543571 0.4252149 -0.9440636 0.50350666 0.6016553 -0.24466068 0.5135637 -0.05699458 0.3536776 -0.6819384 0.6413413 0.006295678 -1.0004572 -0.30144987 -1.0029991 0.11752817 1.2143832 -0.08254853 -1.1683623 0.61146355 0.82356626 -0.9409355 0.19029678 0.5473134 0.090860955 -0.33983532 -0.63106596 0.19573733 -0.7172605 1.2418284 0.08912308 1.1956505 -0.05453343 0.4086727 -0.062765785 0.17149739 -0.6430679 0.3173813 0.39535823 0.3493465 0.13732551 -0.54667896 0.32995832 -0.45786053 -0.5275418 1.0434109 -0.5013387 0.014009275 -0.6830922 0.24011256
박예진 1.085001 0.65333444 0.8619093 0.40193087 -0.6908142 -0.07028681 0.8388463 0.4630697 -0.3144959 -0.1611586 -0.44386455 0.18608613 -0.09886605 -0.30000705 -0.32769075 0.51409906 0.30229837 0.8697832 -0.7478359 0.0057381853 -0.15132266 0.22537751 -0.8820857 0.02587443 -1.0668337 0.31442004 -0.0783354 -0.3472193 0.23616897 -0.74893403 0.33129364 0.27542204 0.18310347 -1.2594415 -0.53855926 -0.32197073 1.2016605 -0.3441802 -0.17563573 -0.3322716 -0.047327474 0.37115103 -0.38166392 -0.97467214 0.34415266 -0.7017081 -0.07624841 0.063859634 0.32660618 -0.1291962 0.10526012 0.6071378 -0.8774371 -0.18126296 1.1120907 -0.37620908 0.46213007 1.1214179 0.081084944 0.036679532 -1.0499892 -0.6074917 -0.42881778 -0.43814975 -0.14025666 0.32002696 0.15334845 -0.7333161 -1.1636531 0.07253201 0.07805168 -0.060428355 -0.21762425 -0.50077605 0.18057941 -0.15787327 -0.36080828 0.17377245 -0.10349236 0.17413412 -0.20592149 0.31192535 0.32456598 0.23588268 0.18369508 0.15768304 -0.3524318 0.7592694 0.6338804 0.645181 0.066916585 -0.00724293 0.5995397 -0.45349562 -0.15066552 0.004836642 0.35691208 0.82229286 -0.49645463 -0.22751664
이천희 0.8538892 0.5369124 0.6827661 0.32634163 -0.5252365 -0.030233443 0.6932637 0.39663044 -0.24935462 -0.09197255 -0.36839953 0.103985034 -0.09274395 -0.2418921 -0.25376087 0.40339825 0.25237688 0.69318914 -0.5888049 0.026066354 -0.14506346 0.14399469 -0.7055856 0.053377025 -0.8609008 0.26742 -0.051979527 -0.3232409 0.2220221 -0.6314235 0.23403688 0.20637551 0.20279664 -0.9773071 -0.49728492 -0.24537796 0.9784695 -0.27627552 -0.11644182 -0.2864316 -0.017345894 0.3291907 -0.3031973 -0.74496955 0.26244175 -0.55893594 -0.04955189 0.05217265 0.21901728 -0.09906727 0.054538496 0.48128566 -0.66420406 -0.13597329 0.86402804 -0.34938243 0.38646558 0.9015414 0.076873995 0.047471125 -0.82762927 -0.5035804 -0.35410914 -0.35690254 -0.11661346 0.20299803 0.13091554 -0.54925275 -0.9157017 0.058166325 0.107178584 -0.03281203 -0.18723969 -0.3693934 0.17639287 -0.12932675 -0.29142782 0.16232608 -0.063429125 0.09627907 -0.13536268 0.24571642 0.28124654 0.13765208 0.16109459 0.15108095 -0.28700027 0.6045398 0.4671861 0.47627386 0.064057335 -0.015461286 0.4461415 -0.36733487 -0.110608734 0.045011416 0.2586248 0.64126617 -0.37298092 -0.1814873
성동일 0.33761847 0.04835015 0.23438688 -0.082558066 0.45735362 0.0408654 0.058620278 0.41665572 -0.0035698435 0.084730804 -0.5191861 -0.3630338 -0.035562936 0.019305887 0.17170772 -0.44997823 0.039209217 0.17107727 0.46142393 0.9031244 0.07950502 0.22649564 0.28801978 -0.17259347 0.33674034 0.2721774 -0.20425029 -0.16325906 0.23621832 -0.56036097 -0.0444061 -0.079921186 0.9214459 -0.3162494 -0.4810171 0.43034548 0.35221496 -0.12092808 0.33390525 -0.7980267 -0.40105486 0.5526886 -0.18888056 -0.2703199 -0.5214972 0.17789017 0.028371915 -0.28771806 -0.40550947 -0.54080397 -0.10761418 0.28734612 0.04248446 0.25400272 0.7110476 -0.24697648 -0.093550496 0.6600662 -0.17962238 0.055320635 -0.46867836 -0.36087936 -0.4677497 -0.18865122 -0.20325345 0.032091085 0.40777016 -0.043629907 -0.42161274 0.6281767 0.91101277 0.0010004238 0.2727172 0.249534 0.20451644 -0.18171027 -0.3927478 0.34445283 -0.0650073 -0.27703807 -0.19546552 0.2602009 -0.13594967 -0.4287659 0.1945538 0.7884828 0.23427142 0.09583263 -0.020024851 -0.5861967 0.556434 -0.12716739 -0.42310476 -0.36366054 -0.24616452 0.31845164 -0.9494706 0.4091668 -0.51532525 -0.6114422
박영록 0.40719667 0.077261426 0.2852917 -0.024067195 0.63080424 0.05595349 0.092608064 0.59381413 -0.02701107 0.11162495 -0.69992185 -0.45373517 -0.080423206 -0.03939972 0.22179747 -0.6467186 0.058456797 0.23652232 0.5683659 1.1336476 0.112132534 0.2485782 0.34747946 -0.23036934 0.42518672 0.25973785 -0.2419491 -0.2081376 0.33427706 -0.77524364 -0.0514768 -0.08101871 1.2445116 -0.44083524 -0.67638564 0.5446982 0.47272915 -0.18015194 0.4702926 -1.1060048 -0.47975233 0.7577118 -0.29775682 -0.3575776 -0.6698925 0.21870919 -0.013952423 -0.34061775 -0.48198748 -0.6847704 -0.13394663 0.4015774 0.039219182 0.30463576 0.9666823 -0.39003065 -0.03557496 0.90101105 -0.24915072 0.10740794 -0.66953313 -0.48823848 -0.56585824 -0.2977272 -0.3426495 0.036845107 0.49215445 0.014400292 -0.6751993 0.8062894 1.271894 0.021481398 0.3729374 0.37965113 0.30174467 -0.34974456 -0.43731448 0.4323738 -0.08378455 -0.45800978 -0.2897237 0.36228988 -0.14486024 -0.53471094 0.24785915 0.9995974 0.30168033 0.13888472 0.013173721 -0.6960476 0.80649376 -0.1494084 -0.52375644 -0.4004293 -0.33675066 0.52583504 -1.2829658 0.49767804 -0.6688254 -0.83237565
조상구 0.39312172 0.08792704 0.17858551 -0.15066054 0.7607175 0.01101207 0.043613214 0.600166 -0.0063959844 0.16142268 -0.77256715 -0.4674393 -0.12047537 -0.12824304 0.2906743 -0.76463526 0.10900863 0.13777995 0.6893996 1.3218396 0.06062321 0.3098545 0.36896926 -0.34755915 0.49910977 0.20376882 -0.32707506 -0.23219742 0.3195342 -0.96090233 -0.057932764 -0.06919913 1.3468665 -0.4784511 -0.7927722 0.5925065 0.41063672 -0.277292 0.4863847 -1.2719598 -0.5483109 0.90067726 -0.36269578 -0.37471884 -0.73449844 0.22049676 0.0022310636 -0.36294937 -0.5750698 -0.72027385 -0.15694907 0.4778061 0.04666466 0.41571364 1.1477448 -0.510055 0.072222106 1.0012393 -0.32083163 0.07766952 -0.70839256 -0.53933555 -0.67254686 -0.3210354 -0.4002279 0.07444196 0.4433881 -0.027512202 -0.80457747 0.8751004 1.4256393 0.031552948 0.46654192 0.46740702 0.41236365 -0.5184361 -0.539527 0.42687598 -0.17482042 -0.5988966 -0.3265527 0.49834678 -0.25564647 -0.5521466 0.30394349 1.1473526 0.32535893 0.23211102 -0.029921679 -0.7676014 1.0147753 -0.12067307 -0.5685857 -0.421489 -0.34166232 0.6663125 -1.5378286 0.62201506 -0.7891828 -1.0924548
변소정 0.14241122 0.07240931 -0.020219238 -0.24193493 0.92527765 -0.09608879 0.061794166 0.5094091 0.16133493 0.29853174 -0.83717936 -0.18463238 -0.22177154 -0.59436303 0.19113961 -0.7547159 0.12901108 0.015720006 0.56305873 1.1330646 -0.25243387 0.20369075 0.07444951 -0.5968537 0.50441164 -0.20669715 -0.15280691 -0.29235628 0.15876731 -1.178777 -0.048203956 0.15143678 1.2142459 -0.531936 -1.0379862 0.40994132 0.1269175 -0.6238251 0.47740024 -1.4429147 -0.29119897 1.0183994 -0.56910074 -0.4487463 -0.53850234 0.035299126 -0.09501464 -0.21723908 -0.5946135 -0.48456562 -0.060824137 0.5834817 -0.07129824 0.48921773 1.0889925 -0.7534411 0.54297453 1.0610528 -0.44195595 0.1818961 -0.7044332 -0.5831231 -0.6173808 -0.57877713 -0.5443121 0.07365391 0.091424875 -0.13219047 -1.0741254 0.5927627 1.3402817 0.14704229 0.46034893 0.593323 0.64071536 -1.0789644 -0.4514815 0.1421474 -0.3597892 -0.8448173 -0.22335236 0.85113543 -0.40725195 -0.39446852 0.25002944 1.0597316 0.2712442 0.4410058 -0.10078532 -0.60172015 1.2551864 0.1003397 -0.39768103 -0.19442791 -0.28937846 0.9680512 -1.6665744 0.56618506 -0.79990655 -1.3968704
안승훈 -0.12607108 0.13376774 -0.20060433 -0.26809433 0.80017304 -0.12334922 0.101192154 0.331527 0.18366827 0.3001008 -0.51542294 0.07903196 -0.16290063 -0.75264025 -0.002854314 -0.41304663 0.18013966 -0.074042596 0.15287991 0.4521247 -0.533781 -0.013678391 -0.26313463 -0.6387346 0.30462268 -0.52662754 0.1204941 -0.3624254 0.014642049 -1.0541772 -0.060234156 0.27592176 0.65968573 -0.34463227 -0.9039009 0.14098415 -0.16691075 -0.7585141 0.34396687 -1.1847706 0.09003144 0.71949136 -0.5618182 -0.3433211 -0.21174496 -0.15306018 -0.09731695 -0.020446371 -0.49538 -0.056722876 0.012698893 0.47323617 -0.2013906 0.46468875 0.5595385 -0.7608063 0.8684752 0.6402489 -0.41789198 0.2748783 -0.37336436 -0.41829807 -0.27668807 -0.60706866 -0.51876 -0.01973491 -0.2051646 -0.21625005 -0.919884 0.097867146 0.8803055 0.14362283 0.20528726 0.5785967 0.59633386 -1.1713368 -0.2137653 -0.16995656 -0.45413214 -0.8279524 0.046740394 0.9109216 -0.37975395 -0.16642527 0.07919358 0.6771987 0.08203793 0.46826723 -0.16776411 -0.23226425 0.94871897 0.29471055 -0.11770676 0.11306084 -0.14003411 0.8994212 -1.2159786 0.2365261 -0.39990354 -1.1336102
차광수 -0.0899537 0.10600692 -0.26383477 -0.3145617 0.89317745 -0.13893808 0.11718369 0.35213375 0.24386856 0.3979623 -0.5717536 0.09647619 -0.21876767 -0.88539207 0.0020954825 -0.48677266 0.18722399 -0.10540953 0.22819826 0.6226957 -0.55150235 -0.012423645 -0.23810385 -0.74575865 0.34645754 -0.60449624 0.10969438 -0.41607776 0.031383675 -1.1794493 -0.030977678 0.28244516 0.7796505 -0.37230217 -0.94011885 0.12245846 -0.19398057 -0.8593233 0.4274925 -1.3061684 0.08502623 0.7998219 -0.57393587 -0.41246137 -0.2484101 -0.13603716 -0.15055542 -0.0013471924 -0.54143333 -0.08739538 0.0198837 0.5479059 -0.1993519 0.5430273 0.6806901 -0.7798213 0.9723827 0.7781387 -0.43307844 0.2938674 -0.4282099 -0.4819893 -0.3692909 -0.6624591 -0.5252193 0.047677137 -0.22481342 -0.22508278 -1.0463281 0.11848482 0.9285536 0.14655374 0.25087613 0.5942838 0.6944104 -1.3403937 -0.26123884 -0.19937524 -0.5023395 -0.8936345 -0.03466146 1.017196 -0.4581724 -0.15779129 0.07197614 0.75368637 0.13775246 0.4699418 -0.16632669 -0.29832572 1.0185311 0.2829646 -0.16394478 0.12963267 -0.14003934 0.9822981 -1.3974208 0.33478397 -0.5486605 -1.3119442
안재모 -0.075004056 0.08717272 -0.23502713 -0.31458798 0.9658535 -0.14724202 0.080466844 0.42334312 0.22820498 0.37490776 -0.6932749 0.003334289 -0.21662162 -0.8404572 0.05142984 -0.5605679 0.1805031 -0.08315152 0.32750455 0.72856796 -0.5394209 0.02663812 -0.19792604 -0.7613554 0.3977018 -0.59345293 0.041346468 -0.40306675 0.06690836 -1.2782218 -0.06390797 0.30813703 0.96013993 -0.4616785 -1.0546354 0.2057737 -0.13316184 -0.87566096 0.41332987 -1.4129943 -0.008327113 0.93313444 -0.6739156 -0.41423154 -0.3178208 -0.1119463 -0.12530999 -0.041330513 -0.60807097 -0.19144428 0.025279352 0.58431804 -0.18175586 0.57366276 0.8531563 -0.85473144 0.94118434 0.8753078 -0.46861315 0.2885907 -0.5566255 -0.5416774 -0.44148323 -0.66596746 -0.6108027 0.03476765 -0.16033058 -0.22256689 -1.1079247 0.22218356 1.1451818 0.1297222 0.3528185 0.67066467 0.7001479 -1.4032505 -0.28500748 -0.17006984 -0.50974804 -0.9436751 -0.07721534 1.0628947 -0.44118467 -0.24960783 0.15094483 0.9055631 0.17622882 0.54981446 -0.1288875 -0.32783487 1.2016041 0.29792458 -0.23892467 0.09712475 -0.17550066 1.0975218 -1.5678805 0.41443652 -0.60776055 -1.4044963
성우진 -0.09229848 0.105120435 -0.18766259 -0.26737675 0.9357046 -0.1289352 0.078507006 0.40948734 0.20577943 0.33353892 -0.6837304 -0.00038717603 -0.21479692 -0.8511563 0.08005228 -0.6388964 0.1950621 -0.12849772 0.3624574 0.7796183 -0.48153692 0.112285875 -0.12165872 -0.7176107 0.4525401 -0.5092271 -0.033673942 -0.34342822 0.030608652 -1.21127 -0.08019368 0.2599954 0.9596889 -0.43557054 -1.0492567 0.26983574 -0.12832478 -0.8249665 0.43092737 -1.4119635 -0.05710182 0.8991054 -0.63426864 -0.4056084 -0.32582784 -0.09168261 -0.110518865 -0.10279614 -0.5704139 -0.21902329 -0.015758209 0.55455375 -0.17939289 0.51470286 0.83359694 -0.8549802 0.84873176 0.8798583 -0.45483518 0.23829159 -0.5201907 -0.5282434 -0.41405058 -0.65285736 -0.60788435 0.06054106 -0.16785505 -0.14768736 -1.1045777 0.29574537 1.1628579 0.20635173 0.3789885 0.6519728 0.729901 -1.3014992 -0.32672533 -0.12102361 -0.47612917 -0.9229414 -0.07643091 0.95508057 -0.47062975 -0.21916537 0.13800344 0.8558844 0.19428827 0.4733067 -0.15296033 -0.38294393 1.1962974 0.27122653 -0.23362322 0.051760238 -0.1574412 1.0648108 -1.5628442 0.45062086 -0.6566318 -1.4338255
정일모 0.18025762 0.03618907 -0.046062708 -0.26054174 0.90244365 -0.03134131 -0.030635105 0.48762 0.14619723 0.28751436 -0.7849078 -0.27134663 -0.15670756 -0.34128547 0.251863 -0.79674035 0.11099485 0.027852809 0.6892527 1.2795365 -0.109733075 0.24820447 0.23620929 -0.49558288 0.5565901 -0.117269106 -0.23131499 -0.22389509 0.18684381 -1.0403211 -0.011924827 0.043008704 1.2507578 -0.45567712 -0.8734744 0.49917668 0.17365967 -0.470359 0.450374 -1.3252758 -0.4270415 0.9788672 -0.4323526 -0.39855054 -0.6455983 0.16587503 -0.019393343 -0.2663701 -0.58482766 -0.60215396 -0.08993747 0.4885892 -0.021309689 0.4356453 1.0766041 -0.60994446 0.33269957 1.0421909 -0.41015154 0.11368555 -0.63799775 -0.53959745 -0.6204466 -0.42139575 -0.4934035 0.06318372 0.23423886 -0.09833964 -0.9355862 0.7387742 1.3841704 0.07492811 0.45208168 0.55359364 0.55313855 -0.8480451 -0.48355776 0.22804157 -0.29696152 -0.7267076 -0.26678267 0.6708461 -0.37134463 -0.477189 0.26937646 1.1059961 0.30303204 0.32164133 -0.07540475 -0.6745956 1.1621313 -0.025374738 -0.5292912 -0.27207056 -0.35843205 0.8282379 -1.6308157 0.5932952 -0.8103931 -1.3115929
장세진 -0.0062005846 0.067731336 -0.17161343 -0.265504 0.9612331 -0.11227923 0.019887563 0.45494726 0.17545459 0.3596366 -0.7576437 -0.11282377 -0.21441871 -0.6994354 0.16406935 -0.7128532 0.17367312 -0.088903606 0.48331067 0.96237814 -0.3769149 0.14040944 -0.0095059285 -0.6692825 0.46395448 -0.44021016 -0.12028416 -0.33703122 0.06492441 -1.2000557 -0.0073209773 0.20247264 1.0834463 -0.5117062 -1.0096223 0.3202955 -0.024296304 -0.7399993 0.43806446 -1.4348962 -0.19266392 0.98573864 -0.60273254 -0.39511853 -0.4317694 0.018380158 -0.08891587 -0.119545504 -0.5694706 -0.34000698 -0.0065275664 0.5609457 -0.09529628 0.5167409 0.9772469 -0.80634016 0.71853805 1.0086062 -0.4811703 0.22210944 -0.6185898 -0.53888595 -0.5449694 -0.58699334 -0.54587597 0.05707529 -0.065718934 -0.17384681 -1.1139355 0.42366084 1.2622658 0.14996707 0.4381231 0.611848 0.6786048 -1.2313254 -0.36222947 -0.017149609 -0.41835326 -0.9124713 -0.18077031 0.9296326 -0.4613575 -0.35723615 0.16901906 0.9722173 0.22785228 0.4748666 -0.09381842 -0.4358664 1.2635001 0.1627778 -0.35218802 -0.030173672 -0.23934308 1.0293684 -1.6237544 0.53328294 -0.70584893 -1.4663798
김윤형 -0.041089676 0.08910244 -0.12929669 -0.19905211 0.6252403 -0.055388015 0.100812964 0.2727147 0.10196878 0.30601338 -0.4475017 0.046225984 -0.13351363 -0.6607892 -0.025583653 -0.30666167 0.13336569 -0.06699968 0.13104613 0.38828108 -0.4073982 -0.056787327 -0.18706863 -0.5185083 0.21065141 -0.40574005 0.095189825 -0.3499134 0.07132706 -0.8719736 -0.07723817 0.23578717 0.5784897 -0.23563358 -0.7235197 0.10004082 -0.13084851 -0.652545 0.30175638 -0.95071816 0.10852668 0.5443303 -0.4542289 -0.22886536 -0.17129749 -0.10204645 -0.097333826 -0.04021493 -0.44679978 -0.07302897 0.001225324 0.38040328 -0.16019876 0.3975179 0.48801804 -0.60422 0.68141335 0.56303364 -0.32936913 0.2186858 -0.3266381 -0.35101533 -0.24259047 -0.50110817 -0.3739652 0.018320668 -0.08015232 -0.16257669 -0.70913553 0.031687055 0.6437802 0.11461916 0.13856395 0.4305827 0.47895288 -0.9294572 -0.16855848 -0.14790253 -0.35797322 -0.6130201 0.005068941 0.68653196 -0.27805668 -0.13365832 0.04286509 0.5619164 0.11612071 0.36446008 -0.11138653 -0.22303627 0.67561305 0.272271 -0.11784331 0.11784989 -0.063294254 0.7294473 -0.9944663 0.23026374 -0.31946445 -0.85804856
김선재 -0.10840712 0.17369413 0.06947013 0.3031782 -0.046036392 -0.061850473 -0.06377452 0.22922479 -0.66958225 -0.074298844 -0.47025046 0.0611542 -0.2500728 0.00061189564 0.12275323 0.10574573 0.13551229 0.2742844 -0.54737604 -0.38279665 -0.099831246 -0.5544625 0.120644815 0.12460892 -0.2817822 0.013875716 -0.017861066 -0.33555457 0.13417588 -0.10067043 0.021794293 -0.30390215 0.6100415 -0.09248293 -0.6704089 0.0067833094 0.030014705 0.014723292 0.28747338 -0.34460852 0.36897516 0.023924464 -0.4003383 0.43513432 0.16383645 0.21919478 0.07400676 0.029452333 -0.5448203 0.13530391 -0.24056838 -0.007500766 -0.28953314 -0.17812404 0.04194385 -0.29538065 -0.08953168 0.0050878692 -0.39703205 0.023184637 -0.23604466 0.021004215 -0.08745873 -0.20545478 -0.109027766 -0.21600698 0.41701296 0.07070838 -0.07798717 -0.043689355 0.11599147 -0.060518216 -0.30423436 0.41772398 0.34167206 -0.13065918 -0.2345137 0.07838346 -0.17067648 -0.57575727 0.6652498 -0.018269546 0.34878913 -0.23630872 -0.1181498 0.6480556 0.0051535917 -0.32723838 0.020281669 -0.32785687 0.17616753 -0.040571935 0.12583907 0.02618532 -0.38605887 0.61689425 -0.7078345 -0.30599377 0.34465435 -0.0002326656
무 1.0652332 0.3331254 0.6413685 0.86859185 -0.88748395 0.16198222 0.8347815 1.078701 -0.3207175 0.5405521 -0.26619846 0.6883832 -1.1026651 0.14622477 -0.26290986 -0.8242291 0.10651223 -0.45505357 -1.4631419 1.7434615 0.18388666 -0.8564913 -0.19768177 0.19328521 -0.516954 -0.687731 -0.22060418 -0.9643397 1.7155304 -0.7014111 -0.15050153 0.42177597 1.10988 -0.9821722 -0.96753085 -0.49412647 0.45330095 -0.89459306 0.30364037 -1.1524225 0.23476654 0.5158219 -0.21245013 0.37934384 -0.06118975 -0.20212387 0.07849892 0.6412607 -0.10316135 0.18582337 -0.14531673 0.16932498 0.18616 -0.9506262 0.24544145 -1.0910563 0.24765696 0.89730763 -0.031614423 0.5600788 -0.065811455 -0.67017186 0.13637474 -0.90155685 -0.28960425 -0.80655813 0.6747354 0.6114981 -0.95196223 -0.27207026 0.22717324 -0.24557658 -0.38176212 -0.46688533 0.1062164 -0.3222032 -0.08575841 0.0572444 0.04501257 0.07251941 0.6259547 1.1485382 -0.3110695 -1.030833 -0.24837455 -0.13782275 0.19303137 -0.071291365 -0.88498455 1.3047445 1.1465434 -0.6627699 0.16062573 -0.9775573 -0.47526717 0.2850517 -0.5906702 1.3429542 0.085369594 -0.8860603
윤나 1.0017174 0.2991998 0.6983899 0.8923243 -0.84101397 0.050131835 0.88947314 1.1198883 -0.43871763 0.5275392 -0.19269581 0.5352338 -0.9743077 0.13661908 -0.2386628 -0.8145065 0.14570914 -0.41691664 -1.2783253 1.8023401 0.2117982 -0.8884731 -0.2714988 0.2914779 -0.5327085 -0.6302884 -0.10053395 -0.81926423 1.6771567 -0.7382889 -0.050561085 0.36250684 1.1738951 -0.9608964 -0.999172 -0.5715451 0.4259695 -0.9789343 0.35298973 -1.254583 0.3094761 0.600949 -0.22745425 0.4291992 -0.20376343 -0.17764021 0.032826673 0.54572135 -0.14864755 0.063210376 -0.22759639 0.1633665 0.2889932 -0.99227935 0.4289524 -1.1963344 0.24640985 0.9656264 -0.04959951 0.574703 -0.16648893 -0.7666675 0.0811715 -0.96385777 -0.39368412 -0.7308182 0.641878 0.5262936 -0.9668195 -0.379685 0.20976642 -0.12745652 -0.31083095 -0.5039434 0.26653343 -0.3100652 0.05968582 0.07788489 -0.051283747 0.040518627 0.5598192 1.231609 -0.23401292 -1.0103369 -0.39943072 -0.11446676 0.097379886 -0.18348731 -0.915387 1.1519182 1.1137111 -0.664428 0.039562073 -0.89282614 -0.4272767 0.26163223 -0.6921991 1.2383491 0.18919078 -0.81438315
소 1.0162127 0.8024846 0.4311433 0.2759809 0.039295696 0.38422304 0.017366953 0.99495655 -0.3450331 -0.6868893 -0.42245334 0.38687998 -1.1288612 -0.24250375 0.032385413 -0.6487827 -0.41749048 0.093983024 -1.3315074 0.16641705 -0.25082582 -0.5598975 0.028441235 -0.05304103 -0.5190347 -0.5349163 -0.709818 -1.2875108 0.76934 -0.5684075 -1.2908323 -0.27362567 1.4286093 -0.6478852 -0.9001173 0.49920797 0.48281467 -0.32698703 0.6458673 -0.8104362 0.16332558 0.0845961 -0.08504783 0.1910009 0.3731988 -0.75776875 0.084506586 0.12585422 0.14478043 0.70949084 -0.5754267 0.6055807 -0.7517665 0.0031277777 -0.2990674 -0.766452 0.8986416 0.55284435 0.12409274 0.066243745 0.45897081 0.3949763 -0.3594416 0.05221911 -0.7299311 -0.29360107 1.2125084 0.6514273 -1.02589 0.6486368 0.742939 -0.51068634 -0.34607515 0.44130006 0.24824427 -0.6926491 -1.4224062 0.5607746 0.0053604986 0.09239151 0.41295084 0.80492043 -0.2679316 -0.17932312 0.20511414 0.7395707 0.14965315 0.6202506 0.27103648 0.6533524 0.96071494 -0.11690941 0.7471453 -0.8978752 -0.45779434 1.2074159 -0.586544 0.64973795 -0.9675413 -0.5706968
한석규 0.8398792 0.078507185 0.46592057 1.6004223 -0.033181604 0.6214413 1.5254685 1.1866971 -0.7249435 0.51249176 -1.0431765 -0.062021047 0.7795228 -0.75076216 -0.71273303 -0.16259511 0.31255078 0.47446674 -0.7807951 0.1273001 0.5218597 0.7636403 0.08837868 -0.43142194 -0.32716915 -0.5399051 0.38401902 -0.3314267 0.40650493 -1.0539006 -0.6710985 -0.29363877 2.2417328 -0.26424244 -0.9060976 0.7941804 0.066813454 -0.67865765 1.0296167 -0.9190379 0.2722332 0.12292744 -0.41731253 -0.34472328 0.16890198 0.7777119 -0.40626165 -0.17725104 -0.38613328 -0.84906745 0.01908662 -0.08437156 -0.8191082 0.51505107 0.70933276 0.16089195 0.038839925 -0.3228546 0.055285778 -0.1097531 -0.14929351 -0.30629426 -1.3831153 -0.6025182 -0.83660483 -0.015140073 0.48947957 -0.002114242 -1.1425078 0.54969805 0.63217616 -0.7391984 0.6114698 0.36878455 -0.060299832 -0.8154854 0.8070643 -0.55138314 -0.5577344 0.42456818 0.36703128 1.441115 0.23153894 0.29866323 -0.64497924 0.24964207 -0.98486596 -0.12577118 -0.22603002 -0.4509028 0.2742607 -0.61231357 0.79493624 0.4241304 -0.2700716 0.18703115 -0.12877463 0.3929265 0.054606084 -0.092973106
임원희 0.37095824 -0.5221834 0.8571602 1.5329754 -0.04728704 0.53608805 1.4664816 1.0254608 -0.48322973 0.18524984 -1.1694502 -0.15246189 0.31293225 -0.8811156 -0.16760609 0.11574286 -0.095272854 0.38000333 -0.94705534 0.18842983 0.24427451 0.98253447 -0.057699293 -0.037396256 -0.4382784 -0.56230164 0.26991895 -0.59371746 0.1947147 -1.1419933 -0.5772078 -0.09746909 2.1913373 -0.28774107 -0.91090465 0.6989289 0.14724322 -0.4099245 0.7162333 -0.6861477 0.6453082 0.35340312 -0.54883045 -0.3468041 0.27098963 0.8530126 -0.61666495 0.09821201 -0.42339802 -0.7101086 0.024339523 -0.2671877 -0.6276939 0.33255687 0.28585696 0.0358399 -0.4138782 -0.34506327 0.11442328 0.42294982 -0.41837117 0.21894388 -1.4025204 -0.700041 -0.6190364 -0.24067874 0.29164776 0.21327005 -1.1162742 0.52200186 0.7493651 -0.09312393 0.6447243 -0.061042815 0.5281527 -0.9282248 1.040284 -0.50146073 -0.44116873 -0.4341434 0.39625177 1.1350317 0.14779584 0.1943975 -1.0050161 0.6564542 -0.9154638 0.019355148 -0.19909409 -0.9332232 0.48297969 -0.63365537 0.95764786 0.76952225 -0.38730752 0.34107226 -0.4122216 0.5711303 0.025173891 -0.105210245
박효주 0.14125945 -0.7836772 1.0846094 1.207497 -0.042077493 0.4335813 1.1957307 0.821181 -0.33373475 0.0036109968 -1.2065076 -0.18339734 -0.032855485 -0.9035706 0.18075581 0.1927981 -0.40340725 0.22455359 -0.8874558 0.077657074 0.07128528 0.9381638 -0.26241574 0.3952296 -0.64845455 -0.5602539 0.30232972 -0.84636825 0.0173579 -1.1167613 -0.49364322 0.051880505 1.9829832 -0.40749636 -0.9679806 0.5039023 0.19509222 -0.2816674 0.41235128 -0.5496053 0.8961972 0.45624563 -0.5745777 -0.28195366 0.35224998 0.7458322 -0.58759284 0.10787401 -0.4937737 -0.47075853 -0.064270325 -0.13341983 -0.548079 0.17189336 0.18601209 -0.27508044 -0.5488034 -0.06854705 0.051363423 0.66565716 -0.6069311 0.5514611 -1.3217403 -0.78502184 -0.5068553 -0.32711533 0.3362325 0.2784105 -1.0841944 0.4549718 0.79259396 0.26302382 0.5106719 -0.3791685 0.9482092 -0.9317808 0.7424725 -0.23819059 -0.41930142 -0.9559356 0.3671354 0.88175994 -0.010099133 0.15673952 -0.902093 0.95146376 -0.80211407 0.3933996 0.027079243 -1.1527869 0.6733887 -0.6644646 0.91216314 0.8464138 -0.5050135 0.4975266 -0.5619298 0.5910664 -0.19864014 -0.095769
김홍 0.68719 0.32478908 0.47615886 0.49989632 0.37905407 -0.88088983 0.86394525 1.0579247 -0.80626416 -0.5301057 -0.93951225 -0.826422 -0.513901 -0.6156793 0.77153987 -0.26175943 -0.490747 0.7542621 0.380394 1.2436948 0.41712072 -0.3253673 -0.7009287 0.39879924 -0.98487735 0.72770584 -0.32440883 -0.68553054 0.28917497 -0.16675575 -0.34042144 0.012124399 0.648819 -0.07003298 -1.103408 -0.37912259 0.20325701 -0.5737177 0.16645707 -1.2161062 0.29531237 1.017907 0.10420883 0.2806022 -0.4076627 -0.04748333 -0.1018295 -0.7990483 0.008840814 -0.684947 -0.51010257 0.20122723 0.76406527 -1.126243 0.9201526 -1.846015 0.77676505 0.90051115 -0.32081482 0.7326591 -0.45677507 -0.29436195 -0.9053193 -0.8811503 -0.3855633 0.46401975 0.48590386 -0.55217594 -1.0337453 -0.81353885 -0.6579729 0.071959674 -0.1637919 -0.8815973 1.0001376 -0.18500948 0.014322421 0.8934644 -0.70741487 -0.7672521 -0.091553405 1.3167856 0.40372938 -0.4060914 -0.4665163 0.69012177 -0.250983 0.3217385 -0.22576438 -0.863956 0.97444963 -0.3148357 -0.9297309 -0.71466017 -0.035471063 0.3284958 -0.76079917 -0.2437257 0.113764964 -0.21952882
파 0.6819743 0.33978295 0.43155107 0.46415195 0.3028592 -0.87344784 0.8556033 1.0227451 -0.7569012 -0.5517598 -0.8713991 -0.78885275 -0.5727219 -0.57998997 0.7882964 -0.30047676 -0.49644288 0.7031954 0.4070121 1.4511658 0.46976873 -0.46303663 -0.75445163 0.44320428 -0.97904164 0.69235617 -0.35658282 -0.6376937 0.36754122 -0.12962805 -0.31129116 -0.06494323 0.5630189 -0.059767976 -1.0095898 -0.45188585 0.14978027 -0.64395976 0.12602797 -1.1669093 0.24039105 1.0204834 0.16046597 0.30037588 -0.4141854 -0.081445105 -0.12859973 -0.7906026 0.055956297 -0.68222606 -0.49138415 0.16173194 0.832603 -1.215772 0.9160994 -1.8542879 0.76797104 0.8980692 -0.35676003 0.70711523 -0.42741933 -0.32259753 -0.899647 -0.87416476 -0.3809042 0.40952474 0.50941646 -0.5816397 -0.9670694 -0.9023322 -0.7461044 0.09270698 -0.20324636 -0.9745346 0.99785227 -0.15168306 0.074549444 0.88455594 -0.7500647 -0.6274181 -0.12376268 1.3679861 0.43481654 -0.40750173 -0.5405357 0.6338718 -0.3290692 0.23372886 -0.3553117 -0.7730539 1.0118454 -0.381811 -1.0118613 -0.8314916 -0.053541183 0.28700596 -0.8031955 -0.23880522 0.16309269 -0.19770712
김민재 0.7246857 0.54702353 0.77905506 0.6483484 -0.2677044 -0.46550915 0.9306186 0.91408086 -0.64020234 -0.21580723 -0.39624164 -0.38924077 -0.6090817 -0.23965794 0.38163564 -0.591866 -0.20044756 0.29922935 0.038663056 2.0886633 0.36864054 -0.8695434 -0.71169066 0.5118355 -0.75973815 0.10831612 -0.14533268 -0.38514513 1.0263971 -0.49772927 -0.1429516 -0.104262054 0.6655202 -0.3826247 -0.76137143 -0.8082836 0.25632188 -1.0460153 0.26492098 -1.1571014 0.18932275 0.92287433 0.15316238 0.32633543 -0.5341554 -0.2557631 -0.14940804 -0.3068817 0.09104236 -0.46600422 -0.39725208 0.06513337 0.66804314 -1.1884515 0.92876184 -1.515605 0.4741713 0.9858065 -0.383863 0.47590208 -0.4968004 -0.5547701 -0.6791227 -0.7494358 -0.38380265 0.11042201 0.52191967 -0.3643126 -0.79565996 -0.792388 -0.43140742 0.24368602 -0.029195875 -1.099257 0.83270496 -0.09559207 0.38099208 0.41720414 -0.48177016 -0.060704943 -0.049480066 1.3749418 0.25238368 -0.5776725 -0.6622275 0.1746881 -0.43945485 -0.12238513 -0.7635315 0.13239951 0.9753994 -0.6758452 -0.9093219 -1.0500548 -0.19266379 0.18393075 -0.7729201 0.3341549 0.31808922 -0.34293285
김주 1.3587779 0.80867845 0.47830957 0.58288777 -0.26146016 0.53422576 0.6326849 1.0072007 -0.069925904 -0.03649279 -0.5964151 0.7108179 -1.4616486 -0.14909087 -0.035657607 -0.772155 -0.13409653 -0.05218455 -1.7651926 0.7848445 -0.14889422 -0.531525 0.049778454 -0.1323696 -0.47600764 -0.614971 -0.846306 -1.4030894 1.2247262 -0.44064495 -0.8450795 0.114378676 1.1747595 -0.83599937 -1.0072985 0.29161924 0.9150062 -0.27338424 0.45147878 -0.7757554 -0.07688737 0.19891194 -0.24448746 0.3099396 0.30538395 -0.66459924 0.079177886 0.7731251 0.21672912 0.60400254 -0.21952845 0.2336842 -0.23678122 -0.56178397 -0.5544336 -0.66353184 0.7016701 0.8299723 -0.024480416 0.5082065 0.26601446 0.043504983 0.07821265 -0.15117246 -0.17520767 -0.74615186 0.69455737 0.8897846 -1.0657606 0.17218883 0.398628 -0.28342158 -0.37379166 -0.031665206 -0.094386384 -0.6489177 -1.1249194 0.30315915 0.14314519 -0.09505066 0.6711845 0.52229834 -0.39014986 -0.58142924 0.28135738 0.3542204 0.47242233 0.4403924 -0.15021148 1.26772 1.282413 -0.10268317 0.8477928 -1.0535294 -0.44630778 0.5493933 -0.28256604 1.345735 -0.3837781 -1.0118197
신동욱 0.16645741 -0.9467873 1.1789211 0.9520863 0.12929283 0.2382193 0.9553258 0.68953645 -0.2568957 -0.040349066 -1.1842706 -0.31515285 -0.20983547 -0.7749793 0.46094275 0.19620104 -0.7118884 -0.010185044 -0.5712 -0.05146094 0.055053495 1.0366815 -0.45639652 0.74272454 -0.75859374 -0.5058544 0.3457377 -0.86848694 -0.14253011 -0.98254174 -0.2870278 0.21719679 1.7514356 -0.46944854 -1.0793718 0.36328256 0.20973918 -0.18028687 0.19459815 -0.5842086 0.9503945 0.4567223 -0.44338468 -0.09983912 0.34273836 0.69402134 -0.5906358 -0.014712421 -0.67857957 -0.25143582 -0.14010201 0.17636798 -0.45817646 -0.09911691 0.35951194 -0.6190663 -0.43641302 0.23546562 -0.054802284 0.75528365 -0.7003653 0.7243951 -1.3530046 -0.90017766 -0.5128703 -0.2871537 0.43761018 0.31277472 -1.015634 0.4164434 0.6332107 0.295465 0.3744502 -0.6009135 1.2059238 -0.9370494 0.35122305 0.083051585 -0.42447543 -1.3019365 0.36032248 0.7873391 -0.27474293 0.18229796 -0.53510547 1.1518667 -0.58176726 0.78701377 0.19179004 -1.3336798 0.81603944 -0.75017864 0.66134465 0.89874005 -0.6143784 0.5957737 -0.584612 0.5943025 -0.4291661 -0.15951535
진경 0.50726557 -0.9680342 0.8735289 0.8114789 0.3981589 -0.31138748 0.62840176 0.76226 -0.35021183 -0.011094734 -1.2330018 -0.56212467 -0.33684915 -0.33702815 0.58191913 0.22009814 -1.0220515 0.008895196 -0.049837332 0.011924026 0.23876125 1.146383 -0.6193203 0.9314019 -0.8678988 -0.13443217 0.33635336 -0.76586324 -0.11516871 -0.4521356 0.015505013 0.4263095 1.4236706 -0.21868421 -1.3339597 0.24256098 0.19729663 -0.06380957 0.13964759 -0.9221033 0.7828351 0.5094505 -0.13011326 0.27652815 0.26138118 0.7485621 -0.4326348 -0.33547446 -0.87098634 -0.21826123 -0.15812838 0.62457526 -0.14696358 -0.6439561 0.4888452 -1.0494193 0.023573412 0.33227915 -0.09042896 0.6522708 -0.47100908 0.7641673 -1.594301 -1.0954263 -0.48575148 -0.076766945 0.6165079 0.22021766 -0.9605162 0.14458238 -0.06622089 -0.18488626 0.08299132 -0.63577425 1.2113059 -0.73485976 -0.17664729 0.5858871 -0.61956036 -1.4195906 0.45980966 0.80861217 -0.3681465 0.03249116 0.115465194 1.2312723 -0.11674491 0.9847182 0.073961295 -1.5478166 0.8825415 -0.81322575 0.08673345 0.7423326 -0.6484352 0.710701 -0.47525895 0.5158252 -0.6165961 -0.055407587
헌 1.3764945 0.8548067 0.50361115 0.52661294 -0.20715582 0.5626553 0.6029374 1.0144067 -0.060393672 -0.10760901 -0.65573806 0.6579013 -1.4532213 -0.22502594 -0.009011052 -0.75691366 -0.19090836 -0.044960715 -1.7339405 0.60956204 -0.13296673 -0.44041213 0.06548065 -0.14727233 -0.45658258 -0.5553445 -0.9004269 -1.4237517 1.1363356 -0.42414892 -0.9346816 0.093919635 1.2596638 -0.7768667 -0.9852662 0.43829653 0.9301578 -0.22543275 0.4427365 -0.76019204 -0.10361036 0.14589778 -0.2961929 0.3098485 0.32433414 -0.7167631 0.10256945 0.7172857 0.21742973 0.65583634 -0.2923198 0.26324806 -0.2993928 -0.46151257 -0.59313875 -0.6560067 0.7402034 0.75535566 0.0063627157 0.4810208 0.3060343 0.1250602 0.061804496 -0.080732115 -0.21882516 -0.6767335 0.76239866 0.90651095 -1.0987576 0.28705546 0.47542107 -0.26895046 -0.38931912 0.0432784 -0.08226701 -0.67521447 -1.1907716 0.32475376 0.14541394 -0.08252369 0.6544997 0.5073223 -0.3920669 -0.51425225 0.31619358 0.38482156 0.46906307 0.50823855 -0.08363816 1.184003 1.2827413 -0.07115108 0.8810915 -1.0628617 -0.4666495 0.6321954 -0.25051805 1.2499752 -0.45070702 -0.9809787
최진호 0.67821044 -0.7120828 0.5979369 0.67168444 0.5973943 -0.8100948 0.64160675 0.9976575 -0.5231853 -0.27564448 -1.2064934 -0.8320839 -0.45898485 -0.24457315 0.6933529 0.08358225 -0.9871413 0.20328431 0.22250469 0.24716331 0.34581548 1.0184178 -0.6063098 0.750894 -0.79815733 0.1639013 0.04966923 -0.6521409 -0.08101174 -0.23075956 0.07439346 0.5127609 1.1157335 -0.19070184 -1.4234681 0.104601696 0.25018606 -0.07379179 0.03208508 -1.1503253 0.548249 0.7703269 -0.021626502 0.35485333 0.043788128 0.5576008 -0.31253004 -0.5904743 -0.7183297 -0.22902672 -0.2220534 0.69695705 0.26107404 -0.9903421 0.54925 -1.4873561 0.43384504 0.4990749 -0.081334874 0.6988155 -0.35141128 0.5149458 -1.4640425 -1.1818402 -0.4356018 0.22522259 0.49413118 0.08372926 -1.0878773 -0.21670161 -0.4199471 -0.1812714 0.030677492 -0.6680272 1.199681 -0.6737767 -0.2741013 0.80087644 -0.7462091 -1.4055161 0.2032815 0.94543004 -0.26435387 -0.13792567 0.24800342 1.043394 0.20795038 0.8650064 -0.06504339 -1.487291 0.999506 -0.66479754 -0.29191205 0.4270326 -0.3476167 0.7104721 -0.41790783 0.32651737 -0.6019419 -0.1662315
고상호 0.8177666 0.8673796 0.3311806 0.18876022 0.072480015 0.19369358 -0.11123104 1.1720545 -0.55340785 -0.8523541 -0.14870039 -0.0149836205 -0.46198836 -0.28105316 -0.14753002 -0.7992539 -0.37104484 0.24088466 -0.69235086 -0.11950178 -0.08644021 -0.3629092 -0.05227914 -0.02704139 -0.582862 -0.6325412 -0.008137929 -1.1513569 0.43435946 -0.8237347 -1.3139752 -0.57538265 1.7176985 -0.58171654 -0.911611 0.35777408 0.10062058 -0.58425915 0.79453367 -0.7969313 0.5054107 0.089334756 0.021818176 -0.22949353 0.29034674 -0.33407855 0.03399268 -0.43226725 0.058892258 0.43183225 -0.8803462 0.6909242 -1.0244209 0.4712235 0.36189607 -0.69052494 0.76736253 0.22384827 0.39779598 -0.46803114 0.5566373 0.24124303 -0.77385503 -0.088667385 -1.0231509 0.068940654 1.4167756 0.1773578 -1.2506756 0.79448444 1.0316043 -0.68997455 -0.061993293 0.644883 0.33420122 -0.51727676 -1.2198645 0.52788293 -0.44832963 0.66309625 0.11562544 1.0780334 -0.14633425 0.24966145 0.102043614 0.5168314 -0.24056888 0.6021532 0.5394636 0.36000276 0.48848182 -0.34527245 0.36289343 -0.6445745 -0.55269945 1.4449476 -0.7550674 0.16708021 -1.1428217 -0.011278111
이성경 0.6644411 -0.30985683 0.34627962 0.5353219 0.62495166 -1.0639613 0.69781995 1.0665431 -0.6764363 -0.51406825 -1.0587554 -0.96968406 -0.44160286 -0.36278945 0.81893706 -0.03903944 -0.7711295 0.49914443 0.43261772 0.5953284 0.4399673 0.52352923 -0.6360487 0.49851954 -0.7672603 0.5398029 -0.24689668 -0.55838275 -0.08562545 -0.017864207 -0.06526294 0.38085285 0.6809595 -0.09929603 -1.2430809 -0.07704312 0.16636664 -0.19219753 -0.062161986 -1.1388688 0.3174537 0.9196953 0.10796982 0.3038862 -0.21228167 0.28146753 -0.19200137 -0.7967309 -0.36041552 -0.403097 -0.29071322 0.46435004 0.6497746 -1.1569884 0.64677715 -1.7248576 0.69605213 0.616983 -0.122287124 0.7506788 -0.3016106 0.118526794 -1.1542543 -1.0765105 -0.35306892 0.5080685 0.32582185 -0.218107 -1.0257995 -0.59583634 -0.70002836 -0.08501234 -0.06533839 -0.7557469 1.0883186 -0.46314174 -0.1521043 0.8998476 -0.76444936 -1.169308 -0.08361229 1.0621967 0.053332925 -0.24178363 0.009236568 0.78637075 0.16230658 0.58260226 -0.10602745 -1.2984465 0.97675544 -0.442392 -0.67009383 -0.02159747 -0.05584991 0.49814805 -0.4356408 -0.08598138 -0.2987241 -0.18517794
주연 0.9179817 0.8057045 0.42150024 0.29263777 0.033023193 0.36326554 -0.05419567 1.0147523 -0.3917294 -0.77683544 -0.381972 0.27146304 -1.0151868 -0.27458572 -0.025895383 -0.67938846 -0.43669778 0.08435678 -1.2373053 0.08638779 -0.27612755 -0.5614087 -0.016105514 -0.0015433879 -0.5530627 -0.516264 -0.6086621 -1.2618325 0.67280906 -0.65327144 -1.3716712 -0.34006205 1.5178216 -0.5726108 -0.92733824 0.5015417 0.42630506 -0.427618 0.68904483 -0.83365995 0.2310251 0.07589353 -0.061692838 0.12386718 0.37160158 -0.70916647 0.07083995 0.0006446139 0.14145823 0.6981722 -0.6688429 0.6574186 -0.8480808 0.09988124 -0.20623842 -0.78196305 0.90366316 0.4543934 0.12790777 -0.047414303 0.5147686 0.41348165 -0.44925705 0.05485324 -0.8415207 -0.2627238 1.3504629 0.58331746 -1.0609642 0.7401516 0.8573347 -0.57363737 -0.31829688 0.535623 0.3247256 -0.62806433 -1.4492612 0.55719495 -0.08373946 0.19356938 0.38700223 0.91129297 -0.19214831 -0.12347259 0.16137035 0.74056625 0.07186741 0.6565641 0.33740473 0.5624553 0.90645486 -0.11772293 0.7304378 -0.8313821 -0.4994132 1.3424358 -0.6388862 0.53686684 -1.0514827 -0.43079814
여진구 0.66762596 0.15237367 1.0558615 0.04457188 0.5950537 0.8747365 0.5718042 1.2589886 -0.17643948 0.28683403 -0.114125356 -0.17228162 0.5201933 -0.047707684 -0.2984771 0.68901974 -0.16042031 0.19642904 -0.05480047 0.47088873 -0.4754995 0.40291318 -0.1777308 -0.7861283 -0.20922607 0.757926 0.32829362 -0.56327873 0.6651445 -0.88832766 -0.59577036 0.17172869 0.6119177 0.3323059 -0.39863664 0.9993981 0.7021825 -0.5352188 0.69120854 -0.9018038 0.5789012 0.2880408 -0.793459 -0.55858517 -0.3889982 -0.12424284 -0.3364775 -0.50490147 -1.1077867 -0.93474925 -0.19107197 0.31697434 0.008814509 0.4819568 0.197381 0.081629455 -0.10705392 0.2760822 -0.181052 0.6659404 -0.6737433 -0.4507229 0.089044794 -0.21394297 0.029720318 -0.47352254 1.1326653 -0.13504654 0.28312457 0.39090282 0.5082823 0.016032605 -1.1161171 0.37636426 -0.21653837 -0.037642267 -0.19863492 0.13343446 0.25344154 -0.1595107 0.35341734 0.3127093 0.42834604 -0.20236969 -0.21637402 0.53747815 0.2085285 0.18100557 0.041179404 -0.72730523 -0.12914903 0.28461537 -0.16506915 -0.23594923 0.34727558 -0.010039957 -0.3556761 0.0013850911 0.32401496 0.49887064
최원영 0.8352217 0.51834804 0.8042768 0.5488869 0.48451793 0.39817137 0.8606137 0.4494309 -0.58279765 0.7216655 -0.26890454 -0.2620384 0.60505545 -1.068857 0.21454175 -0.28434387 0.06543624 -0.24071826 -0.8079538 -0.7666294 -0.20051876 -0.17505142 -1.3243239 0.34257296 -0.68569505 0.6330652 0.39725453 -0.58805794 0.6250666 -0.4801426 -0.5462495 0.18121341 0.6840962 0.11102203 -0.6991555 0.2625605 0.5777365 -0.6335812 0.85302913 -0.49904233 0.45496002 -0.7110163 -0.14138243 0.6043356 -0.22816342 -0.19694738 0.07416539 -0.11550535 -0.1481813 -0.2296738 0.15837276 0.25708503 0.38886458 0.21875088 0.4467299 -0.35534748 0.59998536 0.6329787 -0.4436846 0.5729177 -0.76247734 -0.24038823 -0.23118256 -0.8082653 0.08097836 -0.13987948 0.65575445 0.2082205 -0.29144984 -0.27789593 0.17932996 -0.24492878 -0.32870072 -0.05884707 0.16253383 0.22391665 0.20887502 0.8654852 0.21455692 0.2121234 -0.123908535 -0.1604111 0.042649724 0.040611174 -0.30566508 0.9503017 -0.26664272 0.025631072 0.55635333 0.05950636 -0.35093877 1.0023185 0.4750189 0.27541375 0.3222494 0.30251914 -0.28723463 -0.6304175 0.163906 0.35243565
이 0.5475374 0.5584625 0.41712394 0.5379342 -0.02988961 0.403455 0.45028418 0.2472256 -0.6131711 0.5279653 -0.11721137 -0.1179753 0.30987513 -0.62753075 -0.00728823 -0.8818166 -0.016234227 -0.29096988 -0.75459445 0.006923231 0.20373763 -0.5721964 -1.133545 0.45471236 -0.64034766 -0.07609972 0.39667505 -0.60138017 0.75745726 -0.30620787 -0.38816628 -0.001434315 0.7363263 0.015452067 -0.67308336 -0.2688552 0.1740948 -0.74678725 0.66882527 -0.4420809 0.4653454 -0.4447542 0.36751935 0.54749024 -0.19263871 -0.15071076 0.30468497 -0.21193561 -0.060796354 -0.04579901 0.031519234 0.2114012 0.09966394 -0.16312186 0.4518372 -0.47080034 0.48111418 0.4426124 -0.3859317 0.21970983 -0.11601875 -0.110039674 -0.4310621 -0.86435145 -0.26098755 -0.30410433 0.807167 0.029270785 -0.43637052 -0.3439544 0.18374315 -0.41317034 -0.15104738 -0.12902352 0.28685957 0.29008743 -0.07442204 0.66623366 -0.24313194 0.7634488 0.0398018 0.28833947 0.0041101584 0.03793596 -0.38970855 0.67059374 -0.5951765 -0.072834164 0.26640156 0.43092874 -0.17772965 0.33659264 0.36607242 -0.252237 -0.050095268 0.5366005 -0.52263886 -0.41457984 0.12332974 0.25689822
이수경 0.79367423 0.94847745 0.78802073 0.11980681 0.54833513 0.0044267713 0.18483075 0.7372752 -0.12834449 -0.055912323 -0.69660544 0.9383117 0.32645285 -0.49210078 0.04400096 0.18177558 0.3775348 1.2099521 0.13102657 0.18847895 -0.38209203 -0.6366576 -0.56222886 -0.068170056 0.0973971 0.31595287 -0.052728295 -0.029818293 0.54819155 -0.6968187 -0.550988 0.52265966 -0.10704158 -0.6209616 -0.42068237 -0.06527284 0.4858386 -0.07561691 0.18540105 -0.7279873 -0.19144902 0.65829533 -0.12545337 -0.8235806 -0.3491818 -0.08132832 -0.72430646 0.0010055756 -0.32955632 -0.3664674 -0.5264482 0.7272577 -0.33147 0.36919624 1.1104462 -1.0469915 -0.28995326 0.33922252 0.20222123 -0.2802868 -0.8777001 -0.54003686 -0.34154186 -0.35780516 0.39186472 0.4586056 0.37611246 -0.8386897 -0.48462844 0.2818953 0.5214218 -0.031693645 0.13119407 0.31976587 -0.006121552 -0.43059486 -0.30699286 0.15649047 0.4178896 -0.5341556 0.06465492 -0.3649009 -0.13234593 -0.5401721 0.77408177 0.16564243 0.49372572 -0.002060964 0.07193415 -0.5751502 0.21536788 0.7217788 -0.62172306 0.05083147 -0.42315617 -0.33793098 -0.67552245 -0.2078137 -0.29811665 0.06472884
홍 0.118467085 0.13960591 0.71604353 -0.069270276 0.603301 -0.051692378 -0.036087755 -0.25545526 -0.2615511 0.53187335 -0.80589825 0.72215056 -0.35798046 -0.8617557 0.011258326 0.28621075 0.40387866 0.47994873 -0.007883449 0.49647796 -0.9010888 -0.31812242 -0.39467937 0.70855933 -0.25885105 0.097400025 0.12925918 -0.44271964 0.34165177 -0.4717072 -0.14598273 -0.2887696 0.68935424 -0.39016908 -0.8081589 0.21171044 -0.012887604 -0.4322529 0.5851357 -0.6575647 0.11450969 0.23194967 -1.2509813 0.2852935 -0.10190795 0.35013667 0.57004154 0.6844734 -0.5246433 -0.17495012 -0.24156362 0.1997052 -0.21744905 0.49092522 0.010178684 -0.49071428 -0.16753776 0.9172213 0.062121924 0.49647245 -0.8508914 -0.1805509 -0.03315198 -0.042442247 0.090857744 -0.401029 0.41413122 -0.5157802 -0.11950144 -0.19410676 0.23041108 0.12368249 -0.23217991 -0.24066202 0.107224606 -0.07090864 -0.06323649 0.52086306 0.021937238 -0.8000919 0.028132295 0.5174162 0.53738195 -0.52481854 -0.079171844 0.64933187 -0.12807171 0.5079249 -0.2507227 -0.2896094 0.28604564 0.016378226 -0.2661612 0.048977017 -0.7675925 0.1617516 -0.20425272 0.27243108 -0.08914339 -0.292053
윤정희 0.9661495 0.79967374 0.890162 -0.1660956 0.6752424 0.31758377 0.3768748 0.48734155 0.9379222 0.9559638 -0.6992987 -0.7912917 -0.036797002 -0.297041 0.0081251655 0.50881004 0.35927358 0.63697106 0.66549915 0.5547932 -0.46457526 0.42947224 0.31092927 -0.100446604 -0.39590552 1.0014383 0.40930608 0.031235883 0.30894116 -0.59046257 0.03150169 -0.34764183 0.6285645 -0.032921467 -1.1570956 -0.46163014 0.71280485 -0.70006377 1.0260311 -0.65353465 -0.53272593 0.4943558 -0.40776908 -0.24917395 -0.36572143 0.12763283 0.4141796 -0.1255705 -0.11860076 -0.5350697 -0.373187 0.2449192 0.13385954 0.3679707 0.7629606 -0.4527486 0.7678599 0.6357885 -0.18108971 -0.58119875 -0.66821027 -0.6786358 -0.4942257 0.16047335 0.042651407 -0.20813222 -0.8526145 -0.34727362 -0.33196402 -0.18825133 0.47302777 -0.24055482 -0.53204477 0.423326 -0.35950956 -0.25760344 -0.73478884 0.3214863 -0.0006091741 -0.65635705 0.40330794 -0.17137702 0.44716138 -0.083190404 0.8319148 0.50466394 0.046549182 -0.16203901 -0.11147189 -0.104301915 0.34403068 -0.5738987 -0.19706723 -0.14360899 -0.24149366 0.37882876 -0.61365694 0.4168604 -0.5473058 -0.5791113
왕빛나 0.64745796 0.84688145 0.73005307 0.082437836 0.52247614 -0.049082566 0.14466777 0.7857669 -0.25401333 -0.22294118 -0.5869902 1.0441022 0.2797013 -0.70422876 0.025817536 0.09303646 0.39053386 1.0996666 0.030269152 0.10507313 -0.31132495 -0.6845508 -0.5365685 -0.07889391 0.1402572 0.2531552 -0.07365514 -0.100972176 0.5877077 -0.71415436 -0.54766804 0.5117412 0.044949993 -0.5805047 -0.44922724 0.15558736 0.413206 -0.07492443 0.043158427 -0.8105432 -0.00723284 0.6473226 -0.14414163 -0.750885 -0.22096966 -0.06571499 -0.7234107 -0.005659574 -0.42399824 -0.41079727 -0.56792146 0.67240995 -0.4211786 0.31513375 1.0167344 -1.1219295 -0.3126956 0.2970558 0.23428488 -0.23018348 -0.7490089 -0.4025589 -0.31266418 -0.50914943 0.36810574 0.55411565 0.5377961 -0.8053905 -0.49211296 0.18754382 0.36558884 0.059340794 0.15875655 0.43796587 0.07222335 -0.41858146 -0.21894054 0.0563925 0.22508566 -0.5491394 0.10146004 -0.31030858 -0.214269 -0.46489844 0.70322615 0.3484948 0.5416388 -0.036632508 0.04002374 -0.6119081 0.19904682 0.7683453 -0.5655069 0.095121 -0.33263654 -0.30179998 -0.6678995 -0.33115152 -0.24358788 0.0039940877
조연우 0.5506358 0.6507405 0.63079166 0.040393434 0.42854726 -0.071801506 0.13205409 0.65340805 -0.2793423 -0.15929176 -0.48232377 0.8017326 0.20159838 -0.7462037 0.036584657 0.073696174 0.3208454 0.8841976 -0.023235656 0.07922827 -0.2569528 -0.50402 -0.35686976 -0.042950638 0.051564705 0.26123333 -0.028527629 -0.16970837 0.55651605 -0.60272634 -0.38364437 0.38720682 0.19585383 -0.43836123 -0.49636075 0.248496 0.34590077 -0.07541946 0.01072943 -0.7675163 0.10196325 0.5530073 -0.19775549 -0.5741078 -0.16713585 -0.02585332 -0.58199775 -0.014177043 -0.42076257 -0.42465386 -0.4766084 0.4625596 -0.36871907 0.24023527 0.75951844 -0.9629983 -0.25791973 0.261751 0.17191933 -0.15579994 -0.5719051 -0.2803868 -0.29501927 -0.4832566 0.32334682 0.46450838 0.50036544 -0.6353836 -0.44435185 0.060150728 0.26121688 0.12982881 0.097904444 0.46109214 0.060409818 -0.29525945 -0.18110773 0.072451845 0.096111886 -0.53191835 0.15818553 -0.26365128 -0.18184836 -0.3174201 0.5119608 0.41086638 0.45909 -0.0476923 0.0034405277 -0.52649015 0.2102158 0.6450688 -0.4538075 0.067874685 -0.21312015 -0.21511492 -0.54814774 -0.29394743 -0.20526393 -0.057192355
이영희 0.5521904 0.39638516 0.54563576 -0.18512087 0.40085617 0.14014201 0.16855422 0.28589457 0.56447995 0.5314683 -0.38403255 -0.4183632 -0.018392824 -0.34876156 -0.04626298 0.33887374 0.21903056 0.31974506 0.34363472 0.29081717 -0.26042977 0.29689282 0.2180378 -0.06040312 -0.19879445 0.642599 0.21433577 0.051566675 0.20868611 -0.34011644 0.012362847 -0.21832843 0.45814168 -0.009494456 -0.73476654 -0.186864 0.38333067 -0.37681755 0.5251225 -0.39862725 -0.23103736 0.2680236 -0.22465959 -0.13595103 -0.10537212 0.062767595 0.26691133 -0.06790573 -0.12653941 -0.36395708 -0.29226542 0.08410278 0.020114243 0.21805881 0.45723537 -0.29069003 0.46386278 0.34133914 -0.10630691 -0.38373762 -0.36954245 -0.39285707 -0.29206687 0.05502535 0.066146195 -0.039455257 -0.47005332 -0.23173119 -0.16073827 -0.17462641 0.18546857 -0.0819524 -0.2960008 0.374753 -0.21297526 -0.12764323 -0.36681372 0.09263643 -0.100941144 -0.44255984 0.29040375 -0.12717064 0.23963238 0.030023314 0.51709646 0.38591483 0.04841592 -0.08002502 -0.08789867 -0.06621794 0.15124574 -0.33503738 -0.096706785 -0.02219228 -0.11202983 0.22391486 -0.37408862 0.20626648 -0.3543306 -0.3770843
신윤섭 0.39209798 0.5266431 0.48237053 0.0015838856 0.32490033 -0.040634457 0.07028501 0.5520985 -0.15141533 -0.14021707 -0.36833093 0.63224113 0.1575898 -0.56539506 -0.030402094 0.07493364 0.26749402 0.6523349 -0.014752269 0.04387427 -0.20055889 -0.4402039 -0.28180435 -0.10849107 0.06009169 0.26449713 -0.04783429 -0.065415554 0.4293934 -0.4867872 -0.33796844 0.25209895 0.14251868 -0.29336134 -0.3675069 0.15116912 0.2291359 -0.10937854 0.05133826 -0.5864661 0.038828067 0.39626288 -0.13728814 -0.4178899 -0.0831647 -0.031887475 -0.36145923 -0.027070187 -0.37582588 -0.29257587 -0.429121 0.38138482 -0.28404665 0.18264407 0.63645786 -0.73630404 -0.17189145 0.2605006 0.118333526 -0.14398597 -0.43523246 -0.28598753 -0.18947676 -0.3581882 0.22040279 0.35289982 0.3460792 -0.49726766 -0.28986457 0.06296027 0.23504083 0.056351773 0.0826779 0.37810552 0.032176375 -0.25339335 -0.14382248 -0.02556531 0.06927172 -0.35394773 0.12274238 -0.19703224 -0.096518986 -0.2986057 0.47004756 0.3265676 0.34983355 -0.037424296 -0.017466392 -0.43892083 0.11122884 0.42325655 -0.3075513 0.040084526 -0.22284989 -0.16100985 -0.43926135 -0.23735787 -0.15184465 -0.013581394
임성한 0.8076631 1.014669 0.81597686 0.1371607 0.60759115 0.07603731 0.1721692 0.6880378 0.034199905 0.123224296 -0.7648605 0.70963204 0.26291496 -0.32526407 0.10966638 0.14823955 0.33951548 1.2201381 0.24457361 0.3157169 -0.4394804 -0.5769816 -0.48420832 -0.026533943 0.028695708 0.33829147 0.0049452125 -0.071975484 0.5405294 -0.72309566 -0.51129335 0.40531957 -0.072933964 -0.55880183 -0.49101838 -0.19700894 0.54721385 -0.14315857 0.35528916 -0.7169536 -0.28084895 0.70407283 -0.21052489 -0.809333 -0.49381554 -0.07508644 -0.63434404 -0.024418209 -0.22830345 -0.3468244 -0.5034351 0.7402316 -0.22127679 0.3772641 1.129917 -0.9360099 -0.15937527 0.35581425 0.1819663 -0.3383485 -0.9144779 -0.5486114 -0.35567495 -0.28062016 0.29020262 0.28177178 0.20285708 -0.79890156 -0.47646615 0.31879115 0.5924841 -0.15402001 0.0077865436 0.23705046 -0.052738756 -0.45736295 -0.36303377 0.2547939 0.40489736 -0.52651215 0.06950839 -0.38055295 -0.07760777 -0.55926466 0.7420923 0.16198932 0.40204862 -0.018751238 0.08369277 -0.56010264 0.22067313 0.58202326 -0.5868692 0.022150604 -0.4397779 -0.24942487 -0.74111533 -0.044798713 -0.34707204 -0.015891599
이태곤 0.88195914 0.9995154 0.7809402 0.09839481 0.64607865 0.19110546 0.29174826 0.5008842 0.4836706 0.51679033 -0.75454986 0.11707853 0.19326378 -0.022605814 0.100268014 0.3496306 0.31587756 1.128052 0.5390112 0.43772966 -0.49182191 -0.2077109 -0.19272533 -0.00062670314 -0.112368 0.55120724 0.19672333 0.0018028715 0.38860264 -0.599167 -0.3036088 0.17262696 -0.036418915 -0.3457278 -0.62321097 -0.4922721 0.617652 -0.32060668 0.66072696 -0.5486537 -0.5082218 0.61575216 -0.21546696 -0.6688154 -0.5945365 0.007908159 -0.26898807 -0.048941467 -0.09199088 -0.30556837 -0.37915188 0.60469437 -0.005489195 0.4222702 1.0136012 -0.6585368 0.1326586 0.39658073 0.020215755 -0.4891497 -0.8476402 -0.64271814 -0.35238546 0.023553623 0.20867476 -0.01681625 -0.3248285 -0.669938 -0.4004629 0.23537576 0.6211762 -0.27072644 -0.21408111 0.11845763 -0.20737776 -0.34748286 -0.5978182 0.39307204 0.42360216 -0.53746295 0.16591528 -0.3620714 0.13544875 -0.5052793 0.780528 0.06320721 0.19264913 -0.06621075 0.041519746 -0.36385295 0.27877635 0.11686521 -0.51653606 -0.040835787 -0.42921868 -0.070889786 -0.6602007 0.20318985 -0.42926657 -0.124400385
이덕화 0.661886 0.3607452 0.9155308 -0.0946882 0.39747405 -0.39297515 0.014250687 -0.05836504 0.016585581 0.21993355 -0.51833296 0.1743676 0.039587636 -0.62026244 -0.17424564 0.32156503 0.4648245 0.53373045 -0.22502823 0.3281502 -0.72752297 -0.48994607 -0.2559757 0.47729072 -0.115049385 0.44339797 0.39398184 -0.6797433 0.46470675 -0.6223795 -0.0795984 -0.35511667 0.5335402 -0.31516826 -0.6904464 0.3364466 0.22653383 -0.4105002 0.8688577 -0.8477731 -0.05602621 0.2610568 -0.956484 -0.08044182 -0.11568761 0.33449295 0.48638156 0.52005464 -0.49197456 -0.21221717 -0.10035342 0.14773735 0.028362004 0.5825309 0.18507244 -0.020234391 -0.31075075 0.7337 0.11903952 0.29863828 -0.6318525 -0.5525034 -0.21451129 -0.035737783 0.29525223 -0.34036186 0.5792532 -0.36165214 0.23020948 -0.16684623 0.43627176 -0.018960211 0.3140596 -0.2941716 -0.052443758 0.3995309 -0.23782371 0.17852812 0.08938515 -0.5869466 -0.04201707 0.2208055 -0.005495552 -0.49521753 0.031578124 0.59660447 0.14514507 0.2848312 -0.29414642 -0.4169009 -0.35049474 0.27176252 0.05360936 -0.04903445 -0.70253664 -0.00013827404 -0.23614287 0.22194754 -0.24467394 -0.23958208
현석 1.0136462 0.87601435 0.9472422 -0.007351713 0.6581016 0.32337755 0.46243596 0.5360064 0.7893625 0.9174721 -0.7897691 -0.7073834 -0.014007402 -0.26668265 -0.005793814 0.46814123 0.33182693 0.73881835 0.56183505 0.5311044 -0.504689 0.3331291 0.20972317 -0.060235873 -0.4405342 0.9207896 0.3935542 -0.098604344 0.3876661 -0.6967947 -0.069573715 -0.2710729 0.66925454 -0.099048056 -1.2026457 -0.43866214 0.7281804 -0.7372765 1.0283222 -0.7087009 -0.45469555 0.4999883 -0.42848977 -0.3010138 -0.44425306 0.074702464 0.29468623 -0.10812666 -0.17240746 -0.49284726 -0.34820685 0.30650008 0.12786296 0.3659584 0.83750355 -0.516581 0.70744014 0.65744185 -0.22901312 -0.5113785 -0.74938303 -0.6932941 -0.47173482 0.06873151 0.0023033111 -0.27127114 -0.681947 -0.34928656 -0.4718099 -0.11799646 0.6093906 -0.23971666 -0.5075403 0.32383278 -0.25202626 -0.23852573 -0.7257931 0.41407773 0.08638211 -0.67690736 0.3442984 -0.15604305 0.40010965 -0.17155038 0.7374115 0.4739834 0.03040854 -0.10664057 -0.05998577 -0.16252093 0.36694485 -0.43212557 -0.19617517 -0.15279713 -0.3071796 0.38842615 -0.6815855 0.43843928 -0.5041769 -0.48157817
차주옥 1.0268657 0.9477255 0.90761477 0.09547394 0.6623735 0.3073987 0.40626052 0.566109 0.6244173 0.77105874 -0.8490073 -0.4033489 0.039195303 -0.06689787 0.052784782 0.3919446 0.30078766 0.95762914 0.56381863 0.5740449 -0.50227463 0.068811305 0.042101618 -0.0109787695 -0.32399023 0.74972695 0.33444795 -0.09647325 0.39044765 -0.6925463 -0.1879591 -0.090266705 0.39105552 -0.21794084 -0.96080947 -0.5107286 0.7566862 -0.60109544 0.9089741 -0.64756304 -0.5288095 0.60747886 -0.3922961 -0.48265606 -0.56382626 0.05680196 0.07518635 -0.08461598 -0.120438255 -0.39201808 -0.34615836 0.46310067 0.09126335 0.37458974 0.94811904 -0.59441537 0.4637043 0.57733583 -0.091264285 -0.47842026 -0.8339467 -0.68920314 -0.4439569 0.03555739 0.0038195811 -0.23010957 -0.5147057 -0.4704853 -0.4938692 0.107608415 0.67360175 -0.3109001 -0.40979514 0.17384937 -0.2523768 -0.30673212 -0.7205152 0.48094192 0.27022532 -0.61575454 0.28638124 -0.20619836 0.29867935 -0.36377135 0.72992545 0.29349065 0.072484024 -0.082579754 -0.020561747 -0.24732135 0.35587877 -0.23094644 -0.33155838 -0.12496279 -0.4019271 0.20772856 -0.7073783 0.3963619 -0.4859935 -0.34212303
한혜숙 0.9356031 0.87537384 0.85912216 -0.010311195 0.64781976 0.29090223 0.42006046 0.49376568 0.78089726 0.8656223 -0.7586877 -0.5608467 0.032415967 -0.12346792 0.05663917 0.4084616 0.33114234 0.8410222 0.6253064 0.5426833 -0.46017 0.23248468 0.11433567 -0.0038475797 -0.35941124 0.85126275 0.31872818 -0.06136068 0.3607468 -0.63965845 -0.12242709 -0.1957832 0.42812395 -0.13442233 -0.9986084 -0.5126891 0.7242297 -0.62420255 0.9672424 -0.6299637 -0.5500799 0.5527632 -0.39281213 -0.35882324 -0.522098 0.0915133 0.20381492 -0.09865396 -0.102579795 -0.40648735 -0.32640633 0.3790889 0.12350307 0.3746192 0.85340214 -0.49620265 0.5971938 0.6082349 -0.15227988 -0.4935534 -0.7833473 -0.68228745 -0.4483725 0.07425894 -0.0037542805 -0.22197112 -0.6702161 -0.40058428 -0.4181124 -0.017269073 0.5820934 -0.2574873 -0.43577048 0.24899235 -0.2769369 -0.27407047 -0.7343322 0.4631732 0.14355911 -0.6235182 0.30401728 -0.16384806 0.372231 -0.27277067 0.75293493 0.3782288 0.01126541 -0.1188153 -0.044205107 -0.1986589 0.3484649 -0.36099762 -0.2939924 -0.13846342 -0.3417536 0.30351716 -0.641253 0.42854294 -0.49271935 -0.43144673
임채무 0.91679406 0.9776546 0.86968744 0.24437578 0.6292429 0.16490082 0.35884273 0.7043854 0.030829847 0.25126797 -0.82951945 0.4961813 0.24913187 -0.277557 0.063567735 0.18935381 0.33619934 1.1963325 0.23009029 0.32293957 -0.44035056 -0.4608202 -0.46843913 0.020315968 -0.08634875 0.38535738 0.09370485 -0.16296889 0.52997965 -0.7668463 -0.5121322 0.3571623 0.097091764 -0.54372394 -0.6371761 -0.2095188 0.63443846 -0.2930371 0.50416607 -0.7786951 -0.28246984 0.6666011 -0.28454447 -0.6653864 -0.4883959 -0.0641859 -0.51923746 -0.036539122 -0.23079276 -0.3580346 -0.41483107 0.7320891 -0.17711283 0.4235729 1.0849327 -0.9312769 -0.05120463 0.43593296 0.046384763 -0.26684487 -0.987185 -0.6012318 -0.35650104 -0.2758924 0.15704481 0.13378955 0.1591886 -0.6793019 -0.5712308 0.29495528 0.6776662 -0.13084255 -0.076454856 0.16039173 -0.022618385 -0.41135085 -0.42197564 0.34806404 0.41174424 -0.56451124 0.12035953 -0.2600198 0.02871347 -0.5744296 0.67738473 0.21013169 0.29935613 0.04294507 0.088949695 -0.48545486 0.27897727 0.50703657 -0.535402 -0.0105263395 -0.44466344 -0.09627971 -0.7617282 0.051461246 -0.30943456 -0.039228093
박해미 0.9207233 0.955936 0.87354946 0.12735327 0.6430548 0.24782395 0.39313143 0.5411891 0.50094306 0.641913 -0.81733745 -0.18112661 0.10405826 -0.06709234 0.05715167 0.31086493 0.30748504 1.0223814 0.47738582 0.45344085 -0.4642016 -0.028716862 -0.116768554 0.007639651 -0.26268843 0.6228097 0.23117264 -0.10002862 0.37427428 -0.68859726 -0.2764476 0.028568037 0.22255768 -0.3255588 -0.8310392 -0.4532577 0.67128277 -0.4786934 0.8162932 -0.65059817 -0.49000704 0.62103295 -0.33386838 -0.51738197 -0.5694532 -0.0013000511 -0.11657725 -0.082160234 -0.09876901 -0.35183123 -0.31679925 0.52223855 0.03802551 0.40582398 0.93573225 -0.62320924 0.30338147 0.5154422 -0.07029142 -0.41424957 -0.87553155 -0.6345933 -0.38521108 -0.028900893 0.045082442 -0.13482177 -0.37859052 -0.5108381 -0.46309736 0.13805947 0.6901053 -0.2476698 -0.31261715 0.14256367 -0.17827833 -0.30766064 -0.6314449 0.4767837 0.31815425 -0.60955685 0.16483937 -0.21975297 0.2333923 -0.44447306 0.69535094 0.22227493 0.1285632 -0.054075327 0.027166035 -0.3254166 0.3403207 -0.014390848 -0.408019 -0.13036862 -0.41913635 0.11670545 -0.6682284 0.33890265 -0.4101785 -0.21535558
강지섭 0.94389814 0.98763865 0.8701709 0.22270231 0.6144744 0.18258718 0.3162501 0.6349154 0.20180342 0.4230318 -0.84787923 0.2512537 0.19034655 -0.13614546 0.09231033 0.20310622 0.32621935 1.1341074 0.3198931 0.40887523 -0.4642757 -0.34324968 -0.34345642 0.018093523 -0.15044512 0.45269436 0.13645947 -0.10673972 0.46401918 -0.736301 -0.43713167 0.25716576 0.10897142 -0.4836907 -0.6744967 -0.36890596 0.65813833 -0.37446374 0.6104465 -0.6755267 -0.39657182 0.64728224 -0.2976167 -0.67731565 -0.53812754 -0.055190977 -0.39594987 -0.079463355 -0.1510813 -0.33536905 -0.40268132 0.6765703 -0.09231298 0.40991694 1.0685041 -0.81929606 0.07053501 0.4481331 0.069903225 -0.31718287 -0.93281215 -0.6389146 -0.3990511 -0.16081859 0.11948551 0.052177127 -0.018546743 -0.6494336 -0.54246336 0.29374358 0.68709236 -0.24219427 -0.1472624 0.12438935 -0.110261105 -0.38796702 -0.5183193 0.4128921 0.4272548 -0.5623474 0.112015866 -0.2622274 0.11102772 -0.534058 0.70617485 0.18987998 0.21141179 -0.0023949288 0.07739213 -0.44058478 0.3078216 0.2904832 -0.47304246 -0.0730082 -0.46346572 -0.060510237 -0.7475045 0.17732233 -0.37654018 -0.10269408
반효정 0.7807874 0.9006308 0.8436668 0.22051688 0.54422337 -0.02275243 0.24849495 0.8796135 -0.34309414 -0.1444849 -0.7018028 0.93599993 0.28349438 -0.6653138 0.05311011 0.064320095 0.35227287 1.1413085 -0.025475759 0.1297803 -0.35412917 -0.6547195 -0.55986315 -0.0681884 0.035798375 0.27859086 -0.053287495 -0.16974498 0.632952 -0.81325114 -0.5684291 0.49534807 0.19583131 -0.6076091 -0.5479324 0.13756593 0.4713 -0.15488157 0.1525994 -0.9052454 -0.0026732509 0.7066254 -0.2631893 -0.7472851 -0.3158196 -0.09658742 -0.75244635 -0.036316507 -0.43365756 -0.41519055 -0.56607705 0.70408636 -0.39090565 0.33695772 1.086473 -1.140951 -0.30331856 0.38415954 0.20515713 -0.16120765 -0.84581965 -0.47305697 -0.33960718 -0.5170337 0.28309113 0.47173756 0.5759515 -0.7702293 -0.58798575 0.23917468 0.5140328 0.03887007 0.13583869 0.34227234 0.11135191 -0.45524254 -0.20592603 0.13586232 0.27149597 -0.5533807 0.099202536 -0.23966597 -0.15392534 -0.5092732 0.619507 0.34560502 0.4822107 0.024974639 0.06139467 -0.6668636 0.2575455 0.7878637 -0.5516279 0.055100694 -0.34304196 -0.2526096 -0.7504794 -0.229211 -0.23749395 0.016946109
이보희 0.8876598 0.6437813 0.86372465 -0.16630185 0.55122393 0.25008103 0.38587067 0.51012313 0.7561967 0.8097895 -0.58701986 -0.7360315 -0.04880629 -0.4653397 -0.03837348 0.44660157 0.3279681 0.46488324 0.46395367 0.45260894 -0.40755 0.42589104 0.27676782 -0.10452221 -0.4243436 0.9188535 0.31966156 -0.05093793 0.33240545 -0.59639776 0.028452583 -0.34697178 0.7757845 -0.027299715 -1.1579815 -0.30499715 0.6392879 -0.67430717 0.9035789 -0.68537986 -0.31339 0.39134958 -0.4217523 -0.120328516 -0.1860482 0.107825615 0.4265041 -0.089143105 -0.19245346 -0.5097148 -0.38314512 0.1443134 0.058100834 0.27816752 0.6681988 -0.4459759 0.752688 0.6012157 -0.21974723 -0.44892642 -0.57960254 -0.6124052 -0.43632448 0.056585625 0.022548229 -0.15834613 -0.6387799 -0.25856644 -0.3490512 -0.22722657 0.390026 -0.14813013 -0.47190824 0.46305677 -0.26782182 -0.2359877 -0.57133996 0.22210342 -0.13498412 -0.634631 0.37871155 -0.053148147 0.39938533 0.040670883 0.6928869 0.57449096 0.03569323 -0.09257522 -0.08483485 -0.077586904 0.31090584 -0.5267386 -0.0677947 -0.09943947 -0.16009544 0.4303596 -0.57126164 0.34469524 -0.49698785 -0.5614831
정혜선 0.73878366 0.5650703 0.7374377 -0.16420114 0.48595634 0.2487167 0.30427146 0.46167985 0.62872624 0.67791224 -0.50020933 -0.63135135 -0.06480039 -0.41287303 -0.01879308 0.38773146 0.33354235 0.3787459 0.37306917 0.37511715 -0.34518093 0.35289827 0.2602131 -0.11720873 -0.33862644 0.82030696 0.32051006 -0.036446728 0.26619017 -0.49376875 0.036983542 -0.30192733 0.67615056 -0.042183097 -1.0321723 -0.23424006 0.5329997 -0.5714995 0.775952 -0.6165963 -0.2777325 0.33111438 -0.3499575 -0.10770088 -0.14301005 0.093384996 0.34632978 -0.085281834 -0.18665054 -0.47072506 -0.37420848 0.12909439 0.053444345 0.26838022 0.52807486 -0.3744077 0.6086242 0.5614762 -0.16519046 -0.4259705 -0.45515838 -0.5259331 -0.42337945 0.060800213 0.04000892 -0.11304707 -0.57060236 -0.1950353 -0.31269187 -0.23885232 0.367422 -0.072585374 -0.38366583 0.3904606 -0.24577802 -0.20398311 -0.48770797 0.16445154 -0.12947583 -0.51895154 0.3808583 -0.07748322 0.3792931 0.048227552 0.6101301 0.54938126 0.06424111 -0.10998282 -0.08220666 -0.059623793 0.26975763 -0.48076215 -0.08126041 -0.10267595 -0.16464378 0.38707706 -0.46144313 0.28737488 -0.45008886 -0.4757029
